<?xml version="1.0"?>
<MethodSetup Method="BDT::BDTG">
  <GeneralInfo>
    <Info name="TMVA Release" value="4.1.2 [262402]"/>
    <Info name="ROOT Release" value="5.32/00 [335872]"/>
    <Info name="Creator" value="amd12"/>
    <Info name="Date" value="Tue Sep 30 14:26:12 2014"/>
    <Info name="Host" value="Linux lxbuild168.cern.ch 2.6.18-308.16.1.el5 #1 SMP Thu Oct 4 14:02:28 CEST 2012 x86_64 x86_64 x86_64 GNU/Linux"/>
    <Info name="Dir" value="/vols/cms04/amd12/CMSSW_5_3_7/src/UserCode/ICHiggsTauTau/Analysis/HiggsHTohh"/>
    <Info name="Training events" value="113877"/>
    <Info name="TrainingTime" value="1.42356553e+02"/>
    <Info name="AnalysisType" value="Classification"/>
  </GeneralInfo>
  <Options>
    <Option name="V" modified="Yes">False</Option>
    <Option name="VerbosityLevel" modified="No">Default</Option>
    <Option name="VarTransform" modified="No">None</Option>
    <Option name="H" modified="Yes">False</Option>
    <Option name="CreateMVAPdfs" modified="No">False</Option>
    <Option name="IgnoreNegWeightsInTraining" modified="No">False</Option>
    <Option name="NTrees" modified="Yes">1000</Option>
    <Option name="RenormByClass" modified="No">False</Option>
    <Option name="BoostType" modified="Yes">Grad</Option>
    <Option name="AdaBoostR2Loss" modified="No">quadratic</Option>
    <Option name="UseBaggedGrad" modified="Yes">True</Option>
    <Option name="GradBaggingFraction" modified="Yes">5.000000e-01</Option>
    <Option name="Shrinkage" modified="Yes">1.000000e-01</Option>
    <Option name="AdaBoostBeta" modified="No">1.000000e+00</Option>
    <Option name="UseRandomisedTrees" modified="No">False</Option>
    <Option name="UseNvars" modified="No">3</Option>
    <Option name="UsePoissonNvars" modified="No">True</Option>
    <Option name="UseNTrainEvents" modified="No">113877</Option>
    <Option name="UseWeightedTrees" modified="No">True</Option>
    <Option name="UseYesNoLeaf" modified="No">True</Option>
    <Option name="NodePurityLimit" modified="No">5.000000e-01</Option>
    <Option name="SeparationType" modified="No">giniindex</Option>
    <Option name="nEventsMin" modified="No">316</Option>
    <Option name="nCuts" modified="Yes">20</Option>
    <Option name="UseFisherCuts" modified="No">False</Option>
    <Option name="MinLinCorrForFisher" modified="No">8.000000e-01</Option>
    <Option name="UseExclusiveVars" modified="No">False</Option>
    <Option name="PruneStrength" modified="No">0.000000e+00</Option>
    <Option name="PruneMethod" modified="No">nopruning</Option>
    <Option name="PruneBeforeBoost" modified="No">False</Option>
    <Option name="PruningValFraction" modified="No">5.000000e-01</Option>
    <Option name="NNodesMax" modified="Yes">5</Option>
    <Option name="MaxDepth" modified="No">3</Option>
    <Option name="DoBoostMonitor" modified="No">False</Option>
    <Option name="NegWeightTreatment" modified="No">ignorenegweights</Option>
  </Options>
  <Variables NVar="6">
    <Variable VarIndex="0" Expression="pt_1" Label="pt_1" Title="pt_1" Unit="" Internal="pt_1" Type="F" Min="2.00004292e+01" Max="5.47700806e+02"/>
    <Variable VarIndex="1" Expression="pt_2" Label="pt_2" Title="pt_2" Unit="" Internal="pt_2" Type="F" Min="2.00001125e+01" Max="4.31344696e+02"/>
    <Variable VarIndex="2" Expression="met" Label="met" Title="met" Unit="" Internal="met" Type="F" Min="2.54746795e-01" Max="5.78153137e+02"/>
    <Variable VarIndex="3" Expression="mt_1" Label="mt_1" Title="mt_1" Unit="" Internal="mt_1" Type="F" Min="4.97221015e-04" Max="7.26898010e+02"/>
    <Variable VarIndex="4" Expression="emu_dphi" Label="emu_dphi" Title="emu_dphi" Unit="" Internal="emu_dphi" Type="F" Min="7.48634338e-05" Max="3.14158440e+00"/>
    <Variable VarIndex="5" Expression="pzeta" Label="pzeta" Title="pzeta" Unit="" Internal="pzeta" Type="F" Min="-4.14415314e+02" Max="4.31578613e+02"/>
  </Variables>
  <Spectators NSpec="1">
    <Spectator SpecIndex="0" Expression="n_prebjets" Label="n_prebjets" Title="n_prebjets" Unit="" Internal="n_prebjets" Type="F" Min="3.00000000e+00" Max="1.10000000e+01"/>
  </Spectators>
  <Classes NClass="2">
    <Class Name="Background" Index="0"/>
    <Class Name="Signal" Index="1"/>
  </Classes>
  <Transformations NTransformations="0"/>
  <MVAPdfs/>
  <Weights NTrees="1000" AnalysisType="1">
    <BinaryTree type="DecisionTree" boostWeight="1.0000000000000000e+00" itree="0">
      <Node pos="s" depth="0" NCoef="0" IVar="3" Cut="3.4614665985107422e+01" cType="1" res="-4.8203587532043457e-01" rms="1.3282103836536407e-01" purity="1.7964139580726624e-02" nType="0">
        <Node pos="l" depth="1" NCoef="0" IVar="-1" Cut="0.0000000000000000e+00" cType="1" res="-6.7377269268035889e-02" rms="2.4309279024600983e-01" purity="6.3072204589843750e-02" nType="-99"/>
        <Node pos="r" depth="1" NCoef="0" IVar="3" Cut="6.7580780029296875e+01" cType="1" res="-4.9321946501731873e-01" rms="8.2064308226108551e-02" purity="6.7805256694555283e-03" nType="0">
          <Node pos="l" depth="2" NCoef="0" IVar="-1" Cut="0.0000000000000000e+00" cType="1" res="-7.1026004850864410e-02" rms="1.2054625898599625e-01" purity="1.4748931862413883e-02" nType="-99"/>
          <Node pos="r" depth="2" NCoef="0" IVar="-1" Cut="0.0000000000000000e+00" cType="1" res="-8.0368943512439728e-02" rms="4.4818267226219177e-02" purity="2.0127280149608850e-03" nType="-99"/>
        </Node>
      </Node>
    </BinaryTree>
    <BinaryTree type="DecisionTree" boostWeight="1.0000000000000000e+00" itree="1">
      <Node pos="s" depth="0" NCoef="0" IVar="3" Cut="3.4621768951416016e+01" cType="1" res="-4.4523957371711731e-01" rms="1.3013072311878204e-01" purity="1.7332622781395912e-02" nType="0">
        <Node pos="l" depth="1" NCoef="0" IVar="-1" Cut="0.0000000000000000e+00" cType="1" res="-6.2537558376789093e-02" rms="2.4091510474681854e-01" purity="6.1867766082286835e-02" nType="-99"/>
        <Node pos="r" depth="1" NCoef="0" IVar="5" Cut="-2.5289321899414062e+01" cType="0" res="-4.5533567667007446e-01" rms="7.8963659703731537e-02" purity="6.2975110486149788e-03" nType="0">
          <Node pos="l" depth="2" NCoef="0" IVar="-1" Cut="0.0000000000000000e+00" cType="1" res="-7.2625949978828430e-02" rms="1.1215780675411224e-01" purity="1.2794359587132931e-02" nType="-99"/>
          <Node pos="r" depth="2" NCoef="0" IVar="-1" Cut="0.0000000000000000e+00" cType="1" res="-7.0546180009841919e-02" rms="5.9934020042419434e-02" purity="3.6144952755421400e-03" nType="-99"/>
        </Node>
      </Node>
    </BinaryTree>
    <BinaryTree type="DecisionTree" boostWeight="1.0000000000000000e+00" itree="2">
      <Node pos="s" depth="0" NCoef="0" IVar="3" Cut="3.4614665985107422e+01" cType="1" res="-4.1071781516075134e-01" rms="1.3073180615901947e-01" purity="1.7552608624100685e-02" nType="0">
        <Node pos="l" depth="1" NCoef="0" IVar="-1" Cut="0.0000000000000000e+00" cType="1" res="-5.8777183294296265e-02" rms="2.3777891695499420e-01" purity="6.0157772153615952e-02" nType="-99"/>
        <Node pos="r" depth="1" NCoef="0" IVar="5" Cut="-4.0605297088623047e+01" cType="0" res="-4.1946271061897278e-01" rms="8.3537414669990540e-02" purity="7.0485845208168030e-03" nType="0">
          <Node pos="l" depth="2" NCoef="0" IVar="-1" Cut="0.0000000000000000e+00" cType="1" res="-6.6433615982532501e-02" rms="1.1475928872823715e-01" purity="1.3396543450653553e-02" nType="-99"/>
          <Node pos="r" depth="2" NCoef="0" IVar="-1" Cut="0.0000000000000000e+00" cType="1" res="-6.6457413136959076e-02" rms="5.6382913142442703e-02" purity="3.1963500659912825e-03" nType="-99"/>
        </Node>
      </Node>
    </BinaryTree>
    <BinaryTree type="DecisionTree" boostWeight="1.0000000000000000e+00" itree="3">
      <Node pos="s" depth="0" NCoef="0" IVar="3" Cut="3.4614665985107422e+01" cType="1" res="-3.7873864173889160e-01" rms="1.3249699771404266e-01" purity="1.8097270280122757e-02" nType="0">
        <Node pos="l" depth="1" NCoef="0" IVar="-1" Cut="0.0000000000000000e+00" cType="1" res="-5.4600298404693604e-02" rms="2.4333292245864868e-01" purity="6.3205905258655548e-02" nType="-99"/>
        <Node pos="r" depth="1" NCoef="0" IVar="5" Cut="-4.2683280944824219e+01" cType="0" res="-3.8748934864997864e-01" rms="8.2531869411468506e-02" purity="6.8790209479629993e-03" nType="0">
          <Node pos="l" depth="2" NCoef="0" IVar="-1" Cut="0.0000000000000000e+00" cType="1" res="-6.3135847449302673e-02" rms="1.1291793733835220e-01" purity="1.2962616980075836e-02" nType="-99"/>
          <Node pos="r" depth="2" NCoef="0" IVar="-1" Cut="0.0000000000000000e+00" cType="1" res="-6.2872566282749176e-02" rms="5.4435040801763535e-02" purity="2.9794650617986917e-03" nType="-99"/>
        </Node>
      </Node>
    </BinaryTree>
    <BinaryTree type="DecisionTree" boostWeight="1.0000000000000000e+00" itree="4">
      <Node pos="s" depth="0" NCoef="0" IVar="3" Cut="3.2756805419921875e+01" cType="1" res="-3.4975358843803406e-01" rms="1.3254769146442413e-01" purity="1.8158556893467903e-02" nType="0">
        <Node pos="l" depth="1" NCoef="0" IVar="-1" Cut="0.0000000000000000e+00" cType="1" res="-5.1724389195442200e-02" rms="2.4699361622333527e-01" purity="6.5265424549579620e-02" nType="-99"/>
        <Node pos="r" depth="1" NCoef="0" IVar="3" Cut="6.3953361511230469e+01" cType="1" res="-3.5766473412513733e-01" rms="8.4983915090560913e-02" purity="7.3000928387045860e-03" nType="0">
          <Node pos="l" depth="2" NCoef="0" IVar="-1" Cut="0.0000000000000000e+00" cType="1" res="-5.5437803268432617e-02" rms="1.2977282702922821e-01" purity="1.7135068774223328e-02" nType="-99"/>
          <Node pos="r" depth="2" NCoef="0" IVar="-1" Cut="0.0000000000000000e+00" cType="1" res="-6.2128141522407532e-02" rms="4.8863790929317474e-02" purity="2.3924240376800299e-03" nType="-99"/>
        </Node>
      </Node>
    </BinaryTree>
    <BinaryTree type="DecisionTree" boostWeight="1.0000000000000000e+00" itree="5">
      <Node pos="s" depth="0" NCoef="0" IVar="3" Cut="3.4615333557128906e+01" cType="1" res="-3.2387650012969971e-01" rms="1.2946200370788574e-01" purity="1.7353225499391556e-02" nType="0">
        <Node pos="l" depth="1" NCoef="0" IVar="-1" Cut="0.0000000000000000e+00" cType="1" res="-4.9621000885963440e-02" rms="2.3735544085502625e-01" purity="5.9935491532087326e-02" nType="-99"/>
        <Node pos="r" depth="1" NCoef="0" IVar="5" Cut="-5.1846488952636719e+01" cType="0" res="-3.3068829774856567e-01" rms="8.1556931138038635e-02" purity="6.7267636768519878e-03" nType="0">
          <Node pos="l" depth="2" NCoef="0" IVar="-1" Cut="0.0000000000000000e+00" cType="1" res="-5.7003300637006760e-02" rms="1.0731162875890732e-01" purity="1.1707377620041370e-02" nType="-99"/>
          <Node pos="r" depth="2" NCoef="0" IVar="-1" Cut="0.0000000000000000e+00" cType="1" res="-5.7622071355581284e-02" rms="5.0210595130920410e-02" purity="2.5343066081404686e-03" nType="-99"/>
        </Node>
      </Node>
    </BinaryTree>
    <BinaryTree type="DecisionTree" boostWeight="1.0000000000000000e+00" itree="6">
      <Node pos="s" depth="0" NCoef="0" IVar="3" Cut="3.4615158081054688e+01" cType="1" res="-2.9858902096748352e-01" rms="1.3171613216400146e-01" purity="1.8012491986155510e-02" nType="0">
        <Node pos="l" depth="1" NCoef="0" IVar="-1" Cut="0.0000000000000000e+00" cType="1" res="-4.6806659549474716e-02" rms="2.4321477115154266e-01" purity="6.3147194683551788e-02" nType="-99"/>
        <Node pos="r" depth="1" NCoef="0" IVar="5" Cut="-5.1846488952636719e+01" cType="0" res="-3.0543294548988342e-01" rms="8.2231134176254272e-02" purity="6.8366704508662224e-03" nType="0">
          <Node pos="l" depth="2" NCoef="0" IVar="-1" Cut="0.0000000000000000e+00" cType="1" res="-5.4633002728223801e-02" rms="1.1064178496599197e-01" purity="1.2448692694306374e-02" nType="-99"/>
          <Node pos="r" depth="2" NCoef="0" IVar="-1" Cut="0.0000000000000000e+00" cType="1" res="-5.5472910404205322e-02" rms="4.6889137476682663e-02" purity="2.2068039979785681e-03" nType="-99"/>
        </Node>
      </Node>
    </BinaryTree>
    <BinaryTree type="DecisionTree" boostWeight="1.0000000000000000e+00" itree="7">
      <Node pos="s" depth="0" NCoef="0" IVar="3" Cut="3.4615158081054688e+01" cType="1" res="-2.7512624859809875e-01" rms="1.3433051109313965e-01" purity="1.8793057650327682e-02" nType="0">
        <Node pos="l" depth="1" NCoef="0" IVar="-1" Cut="0.0000000000000000e+00" cType="1" res="-4.4211901724338531e-02" rms="2.4988892674446106e-01" purity="6.6929370164871216e-02" nType="-99"/>
        <Node pos="r" depth="1" NCoef="0" IVar="2" Cut="3.0058332443237305e+01" cType="1" res="-2.8206944465637207e-01" rms="8.3460912108421326e-02" purity="7.0482054725289345e-03" nType="0">
          <Node pos="l" depth="2" NCoef="0" IVar="-1" Cut="0.0000000000000000e+00" cType="1" res="-4.5876614749431610e-02" rms="1.3955366611480713e-01" purity="1.9914990290999413e-02" nType="-99"/>
          <Node pos="r" depth="2" NCoef="0" IVar="-1" Cut="0.0000000000000000e+00" cType="1" res="-5.4788030683994293e-02" rms="6.8222559988498688e-02" purity="4.6956636942923069e-03" nType="-99"/>
        </Node>
      </Node>
    </BinaryTree>
    <BinaryTree type="DecisionTree" boostWeight="1.0000000000000000e+00" itree="8">
      <Node pos="s" depth="0" NCoef="0" IVar="3" Cut="3.2873851776123047e+01" cType="1" res="-2.5473231077194214e-01" rms="1.3277292251586914e-01" purity="1.8382241949439049e-02" nType="0">
        <Node pos="l" depth="1" NCoef="0" IVar="-1" Cut="0.0000000000000000e+00" cType="1" res="-4.2491264641284943e-02" rms="2.4857500195503235e-01" purity="6.6168658435344696e-02" nType="-99"/>
        <Node pos="r" depth="1" NCoef="0" IVar="5" Cut="-2.8807308197021484e+01" cType="0" res="-2.6074752211570740e-01" rms="8.4797464311122894e-02" purity="7.2951661422848701e-03" nType="0">
          <Node pos="l" depth="2" NCoef="0" IVar="-1" Cut="0.0000000000000000e+00" cType="1" res="-5.1009986549615860e-02" rms="1.2322778999805450e-01" purity="1.5556198544800282e-02" nType="-99"/>
          <Node pos="r" depth="2" NCoef="0" IVar="-1" Cut="0.0000000000000000e+00" cType="1" res="-5.1712248474359512e-02" rms="5.9107322245836258e-02" purity="3.5212510265409946e-03" nType="-99"/>
        </Node>
      </Node>
    </BinaryTree>
    <BinaryTree type="DecisionTree" boostWeight="1.0000000000000000e+00" itree="9">
      <Node pos="s" depth="0" NCoef="0" IVar="3" Cut="3.2757297515869141e+01" cType="1" res="-2.3574943840503693e-01" rms="1.3132695853710175e-01" purity="1.7988273873925209e-02" nType="0">
        <Node pos="l" depth="1" NCoef="0" IVar="-1" Cut="0.0000000000000000e+00" cType="1" res="-4.1204806417226791e-02" rms="2.4699188768863678e-01" purity="6.5264448523521423e-02" nType="-99"/>
        <Node pos="r" depth="1" NCoef="0" IVar="3" Cut="6.3956359863281250e+01" cType="1" res="-2.4099993705749512e-01" rms="8.5294097661972046e-02" purity="7.3773958720266819e-03" nType="0">
          <Node pos="l" depth="2" NCoef="0" IVar="-1" Cut="0.0000000000000000e+00" cType="1" res="-4.5611213892698288e-02" rms="1.3326935470104218e-01" purity="1.8106387928128242e-02" nType="-99"/>
          <Node pos="r" depth="2" NCoef="0" IVar="-1" Cut="0.0000000000000000e+00" cType="1" res="-5.2324518561363220e-02" rms="4.4602043926715851e-02" purity="1.9942007493227720e-03" nType="-99"/>
        </Node>
      </Node>
    </BinaryTree>
    <BinaryTree type="DecisionTree" boostWeight="1.0000000000000000e+00" itree="10">
      <Node pos="s" depth="0" NCoef="0" IVar="3" Cut="3.4620681762695312e+01" cType="1" res="-2.1806202828884125e-01" rms="1.3071711361408234e-01" purity="1.7868138849735260e-02" nType="0">
        <Node pos="l" depth="1" NCoef="0" IVar="-1" Cut="0.0000000000000000e+00" cType="1" res="-3.9046466350555420e-02" rms="2.4681350588798523e-01" purity="6.5179564058780670e-02" nType="-99"/>
        <Node pos="r" depth="1" NCoef="0" IVar="5" Cut="-4.2683280944824219e+01" cType="0" res="-2.2352688014507294e-01" rms="7.8447021543979645e-02" purity="6.2299659475684166e-03" nType="0">
          <Node pos="l" depth="2" NCoef="0" IVar="-1" Cut="0.0000000000000000e+00" cType="1" res="-4.8570781946182251e-02" rms="1.0908505320549011e-01" purity="1.2121421284973621e-02" nType="-99"/>
          <Node pos="r" depth="2" NCoef="0" IVar="-1" Cut="0.0000000000000000e+00" cType="1" res="-4.9131039530038834e-02" rms="4.9575477838516235e-02" purity="2.4713862221688032e-03" nType="-99"/>
        </Node>
      </Node>
    </BinaryTree>
    <BinaryTree type="DecisionTree" boostWeight="1.0000000000000000e+00" itree="11">
      <Node pos="s" depth="0" NCoef="0" IVar="3" Cut="3.2892848968505859e+01" cType="1" res="-2.0143570005893707e-01" rms="1.3129396736621857e-01" purity="1.8031004816293716e-02" nType="0">
        <Node pos="l" depth="1" NCoef="0" IVar="-1" Cut="0.0000000000000000e+00" cType="1" res="-3.7471499294042587e-02" rms="2.4754948914051056e-01" purity="6.5582923591136932e-02" nType="-99"/>
        <Node pos="r" depth="1" NCoef="0" IVar="5" Cut="-5.1846488952636719e+01" cType="0" res="-2.0610265433788300e-01" rms="8.4028728306293488e-02" purity="7.1692741475999355e-03" nType="0">
          <Node pos="l" depth="2" NCoef="0" IVar="-1" Cut="0.0000000000000000e+00" cType="1" res="-4.6630460768938065e-02" rms="1.1202783882617950e-01" purity="1.2808983214199543e-02" nType="-99"/>
          <Node pos="r" depth="2" NCoef="0" IVar="-1" Cut="0.0000000000000000e+00" cType="1" res="-4.8214700073003769e-02" rms="4.8964817076921463e-02" purity="2.4137410800904036e-03" nType="-99"/>
        </Node>
      </Node>
    </BinaryTree>
    <BinaryTree type="DecisionTree" boostWeight="1.0000000000000000e+00" itree="12">
      <Node pos="s" depth="0" NCoef="0" IVar="3" Cut="3.4615158081054688e+01" cType="1" res="-1.8532696366310120e-01" rms="1.3457833230495453e-01" purity="1.9012095406651497e-02" nType="0">
        <Node pos="l" depth="1" NCoef="0" IVar="-1" Cut="0.0000000000000000e+00" cType="1" res="-3.5199075937271118e-02" rms="2.5412377715110779e-01" purity="6.9417171180248260e-02" nType="-99"/>
        <Node pos="r" depth="1" NCoef="0" IVar="2" Cut="5.7810394287109375e+01" cType="1" res="-1.9083069264888763e-01" rms="8.0717839300632477e-02" purity="6.5998220816254616e-03" nType="0">
          <Node pos="l" depth="2" NCoef="0" IVar="-1" Cut="0.0000000000000000e+00" cType="1" res="-4.1961759328842163e-02" rms="1.0429315268993378e-01" purity="1.1053687892854214e-02" nType="-99"/>
          <Node pos="r" depth="2" NCoef="0" IVar="-1" Cut="0.0000000000000000e+00" cType="1" res="-5.2709367126226425e-02" rms="4.4877775013446808e-02" purity="2.0245998166501522e-03" nType="-99"/>
        </Node>
      </Node>
    </BinaryTree>
    <BinaryTree type="DecisionTree" boostWeight="1.0000000000000000e+00" itree="13">
      <Node pos="s" depth="0" NCoef="0" IVar="3" Cut="3.4614665985107422e+01" cType="1" res="-1.7161248624324799e-01" rms="1.3299624621868134e-01" purity="1.8557259812951088e-02" nType="0">
        <Node pos="l" depth="1" NCoef="0" IVar="-1" Cut="0.0000000000000000e+00" cType="1" res="-3.4516151994466782e-02" rms="2.4923147261142731e-01" purity="6.6560417413711548e-02" nType="-99"/>
        <Node pos="r" depth="1" NCoef="0" IVar="5" Cut="-5.1846488952636719e+01" cType="0" res="-1.7601695656776428e-01" rms="8.2382880151271820e-02" purity="6.8862405605614185e-03" nType="0">
          <Node pos="l" depth="2" NCoef="0" IVar="-1" Cut="0.0000000000000000e+00" cType="1" res="-4.4595669955015182e-02" rms="1.0629651695489883e-01" purity="1.1519502848386765e-02" nType="-99"/>
          <Node pos="r" depth="2" NCoef="0" IVar="-1" Cut="0.0000000000000000e+00" cType="1" res="-4.6184182167053223e-02" rms="5.4546557366847992e-02" purity="2.9948083683848381e-03" nType="-99"/>
        </Node>
      </Node>
    </BinaryTree>
    <BinaryTree type="DecisionTree" boostWeight="1.0000000000000000e+00" itree="14">
      <Node pos="s" depth="0" NCoef="0" IVar="0" Cut="4.5129016876220703e+01" cType="1" res="-1.5864865481853485e-01" rms="1.3342328369617462e-01" purity="1.8678963184356689e-02" nType="0">
        <Node pos="l" depth="1" NCoef="0" IVar="-1" Cut="0.0000000000000000e+00" cType="1" res="-3.8664627820253372e-02" rms="1.6731151938438416e-01" purity="2.9837036505341530e-02" nType="-99"/>
        <Node pos="r" depth="1" NCoef="0" IVar="0" Cut="6.9061981201171875e+01" cType="1" res="-1.6602227091789246e-01" rms="9.9594369530677795e-02" purity="1.0186254046857357e-02" nType="0">
          <Node pos="l" depth="2" NCoef="0" IVar="-1" Cut="0.0000000000000000e+00" cType="1" res="-4.2693264782428741e-02" rms="1.1702334135770798e-01" purity="1.4210328459739685e-02" nType="-99"/>
          <Node pos="r" depth="2" NCoef="0" IVar="-1" Cut="0.0000000000000000e+00" cType="1" res="-4.7728095203638077e-02" rms="7.5361162424087524e-02" purity="5.6925341486930847e-03" nType="-99"/>
        </Node>
      </Node>
    </BinaryTree>
    <BinaryTree type="DecisionTree" boostWeight="1.0000000000000000e+00" itree="15">
      <Node pos="s" depth="0" NCoef="0" IVar="3" Cut="3.4615333557128906e+01" cType="1" res="-1.4683634042739868e-01" rms="1.3285124301910400e-01" purity="1.8521171063184738e-02" nType="0">
        <Node pos="l" depth="1" NCoef="0" IVar="-1" Cut="0.0000000000000000e+00" cType="1" res="-3.2047331333160400e-02" rms="2.4680404365062714e-01" purity="6.5259143710136414e-02" nType="-99"/>
        <Node pos="r" depth="1" NCoef="0" IVar="5" Cut="-4.6313091278076172e+01" cType="0" res="-1.5103134512901306e-01" rms="8.3211414515972137e-02" purity="7.0306635461747646e-03" nType="0">
          <Node pos="l" depth="2" NCoef="0" IVar="-1" Cut="0.0000000000000000e+00" cType="1" res="-4.3015386909246445e-02" rms="1.0919565707445145e-01" purity="1.2169636785984039e-02" nType="-99"/>
          <Node pos="r" depth="2" NCoef="0" IVar="-1" Cut="0.0000000000000000e+00" cType="1" res="-4.4632285833358765e-02" rms="5.7778261601924896e-02" purity="3.3675024751573801e-03" nType="-99"/>
        </Node>
      </Node>
    </BinaryTree>
    <BinaryTree type="DecisionTree" boostWeight="1.0000000000000000e+00" itree="16">
      <Node pos="s" depth="0" NCoef="0" IVar="3" Cut="3.2873851776123047e+01" cType="1" res="-1.3531503081321716e-01" rms="1.3423775136470795e-01" purity="1.8929656594991684e-02" nType="0">
        <Node pos="l" depth="1" NCoef="0" IVar="-1" Cut="0.0000000000000000e+00" cType="1" res="-2.9921222478151321e-02" rms="2.5260356068611145e-01" purity="6.8576730787754059e-02" nType="-99"/>
        <Node pos="r" depth="1" NCoef="0" IVar="5" Cut="-5.1846488952636719e+01" cType="0" res="-1.3944084942340851e-01" rms="8.7106965482234955e-02" purity="7.7186548151075840e-03" nType="0">
          <Node pos="l" depth="2" NCoef="0" IVar="-1" Cut="0.0000000000000000e+00" cType="1" res="-4.1612789034843445e-02" rms="1.1409329622983932e-01" purity="1.3314844109117985e-02" nType="-99"/>
          <Node pos="r" depth="2" NCoef="0" IVar="-1" Cut="0.0000000000000000e+00" cType="1" res="-4.4232875108718872e-02" rms="5.4209522902965546e-02" purity="2.9550155159085989e-03" nType="-99"/>
        </Node>
      </Node>
    </BinaryTree>
    <BinaryTree type="DecisionTree" boostWeight="1.0000000000000000e+00" itree="17">
      <Node pos="s" depth="0" NCoef="0" IVar="0" Cut="4.1149917602539062e+01" cType="1" res="-1.2593220174312592e-01" rms="1.3163785636425018e-01" purity="1.8179655075073242e-02" nType="0">
        <Node pos="l" depth="1" NCoef="0" IVar="-1" Cut="0.0000000000000000e+00" cType="1" res="-3.4904714673757553e-02" rms="1.7142465710639954e-01" purity="3.1390219926834106e-02" nType="-99"/>
        <Node pos="r" depth="1" NCoef="0" IVar="0" Cut="8.1437492370605469e+01" cType="1" res="-1.3190178573131561e-01" rms="1.0186379402875900e-01" purity="1.0670486837625504e-02" nType="0">
          <Node pos="l" depth="2" NCoef="0" IVar="-1" Cut="0.0000000000000000e+00" cType="1" res="-4.0363814681768417e-02" rms="1.1423898488283157e-01" purity="1.3505901210010052e-02" nType="-99"/>
          <Node pos="r" depth="2" NCoef="0" IVar="-1" Cut="0.0000000000000000e+00" cType="1" res="-4.7081071883440018e-02" rms="6.0834232717752457e-02" purity="3.6304148379713297e-03" nType="-99"/>
        </Node>
      </Node>
    </BinaryTree>
    <BinaryTree type="DecisionTree" boostWeight="1.0000000000000000e+00" itree="18">
      <Node pos="s" depth="0" NCoef="0" IVar="3" Cut="3.4614665985107422e+01" cType="1" res="-1.1637557297945023e-01" rms="1.3224512338638306e-01" purity="1.8374305218458176e-02" nType="0">
        <Node pos="l" depth="1" NCoef="0" IVar="-1" Cut="0.0000000000000000e+00" cType="1" res="-2.7900990098714828e-02" rms="2.4591691792011261e-01" purity="6.4835347235202789e-02" nType="-99"/>
        <Node pos="r" depth="1" NCoef="0" IVar="5" Cut="-5.1846488952636719e+01" cType="0" res="-1.2036971002817154e-01" rms="8.1938728690147400e-02" purity="6.8150847218930721e-03" nType="0">
          <Node pos="l" depth="2" NCoef="0" IVar="-1" Cut="0.0000000000000000e+00" cType="1" res="-4.0510654449462891e-02" rms="1.0865011066198349e-01" purity="1.2042747810482979e-02" nType="-99"/>
          <Node pos="r" depth="2" NCoef="0" IVar="-1" Cut="0.0000000000000000e+00" cType="1" res="-4.3065272271633148e-02" rms="4.9411855638027191e-02" purity="2.4517187848687172e-03" nType="-99"/>
        </Node>
      </Node>
    </BinaryTree>
    <BinaryTree type="DecisionTree" boostWeight="1.0000000000000000e+00" itree="19">
      <Node pos="s" depth="0" NCoef="0" IVar="5" Cut="-2.5289321899414062e+01" cType="0" res="-1.0787729918956757e-01" rms="1.3121199607849121e-01" purity="1.8065746873617172e-02" nType="0">
        <Node pos="l" depth="1" NCoef="0" IVar="-1" Cut="0.0000000000000000e+00" cType="1" res="-3.3792648464441299e-02" rms="1.7902189493179321e-01" purity="3.4067641943693161e-02" nType="-99"/>
        <Node pos="r" depth="1" NCoef="0" IVar="1" Cut="3.6840457916259766e+01" cType="0" res="-1.1342878639698029e-01" rms="9.5779865980148315e-02" purity="9.4839446246623993e-03" nType="0">
          <Node pos="l" depth="2" NCoef="0" IVar="-1" Cut="0.0000000000000000e+00" cType="1" res="-4.0886718779802322e-02" rms="1.2765002250671387e-01" purity="1.7185578122735023e-02" nType="-99"/>
          <Node pos="r" depth="2" NCoef="0" IVar="-1" Cut="0.0000000000000000e+00" cType="1" res="-3.9898205548524857e-02" rms="6.8058364093303680e-02" purity="4.6284324489533901e-03" nType="-99"/>
        </Node>
      </Node>
    </BinaryTree>
    <BinaryTree type="DecisionTree" boostWeight="1.0000000000000000e+00" itree="20">
      <Node pos="s" depth="0" NCoef="0" IVar="3" Cut="3.2756805419921875e+01" cType="1" res="-9.9386386573314667e-02" rms="1.3241344690322876e-01" purity="1.8407002091407776e-02" nType="0">
        <Node pos="l" depth="1" NCoef="0" IVar="-1" Cut="0.0000000000000000e+00" cType="1" res="-2.5004157796502113e-02" rms="2.4969521164894104e-01" purity="6.6967293620109558e-02" nType="-99"/>
        <Node pos="r" depth="1" NCoef="0" IVar="3" Cut="6.3953361511230469e+01" cType="1" res="-1.0335478186607361e-01" rms="8.5947476327419281e-02" purity="7.5056189671158791e-03" nType="0">
          <Node pos="l" depth="2" NCoef="0" IVar="-1" Cut="0.0000000000000000e+00" cType="1" res="-3.4981761127710342e-02" rms="1.3317102193832397e-01" purity="1.8116198480129242e-02" nType="-99"/>
          <Node pos="r" depth="2" NCoef="0" IVar="-1" Cut="0.0000000000000000e+00" cType="1" res="-4.3681301176548004e-02" rms="4.7141227871179581e-02" purity="2.2338749840855598e-03" nType="-99"/>
        </Node>
      </Node>
    </BinaryTree>
    <BinaryTree type="DecisionTree" boostWeight="1.0000000000000000e+00" itree="21">
      <Node pos="s" depth="0" NCoef="0" IVar="3" Cut="3.2381900787353516e+01" cType="1" res="-9.1849520802497864e-02" rms="1.3280084729194641e-01" purity="1.8546510487794876e-02" nType="0">
        <Node pos="l" depth="1" NCoef="0" IVar="-1" Cut="0.0000000000000000e+00" cType="1" res="-2.3630429059267044e-02" rms="2.5129026174545288e-01" purity="6.7896664142608643e-02" nType="-99"/>
        <Node pos="r" depth="1" NCoef="0" IVar="2" Cut="2.9898698806762695e+01" cType="1" res="-9.5707111060619354e-02" rms="8.6033858358860016e-02" purity="7.5373523868620396e-03" nType="0">
          <Node pos="l" depth="2" NCoef="0" IVar="-1" Cut="0.0000000000000000e+00" cType="1" res="-3.1663212925195694e-02" rms="1.4159485697746277e-01" purity="2.0624352619051933e-02" nType="-99"/>
          <Node pos="r" depth="2" NCoef="0" IVar="-1" Cut="0.0000000000000000e+00" cType="1" res="-4.1713219135999680e-02" rms="7.1036607027053833e-02" purity="5.1168506033718586e-03" nType="-99"/>
        </Node>
      </Node>
    </BinaryTree>
    <BinaryTree type="DecisionTree" boostWeight="1.0000000000000000e+00" itree="22">
      <Node pos="s" depth="0" NCoef="0" IVar="0" Cut="4.5130031585693359e+01" cType="1" res="-8.4866635501384735e-02" rms="1.3321122527122498e-01" purity="1.8645087257027626e-02" nType="0">
        <Node pos="l" depth="1" NCoef="0" IVar="-1" Cut="0.0000000000000000e+00" cType="1" res="-3.0330985784530640e-02" rms="1.6972647607326508e-01" purity="3.0746476724743843e-02" nType="-99"/>
        <Node pos="r" depth="1" NCoef="0" IVar="3" Cut="3.4620681762695312e+01" cType="1" res="-9.1790646314620972e-02" rms="9.6602641046047211e-02" purity="9.5636313781142235e-03" nType="0">
          <Node pos="l" depth="2" NCoef="0" IVar="-1" Cut="0.0000000000000000e+00" cType="1" res="-3.3053100109100342e-02" rms="1.8080230057239532e-01" purity="3.3886585384607315e-02" nType="-99"/>
          <Node pos="r" depth="2" NCoef="0" IVar="-1" Cut="0.0000000000000000e+00" cType="1" res="-4.1292149573564529e-02" rms="6.6699147224426270e-02" purity="4.4975853525102139e-03" nType="-99"/>
        </Node>
      </Node>
    </BinaryTree>
    <BinaryTree type="DecisionTree" boostWeight="1.0000000000000000e+00" itree="23">
      <Node pos="s" depth="0" NCoef="0" IVar="3" Cut="3.4614665985107422e+01" cType="1" res="-7.8111179172992706e-02" rms="1.3437165319919586e-01" purity="1.9009448587894440e-02" nType="0">
        <Node pos="l" depth="1" NCoef="0" IVar="-1" Cut="0.0000000000000000e+00" cType="1" res="-2.1297512575984001e-02" rms="2.5016498565673828e-01" purity="6.7304961383342743e-02" nType="-99"/>
        <Node pos="r" depth="1" NCoef="0" IVar="2" Cut="5.7481731414794922e+01" cType="1" res="-8.2246966660022736e-02" rms="8.3504378795623779e-02" purity="7.0823230780661106e-03" nType="0">
          <Node pos="l" depth="2" NCoef="0" IVar="-1" Cut="0.0000000000000000e+00" cType="1" res="-3.3913183957338333e-02" rms="1.0914811491966248e-01" purity="1.2146111577749252e-02" nType="-99"/>
          <Node pos="r" depth="2" NCoef="0" IVar="-1" Cut="0.0000000000000000e+00" cType="1" res="-4.5596022158861160e-02" rms="4.3841216713190079e-02" purity="1.9304900197312236e-03" nType="-99"/>
        </Node>
      </Node>
    </BinaryTree>
    <BinaryTree type="DecisionTree" boostWeight="1.0000000000000000e+00" itree="24">
      <Node pos="s" depth="0" NCoef="0" IVar="3" Cut="3.0469079971313477e+01" cType="1" res="-7.2767682373523712e-02" rms="1.3207547366619110e-01" purity="1.8344225361943245e-02" nType="0">
        <Node pos="l" depth="1" NCoef="0" IVar="-1" Cut="0.0000000000000000e+00" cType="1" res="-1.9682936370372772e-02" rms="2.5378391146659851e-01" purity="6.9344803690910339e-02" nType="-99"/>
        <Node pos="r" depth="1" NCoef="0" IVar="3" Cut="5.9488716125488281e+01" cType="1" res="-7.6296359300613403e-02" rms="8.8385276496410370e-02" purity="7.9639703035354614e-03" nType="0">
          <Node pos="l" depth="2" NCoef="0" IVar="-1" Cut="0.0000000000000000e+00" cType="1" res="-3.1230494379997253e-02" rms="1.4496833086013794e-01" purity="2.1557802334427834e-02" nType="-99"/>
          <Node pos="r" depth="2" NCoef="0" IVar="-1" Cut="0.0000000000000000e+00" cType="1" res="-4.1328806430101395e-02" rms="4.9443505704402924e-02" purity="2.4615747388452291e-03" nType="-99"/>
        </Node>
      </Node>
    </BinaryTree>
    <BinaryTree type="DecisionTree" boostWeight="1.0000000000000000e+00" itree="25">
      <Node pos="s" depth="0" NCoef="0" IVar="5" Cut="-2.1491735458374023e+01" cType="0" res="-6.8029209971427917e-02" rms="1.2989450991153717e-01" purity="1.7751179635524750e-02" nType="0">
        <Node pos="l" depth="1" NCoef="0" IVar="-1" Cut="0.0000000000000000e+00" cType="1" res="-2.7512039989233017e-02" rms="1.7888517677783966e-01" purity="3.4107841551303864e-02" nType="-99"/>
        <Node pos="r" depth="1" NCoef="0" IVar="1" Cut="5.1574806213378906e+01" cType="0" res="-7.2910673916339874e-02" rms="9.7794905304908752e-02" purity="9.9281230941414833e-03" nType="0">
          <Node pos="l" depth="2" NCoef="0" IVar="-1" Cut="0.0000000000000000e+00" cType="1" res="-3.4719813615083694e-02" rms="1.5271230041980743e-01" purity="2.5028068572282791e-02" nType="-99"/>
          <Node pos="r" depth="2" NCoef="0" IVar="-1" Cut="0.0000000000000000e+00" cType="1" res="-3.6967881023883820e-02" rms="8.0498643219470978e-02" purity="6.6002844832837582e-03" nType="-99"/>
        </Node>
      </Node>
    </BinaryTree>
    <BinaryTree type="DecisionTree" boostWeight="1.0000000000000000e+00" itree="26">
      <Node pos="s" depth="0" NCoef="0" IVar="3" Cut="3.4620681762695312e+01" cType="1" res="-6.2172386795282364e-02" rms="1.3270996510982513e-01" purity="1.8535528331995010e-02" nType="0">
        <Node pos="l" depth="1" NCoef="0" IVar="-1" Cut="0.0000000000000000e+00" cType="1" res="-1.8391845747828484e-02" rms="2.4590507149696350e-01" purity="6.4892426133155823e-02" nType="-99"/>
        <Node pos="r" depth="1" NCoef="0" IVar="5" Cut="-5.1846488952636719e+01" cType="0" res="-6.5731167793273926e-02" rms="8.2755222916603088e-02" purity="6.9616916589438915e-03" nType="0">
          <Node pos="l" depth="2" NCoef="0" IVar="-1" Cut="0.0000000000000000e+00" cType="1" res="-3.5142146050930023e-02" rms="1.0967416316270828e-01" purity="1.2281713075935841e-02" nType="-99"/>
          <Node pos="r" depth="2" NCoef="0" IVar="-1" Cut="0.0000000000000000e+00" cType="1" res="-3.9771620184183121e-02" rms="5.0645176321268082e-02" purity="2.5803556200116873e-03" nType="-99"/>
        </Node>
      </Node>
    </BinaryTree>
    <BinaryTree type="DecisionTree" boostWeight="1.0000000000000000e+00" itree="27">
      <Node pos="s" depth="0" NCoef="0" IVar="3" Cut="3.2382568359375000e+01" cType="1" res="-5.7709794491529465e-02" rms="1.3145989179611206e-01" purity="1.8194312229752541e-02" nType="0">
        <Node pos="l" depth="1" NCoef="0" IVar="-1" Cut="0.0000000000000000e+00" cType="1" res="-1.6573170199990273e-02" rms="2.5159564614295959e-01" purity="6.8105101585388184e-02" nType="-99"/>
        <Node pos="r" depth="1" NCoef="0" IVar="2" Cut="2.8258598327636719e+01" cType="1" res="-6.1185289174318314e-02" rms="8.3725020289421082e-02" purity="7.1259043179452419e-03" nType="0">
          <Node pos="l" depth="2" NCoef="0" IVar="-1" Cut="0.0000000000000000e+00" cType="1" res="-2.7504602447152138e-02" rms="1.4051167666912079e-01" purity="2.0286649465560913e-02" nType="-99"/>
          <Node pos="r" depth="2" NCoef="0" IVar="-1" Cut="0.0000000000000000e+00" cType="1" res="-3.8988698273897171e-02" rms="7.0391289889812469e-02" purity="5.0143850967288017e-03" nType="-99"/>
        </Node>
      </Node>
    </BinaryTree>
    <BinaryTree type="DecisionTree" boostWeight="1.0000000000000000e+00" itree="28">
      <Node pos="s" depth="0" NCoef="0" IVar="0" Cut="4.5132743835449219e+01" cType="1" res="-5.3924262523651123e-02" rms="1.3009348511695862e-01" purity="1.7789648845791817e-02" nType="0">
        <Node pos="l" depth="1" NCoef="0" IVar="-1" Cut="0.0000000000000000e+00" cType="1" res="-2.5603834539651871e-02" rms="1.6318704187870026e-01" purity="2.8422534465789795e-02" nType="-99"/>
        <Node pos="r" depth="1" NCoef="0" IVar="3" Cut="3.2873851776123047e+01" cType="1" res="-5.9375640004873276e-02" rms="9.8001718521118164e-02" purity="9.8465280607342720e-03" nType="0">
          <Node pos="l" depth="2" NCoef="0" IVar="-1" Cut="0.0000000000000000e+00" cType="1" res="-2.8186928480863571e-02" rms="1.8477332592010498e-01" purity="3.5447347909212112e-02" nType="-99"/>
          <Node pos="r" depth="2" NCoef="0" IVar="-1" Cut="0.0000000000000000e+00" cType="1" res="-3.8612391799688339e-02" rms="6.9607898592948914e-02" purity="4.9055744893848896e-03" nType="-99"/>
        </Node>
      </Node>
    </BinaryTree>
    <BinaryTree type="DecisionTree" boostWeight="1.0000000000000000e+00" itree="29">
      <Node pos="s" depth="0" NCoef="0" IVar="2" Cut="4.5456748962402344e+01" cType="1" res="-4.9656935036182404e-02" rms="1.3082242012023926e-01" purity="1.7999907955527306e-02" nType="0">
        <Node pos="l" depth="1" NCoef="0" IVar="-1" Cut="0.0000000000000000e+00" cType="1" res="-2.1868346258997917e-02" rms="1.7334632575511932e-01" purity="3.1875859946012497e-02" nType="-99"/>
        <Node pos="r" depth="1" NCoef="0" IVar="2" Cut="6.5906974792480469e+01" cType="1" res="-5.5200714617967606e-02" rms="9.3776233494281769e-02" purity="9.1584390029311180e-03" nType="0">
          <Node pos="l" depth="2" NCoef="0" IVar="-1" Cut="0.0000000000000000e+00" cType="1" res="-3.1889550387859344e-02" rms="1.1384000629186630e-01" purity="1.3617724180221558e-02" nType="-99"/>
          <Node pos="r" depth="2" NCoef="0" IVar="-1" Cut="0.0000000000000000e+00" cType="1" res="-4.1823837906122208e-02" rms="7.7820360660552979e-02" purity="6.2401029281318188e-03" nType="-99"/>
        </Node>
      </Node>
    </BinaryTree>
    <BinaryTree type="DecisionTree" boostWeight="1.0000000000000000e+00" itree="30">
      <Node pos="s" depth="0" NCoef="0" IVar="5" Cut="-2.5289321899414062e+01" cType="0" res="-4.6361953020095825e-02" rms="1.2854146957397461e-01" purity="1.7353922128677368e-02" nType="0">
        <Node pos="l" depth="1" NCoef="0" IVar="-1" Cut="0.0000000000000000e+00" cType="1" res="-2.3073598742485046e-02" rms="1.7371359467506409e-01" purity="3.2075792551040649e-02" nType="-99"/>
        <Node pos="r" depth="1" NCoef="0" IVar="1" Cut="3.9588817596435547e+01" cType="0" res="-5.0828289240598679e-02" rms="9.6012182533740997e-02" purity="9.5398137345910072e-03" nType="0">
          <Node pos="l" depth="2" NCoef="0" IVar="-1" Cut="0.0000000000000000e+00" cType="1" res="-3.1705483794212341e-02" rms="1.3139951229095459e-01" purity="1.8276436254382133e-02" nType="-99"/>
          <Node pos="r" depth="2" NCoef="0" IVar="-1" Cut="0.0000000000000000e+00" cType="1" res="-3.5361196845769882e-02" rms="7.1935065090656281e-02" purity="5.2041136659681797e-03" nType="-99"/>
        </Node>
      </Node>
    </BinaryTree>
    <BinaryTree type="DecisionTree" boostWeight="1.0000000000000000e+00" itree="31">
      <Node pos="s" depth="0" NCoef="0" IVar="0" Cut="4.5130500793457031e+01" cType="1" res="-4.2553961277008057e-02" rms="1.3022898137569427e-01" purity="1.7817951738834381e-02" nType="0">
        <Node pos="l" depth="1" NCoef="0" IVar="-1" Cut="0.0000000000000000e+00" cType="1" res="-2.1917052567005157e-02" rms="1.6623815894126892e-01" purity="2.9500801116228104e-02" nType="-99"/>
        <Node pos="r" depth="1" NCoef="0" IVar="3" Cut="3.4633663177490234e+01" cType="1" res="-4.8779778182506561e-02" rms="9.4119779765605927e-02" purity="9.0514523908495903e-03" nType="0">
          <Node pos="l" depth="2" NCoef="0" IVar="-1" Cut="0.0000000000000000e+00" cType="1" res="-2.7927218005061150e-02" rms="1.7090892791748047e-01" purity="3.0182799324393272e-02" nType="-99"/>
          <Node pos="r" depth="2" NCoef="0" IVar="-1" Cut="0.0000000000000000e+00" cType="1" res="-3.7511277943849564e-02" rms="6.7972272634506226e-02" purity="4.6773045323789120e-03" nType="-99"/>
        </Node>
      </Node>
    </BinaryTree>
    <BinaryTree type="DecisionTree" boostWeight="1.0000000000000000e+00" itree="32">
      <Node pos="s" depth="0" NCoef="0" IVar="3" Cut="3.4620681762695312e+01" cType="1" res="-3.8259208202362061e-02" rms="1.3395270705223083e-01" purity="1.8878921866416931e-02" nType="0">
        <Node pos="l" depth="1" NCoef="0" IVar="-1" Cut="0.0000000000000000e+00" cType="1" res="-1.0634082369506359e-02" rms="2.4592773616313934e-01" purity="6.4991600811481476e-02" nType="-99"/>
        <Node pos="r" depth="1" NCoef="0" IVar="3" Cut="6.7591613769531250e+01" cType="1" res="-4.2258910834789276e-02" rms="8.5942447185516357e-02" purity="7.5220461003482342e-03" nType="0">
          <Node pos="l" depth="2" NCoef="0" IVar="-1" Cut="0.0000000000000000e+00" cType="1" res="-2.6375982910394669e-02" rms="1.2855690717697144e-01" purity="1.6928449273109436e-02" nType="-99"/>
          <Node pos="r" depth="2" NCoef="0" IVar="-1" Cut="0.0000000000000000e+00" cType="1" res="-4.0390230715274811e-02" rms="4.3509975075721741e-02" purity="1.8985655624419451e-03" nType="-99"/>
        </Node>
      </Node>
    </BinaryTree>
    <BinaryTree type="DecisionTree" boostWeight="1.0000000000000000e+00" itree="33">
      <Node pos="s" depth="0" NCoef="0" IVar="3" Cut="3.4614665985107422e+01" cType="1" res="-3.6058489233255386e-02" rms="1.3162168860435486e-01" purity="1.8237296491861343e-02" nType="0">
        <Node pos="l" depth="1" NCoef="0" IVar="-1" Cut="0.0000000000000000e+00" cType="1" res="-1.0454766452312469e-02" rms="2.4439460039138794e-01" purity="6.4129300415515900e-02" nType="-99"/>
        <Node pos="r" depth="1" NCoef="0" IVar="4" Cut="1.1970713138580322e+00" cType="0" res="-3.9742909371852875e-02" rms="8.2038998603820801e-02" purity="6.8460116162896156e-03" nType="0">
          <Node pos="l" depth="2" NCoef="0" IVar="-1" Cut="0.0000000000000000e+00" cType="1" res="-3.3123388886451721e-02" rms="9.2467740178108215e-02" purity="8.7259877473115921e-03" nType="-99"/>
          <Node pos="r" depth="2" NCoef="0" IVar="-1" Cut="0.0000000000000000e+00" cType="1" res="-3.7387408316135406e-02" rms="4.5504402369260788e-02" purity="2.0667074713855982e-03" nType="-99"/>
        </Node>
      </Node>
    </BinaryTree>
    <BinaryTree type="DecisionTree" boostWeight="1.0000000000000000e+00" itree="34">
      <Node pos="s" depth="0" NCoef="0" IVar="3" Cut="3.2873851776123047e+01" cType="1" res="-3.3799432218074799e-02" rms="1.2976774573326111e-01" purity="1.7730735242366791e-02" nType="0">
        <Node pos="l" depth="1" NCoef="0" IVar="-1" Cut="0.0000000000000000e+00" cType="1" res="-9.7066331654787064e-03" rms="2.4623355269432068e-01" purity="6.5137289464473724e-02" nType="-99"/>
        <Node pos="r" depth="1" NCoef="0" IVar="3" Cut="6.4183914184570312e+01" cType="1" res="-3.7103574723005295e-02" rms="8.2324780523777008e-02" purity="6.9012814201414585e-03" nType="0">
          <Node pos="l" depth="2" NCoef="0" IVar="-1" Cut="0.0000000000000000e+00" cType="1" res="-2.5325179100036621e-02" rms="1.2896841764450073e-01" purity="1.7023734748363495e-02" nType="-99"/>
          <Node pos="r" depth="2" NCoef="0" IVar="-1" Cut="0.0000000000000000e+00" cType="1" res="-3.9611686021089554e-02" rms="4.2236082255840302e-02" purity="1.7911820905283093e-03" nType="-99"/>
        </Node>
      </Node>
    </BinaryTree>
    <BinaryTree type="DecisionTree" boostWeight="1.0000000000000000e+00" itree="35">
      <Node pos="s" depth="0" NCoef="0" IVar="0" Cut="4.5130031585693359e+01" cType="1" res="-3.0956430360674858e-02" rms="1.3101924955844879e-01" purity="1.8074950203299522e-02" nType="0">
        <Node pos="l" depth="1" NCoef="0" IVar="-1" Cut="0.0000000000000000e+00" cType="1" res="-1.7633538693189621e-02" rms="1.6678521037101746e-01" purity="2.9779151082038879e-02" nType="-99"/>
        <Node pos="r" depth="1" NCoef="0" IVar="3" Cut="3.4614665985107422e+01" cType="1" res="-3.6826848983764648e-02" rms="9.5211237668991089e-02" purity="9.2614209279417992e-03" nType="0">
          <Node pos="l" depth="2" NCoef="0" IVar="-1" Cut="0.0000000000000000e+00" cType="1" res="-2.5275517255067825e-02" rms="1.7355498671531677e-01" purity="3.1181342899799347e-02" nType="-99"/>
          <Node pos="r" depth="2" NCoef="0" IVar="-1" Cut="0.0000000000000000e+00" cType="1" res="-3.5786159336566925e-02" rms="6.8517498672008514e-02" purity="4.7479490749537945e-03" nType="-99"/>
        </Node>
      </Node>
    </BinaryTree>
    <BinaryTree type="DecisionTree" boostWeight="1.0000000000000000e+00" itree="36">
      <Node pos="s" depth="0" NCoef="0" IVar="3" Cut="3.2757297515869141e+01" cType="1" res="-2.8569098562002182e-02" rms="1.3120436668395996e-01" purity="1.8138803541660309e-02" nType="0">
        <Node pos="l" depth="1" NCoef="0" IVar="-1" Cut="0.0000000000000000e+00" cType="1" res="-7.3040542192757130e-03" rms="2.4777998030185699e-01" purity="6.6022388637065887e-02" nType="-99"/>
        <Node pos="r" depth="1" NCoef="0" IVar="2" Cut="2.5893081665039062e+01" cType="1" res="-3.1928218901157379e-02" rms="8.3984673023223877e-02" purity="7.1916407905519009e-03" nType="0">
          <Node pos="l" depth="2" NCoef="0" IVar="-1" Cut="0.0000000000000000e+00" cType="1" res="-1.7442053183913231e-02" rms="1.4976541697978973e-01" purity="2.3138942196965218e-02" nType="-99"/>
          <Node pos="r" depth="2" NCoef="0" IVar="-1" Cut="0.0000000000000000e+00" cType="1" res="-3.5219457000494003e-02" rms="7.1317866444587708e-02" purity="5.1686479710042477e-03" nType="-99"/>
        </Node>
      </Node>
    </BinaryTree>
    <BinaryTree type="DecisionTree" boostWeight="1.0000000000000000e+00" itree="37">
      <Node pos="s" depth="0" NCoef="0" IVar="4" Cut="1.3464325666427612e+00" cType="0" res="-2.7134660631418228e-02" rms="1.2860175967216492e-01" purity="1.7406413331627846e-02" nType="0">
        <Node pos="l" depth="1" NCoef="0" IVar="-1" Cut="0.0000000000000000e+00" cType="1" res="-2.0766194909811020e-02" rms="1.4337515830993652e-01" purity="2.1811127662658691e-02" nType="-99"/>
        <Node pos="r" depth="1" NCoef="0" IVar="1" Cut="7.8766189575195312e+01" cType="0" res="-3.6273457109928131e-02" rms="9.0971425175666809e-02" purity="8.4853796288371086e-03" nType="0">
          <Node pos="l" depth="2" NCoef="0" IVar="-1" Cut="0.0000000000000000e+00" cType="1" res="3.2755753491073847e-03" rms="2.1209013462066650e-01" purity="4.8827357590198517e-02" nType="-99"/>
          <Node pos="r" depth="2" NCoef="0" IVar="-1" Cut="0.0000000000000000e+00" cType="1" res="-3.3190704882144928e-02" rms="8.4135383367538452e-02" purity="7.2243497706949711e-03" nType="-99"/>
        </Node>
      </Node>
    </BinaryTree>
    <BinaryTree type="DecisionTree" boostWeight="1.0000000000000000e+00" itree="38">
      <Node pos="s" depth="0" NCoef="0" IVar="3" Cut="3.4615333557128906e+01" cType="1" res="-2.4487785995006561e-02" rms="1.3093034923076630e-01" purity="1.8071521073579788e-02" nType="0">
        <Node pos="l" depth="1" NCoef="0" IVar="-1" Cut="0.0000000000000000e+00" cType="1" res="-5.3632771596312523e-03" rms="2.4542348086833954e-01" purity="6.4755193889141083e-02" nType="-99"/>
        <Node pos="r" depth="1" NCoef="0" IVar="3" Cut="6.7585159301757812e+01" cType="1" res="-2.8162347152829170e-02" rms="8.0274261534214020e-02" purity="6.5543516539037228e-03" nType="0">
          <Node pos="l" depth="2" NCoef="0" IVar="-1" Cut="0.0000000000000000e+00" cType="1" res="-2.3404141888022423e-02" rms="1.2069722265005112e-01" purity="1.4884493313729763e-02" nType="-99"/>
          <Node pos="r" depth="2" NCoef="0" IVar="-1" Cut="0.0000000000000000e+00" cType="1" res="-3.9420641958713531e-02" rms="3.8635108619928360e-02" purity="1.4947189483791590e-03" nType="-99"/>
        </Node>
      </Node>
    </BinaryTree>
    <BinaryTree type="DecisionTree" boostWeight="1.0000000000000000e+00" itree="39">
      <Node pos="s" depth="0" NCoef="0" IVar="5" Cut="-2.5289321899414062e+01" cType="0" res="-2.2711971774697304e-02" rms="1.3031280040740967e-01" purity="1.7895214259624481e-02" nType="0">
        <Node pos="l" depth="1" NCoef="0" IVar="-1" Cut="0.0000000000000000e+00" cType="1" res="-1.1828086338937283e-02" rms="1.7782166600227356e-01" purity="3.3780023455619812e-02" nType="-99"/>
        <Node pos="r" depth="1" NCoef="0" IVar="1" Cut="3.9588874816894531e+01" cType="0" res="-2.7638105675578117e-02" rms="9.5422171056270599e-02" purity="9.4246929511427879e-03" nType="0">
          <Node pos="l" depth="2" NCoef="0" IVar="-1" Cut="0.0000000000000000e+00" cType="1" res="-2.3501712828874588e-02" rms="1.3013702630996704e-01" purity="1.7931716516613960e-02" nType="-99"/>
          <Node pos="r" depth="2" NCoef="0" IVar="-1" Cut="0.0000000000000000e+00" cType="1" res="-3.2382808625698090e-02" rms="7.2278827428817749e-02" purity="5.2525289356708527e-03" nType="-99"/>
        </Node>
      </Node>
    </BinaryTree>
    <BinaryTree type="DecisionTree" boostWeight="1.0000000000000000e+00" itree="40">
      <Node pos="s" depth="0" NCoef="0" IVar="3" Cut="3.4620681762695312e+01" cType="1" res="-2.0732665434479713e-02" rms="1.3185574114322662e-01" purity="1.8316661939024925e-02" nType="0">
        <Node pos="l" depth="1" NCoef="0" IVar="-1" Cut="0.0000000000000000e+00" cType="1" res="-3.9380686357617378e-03" rms="2.4460709095001221e-01" purity="6.4293488860130310e-02" nType="-99"/>
        <Node pos="r" depth="1" NCoef="0" IVar="5" Cut="-5.1846488952636719e+01" cType="0" res="-2.4208372458815575e-02" rms="8.2341186702251434e-02" purity="6.8944999948143959e-03" nType="0">
          <Node pos="l" depth="2" NCoef="0" IVar="-1" Cut="0.0000000000000000e+00" cType="1" res="-2.5197589769959450e-02" rms="1.0932784527540207e-01" purity="1.2213744223117828e-02" nType="-99"/>
          <Node pos="r" depth="2" NCoef="0" IVar="-1" Cut="0.0000000000000000e+00" cType="1" res="-3.6050591617822647e-02" rms="4.9334779381752014e-02" purity="2.4430055636912584e-03" nType="-99"/>
        </Node>
      </Node>
    </BinaryTree>
    <BinaryTree type="DecisionTree" boostWeight="1.0000000000000000e+00" itree="41">
      <Node pos="s" depth="0" NCoef="0" IVar="2" Cut="4.7065990447998047e+01" cType="1" res="-1.9329722970724106e-02" rms="1.3152797520160675e-01" purity="1.8210621550679207e-02" nType="0">
        <Node pos="l" depth="1" NCoef="0" IVar="-1" Cut="0.0000000000000000e+00" cType="1" res="-8.9344279840588570e-03" rms="1.7467802762985229e-01" purity="3.2461270689964294e-02" nType="-99"/>
        <Node pos="r" depth="1" NCoef="0" IVar="2" Cut="6.8200912475585938e+01" cType="1" res="-2.5828897953033447e-02" rms="8.9309923350811005e-02" purity="8.2657774910330772e-03" nType="0">
          <Node pos="l" depth="2" NCoef="0" IVar="-1" Cut="0.0000000000000000e+00" cType="1" res="-2.5039395317435265e-02" rms="1.1041411757469177e-01" purity="1.2786050327122211e-02" nType="-99"/>
          <Node pos="r" depth="2" NCoef="0" IVar="-1" Cut="0.0000000000000000e+00" cType="1" res="-3.8164742290973663e-02" rms="7.0886783301830292e-02" purity="5.1160627044737339e-03" nType="-99"/>
        </Node>
      </Node>
    </BinaryTree>
    <BinaryTree type="DecisionTree" boostWeight="1.0000000000000000e+00" itree="42">
      <Node pos="s" depth="0" NCoef="0" IVar="2" Cut="5.5292690277099609e+01" cType="1" res="-1.7537392675876617e-02" rms="1.3220326602458954e-01" purity="1.8406508490443230e-02" nType="0">
        <Node pos="l" depth="1" NCoef="0" IVar="-1" Cut="0.0000000000000000e+00" cType="1" res="-1.0637344792485237e-02" rms="1.6520524024963379e-01" purity="2.8960887342691422e-02" nType="-99"/>
        <Node pos="r" depth="1" NCoef="0" IVar="4" Cut="2.0945515632629395e+00" cType="1" res="-2.4217925965785980e-02" rms="8.3743914961814880e-02" purity="7.2469892911612988e-03" nType="0">
          <Node pos="l" depth="2" NCoef="0" IVar="-1" Cut="0.0000000000000000e+00" cType="1" res="-3.0370306223630905e-02" rms="9.4022274017333984e-02" purity="9.1735478490591049e-03" nType="-99"/>
          <Node pos="r" depth="2" NCoef="0" IVar="-1" Cut="0.0000000000000000e+00" cType="1" res="-3.7645138800144196e-02" rms="6.7972242832183838e-02" purity="4.7346279025077820e-03" nType="-99"/>
        </Node>
      </Node>
    </BinaryTree>
    <BinaryTree type="DecisionTree" boostWeight="1.0000000000000000e+00" itree="43">
      <Node pos="s" depth="0" NCoef="0" IVar="0" Cut="4.5129016876220703e+01" cType="1" res="-1.7250783741474152e-02" rms="1.2804071605205536e-01" purity="1.7248295247554779e-02" nType="0">
        <Node pos="l" depth="1" NCoef="0" IVar="-1" Cut="0.0000000000000000e+00" cType="1" res="-1.0390598326921463e-02" rms="1.6196084022521973e-01" purity="2.8041923418641090e-02" nType="-99"/>
        <Node pos="r" depth="1" NCoef="0" IVar="3" Cut="3.4633663177490234e+01" cType="1" res="-2.2733859717845917e-02" rms="9.4960153102874756e-02" purity="9.2312078922986984e-03" nType="0">
          <Node pos="l" depth="2" NCoef="0" IVar="-1" Cut="0.0000000000000000e+00" cType="1" res="-2.0674737170338631e-02" rms="1.7400105297565460e-01" purity="3.1368389725685120e-02" nType="-99"/>
          <Node pos="r" depth="2" NCoef="0" IVar="-1" Cut="0.0000000000000000e+00" cType="1" res="-3.2766923308372498e-02" rms="6.7647472023963928e-02" purity="4.6294839121401310e-03" nType="-99"/>
        </Node>
      </Node>
    </BinaryTree>
    <BinaryTree type="DecisionTree" boostWeight="1.0000000000000000e+00" itree="44">
      <Node pos="s" depth="0" NCoef="0" IVar="3" Cut="3.2757297515869141e+01" cType="1" res="-1.4879745431244373e-02" rms="1.3163462281227112e-01" purity="1.8298050388693810e-02" nType="0">
        <Node pos="l" depth="1" NCoef="0" IVar="-1" Cut="0.0000000000000000e+00" cType="1" res="1.8898925045505166e-03" rms="2.5050589442253113e-01" purity="6.7810781300067902e-02" nType="-99"/>
        <Node pos="r" depth="1" NCoef="0" IVar="2" Cut="2.5743616104125977e+01" cType="1" res="-1.8917128443717957e-02" rms="8.3462044596672058e-02" purity="7.1003069169819355e-03" nType="0">
          <Node pos="l" depth="2" NCoef="0" IVar="-1" Cut="0.0000000000000000e+00" cType="1" res="-9.9522657692432404e-03" rms="1.5000897645950317e-01" purity="2.3203371092677116e-02" nType="-99"/>
          <Node pos="r" depth="2" NCoef="0" IVar="-1" Cut="0.0000000000000000e+00" cType="1" res="-3.1936220824718475e-02" rms="7.0523269474506378e-02" purity="5.0502517260611057e-03" nType="-99"/>
        </Node>
      </Node>
    </BinaryTree>
    <BinaryTree type="DecisionTree" boostWeight="1.0000000000000000e+00" itree="45">
      <Node pos="s" depth="0" NCoef="0" IVar="3" Cut="3.4615333557128906e+01" cType="1" res="-1.3872629031538963e-02" rms="1.3140924274921417e-01" purity="1.8221700564026833e-02" nType="0">
        <Node pos="l" depth="1" NCoef="0" IVar="-1" Cut="0.0000000000000000e+00" cType="1" res="3.5751340328715742e-04" rms="2.4494715034961700e-01" purity="6.4612761139869690e-02" nType="-99"/>
        <Node pos="r" depth="1" NCoef="0" IVar="4" Cut="1.3466521501541138e+00" cType="0" res="-1.7408659681677818e-02" rms="8.2045063376426697e-02" purity="6.8510547280311584e-03" nType="0">
          <Node pos="l" depth="2" NCoef="0" IVar="-1" Cut="0.0000000000000000e+00" cType="1" res="-2.4899261072278023e-02" rms="9.4557441771030426e-02" purity="9.1318199411034584e-03" nType="-99"/>
          <Node pos="r" depth="2" NCoef="0" IVar="-1" Cut="0.0000000000000000e+00" cType="1" res="-3.4587960690259933e-02" rms="4.6801507472991943e-02" purity="2.1920730359852314e-03" nType="-99"/>
        </Node>
      </Node>
    </BinaryTree>
    <BinaryTree type="DecisionTree" boostWeight="1.0000000000000000e+00" itree="46">
      <Node pos="s" depth="0" NCoef="0" IVar="3" Cut="3.0468410491943359e+01" cType="1" res="-1.3289152644574642e-02" rms="1.2992195785045624e-01" purity="1.7834028229117393e-02" nType="0">
        <Node pos="l" depth="1" NCoef="0" IVar="-1" Cut="0.0000000000000000e+00" cType="1" res="2.8202929534018040e-03" rms="2.5401091575622559e-01" purity="6.9850154221057892e-02" nType="-99"/>
        <Node pos="r" depth="1" NCoef="0" IVar="3" Cut="5.9490280151367188e+01" cType="1" res="-1.6975430771708488e-02" rms="8.3107814192771912e-02" purity="7.0318323560059071e-03" nType="0">
          <Node pos="l" depth="2" NCoef="0" IVar="-1" Cut="0.0000000000000000e+00" cType="1" res="-1.5228436328470707e-02" rms="1.3503941893577576e-01" purity="1.8664913251996040e-02" nType="-99"/>
          <Node pos="r" depth="2" NCoef="0" IVar="-1" Cut="0.0000000000000000e+00" cType="1" res="-3.5107303410768509e-02" rms="4.9566991627216339e-02" purity="2.4745413102209568e-03" nType="-99"/>
        </Node>
      </Node>
    </BinaryTree>
    <BinaryTree type="DecisionTree" boostWeight="1.0000000000000000e+00" itree="47">
      <Node pos="s" depth="0" NCoef="0" IVar="5" Cut="-2.5354957580566406e+01" cType="0" res="-1.1754582636058331e-02" rms="1.3189673423767090e-01" purity="1.8363928422331810e-02" nType="0">
        <Node pos="l" depth="1" NCoef="0" IVar="-1" Cut="0.0000000000000000e+00" cType="1" res="-2.6388238184154034e-03" rms="1.8009722232818604e-01" purity="3.4727256745100021e-02" nType="-99"/>
        <Node pos="r" depth="1" NCoef="0" IVar="1" Cut="3.6841770172119141e+01" cType="0" res="-1.6724437475204468e-02" rms="9.6641689538955688e-02" purity="9.6743414178490639e-03" nType="0">
          <Node pos="l" depth="2" NCoef="0" IVar="-1" Cut="0.0000000000000000e+00" cType="1" res="-1.6033457592129707e-02" rms="1.2743297219276428e-01" purity="1.7151581123471260e-02" nType="-99"/>
          <Node pos="r" depth="2" NCoef="0" IVar="-1" Cut="0.0000000000000000e+00" cType="1" res="-2.9877308756113052e-02" rms="7.0582784712314606e-02" purity="4.9968459643423557e-03" nType="-99"/>
        </Node>
      </Node>
    </BinaryTree>
    <BinaryTree type="DecisionTree" boostWeight="1.0000000000000000e+00" itree="48">
      <Node pos="s" depth="0" NCoef="0" IVar="0" Cut="4.1149917602539062e+01" cType="1" res="-1.1238951236009598e-02" rms="1.3090951740741730e-01" purity="1.8085623160004616e-02" nType="0">
        <Node pos="l" depth="1" NCoef="0" IVar="-1" Cut="0.0000000000000000e+00" cType="1" res="-3.5815087612718344e-03" rms="1.6779693961143494e-01" purity="3.0261263251304626e-02" nType="-99"/>
        <Node pos="r" depth="1" NCoef="0" IVar="0" Cut="6.1293064117431641e+01" cType="1" res="-1.5982352197170258e-02" rms="1.0370872914791107e-01" purity="1.1101835407316685e-02" nType="0">
          <Node pos="l" depth="2" NCoef="0" IVar="-1" Cut="0.0000000000000000e+00" cType="1" res="-1.6384204849600792e-02" rms="1.2630440294742584e-01" purity="1.6736242920160294e-02" nType="-99"/>
          <Node pos="r" depth="2" NCoef="0" IVar="-1" Cut="0.0000000000000000e+00" cType="1" res="-3.0611356720328331e-02" rms="8.0327987670898438e-02" purity="6.4627937972545624e-03" nType="-99"/>
        </Node>
      </Node>
    </BinaryTree>
    <BinaryTree type="DecisionTree" boostWeight="1.0000000000000000e+00" itree="49">
      <Node pos="s" depth="0" NCoef="0" IVar="3" Cut="3.2873851776123047e+01" cType="1" res="-1.0283470153808594e-02" rms="1.3031993806362152e-01" purity="1.7956279218196869e-02" nType="0">
        <Node pos="l" depth="1" NCoef="0" IVar="-1" Cut="0.0000000000000000e+00" cType="1" res="2.3324370849877596e-03" rms="2.4670253694057465e-01" purity="6.5749019384384155e-02" nType="-99"/>
        <Node pos="r" depth="1" NCoef="0" IVar="3" Cut="6.4182861328125000e+01" cType="1" res="-1.3378221541643143e-02" rms="8.4176041185855865e-02" purity="7.2326748631894588e-03" nType="0">
          <Node pos="l" depth="2" NCoef="0" IVar="-1" Cut="0.0000000000000000e+00" cType="1" res="-1.1653712950646877e-02" rms="1.3134315609931946e-01" purity="1.7719414085149765e-02" nType="-99"/>
          <Node pos="r" depth="2" NCoef="0" IVar="-1" Cut="0.0000000000000000e+00" cType="1" res="-3.5646218806505203e-02" rms="4.4743090867996216e-02" purity="2.0112295169383287e-03" nType="-99"/>
        </Node>
      </Node>
    </BinaryTree>
    <BinaryTree type="DecisionTree" boostWeight="1.0000000000000000e+00" itree="50">
      <Node pos="s" depth="0" NCoef="0" IVar="1" Cut="3.8868618011474609e+01" cType="0" res="-1.0343139059841633e-02" rms="1.2758561968803406e-01" purity="1.7202753573656082e-02" nType="0">
        <Node pos="l" depth="1" NCoef="0" IVar="-1" Cut="0.0000000000000000e+00" cType="1" res="-2.9019159264862537e-03" rms="1.5492549538612366e-01" purity="2.5817485526204109e-02" nType="-99"/>
        <Node pos="r" depth="1" NCoef="0" IVar="4" Cut="1.3466533422470093e+00" cType="0" res="-1.4483692124485970e-02" rms="1.1170475184917450e-01" purity="1.3022812083363533e-02" nType="0">
          <Node pos="l" depth="2" NCoef="0" IVar="-1" Cut="0.0000000000000000e+00" cType="1" res="-1.4657778665423393e-02" rms="1.2777529656887054e-01" purity="1.7194129526615143e-02" nType="-99"/>
          <Node pos="r" depth="2" NCoef="0" IVar="-1" Cut="0.0000000000000000e+00" cType="1" res="-3.0190434306859970e-02" rms="7.3705084621906281e-02" purity="5.4639424197375774e-03" nType="-99"/>
        </Node>
      </Node>
    </BinaryTree>
    <BinaryTree type="DecisionTree" boostWeight="1.0000000000000000e+00" itree="51">
      <Node pos="s" depth="0" NCoef="0" IVar="3" Cut="3.2756805419921875e+01" cType="1" res="-9.1266948729753494e-03" rms="1.2974813580513000e-01" purity="1.7796458676457405e-02" nType="0">
        <Node pos="l" depth="1" NCoef="0" IVar="-1" Cut="0.0000000000000000e+00" cType="1" res="2.6645280886441469e-03" rms="2.4521091580390930e-01" purity="6.4909823238849640e-02" nType="-99"/>
        <Node pos="r" depth="1" NCoef="0" IVar="3" Cut="6.3953361511230469e+01" cType="1" res="-1.2128479778766632e-02" rms="8.2903392612934113e-02" purity="7.0086312480270863e-03" nType="0">
          <Node pos="l" depth="2" NCoef="0" IVar="-1" Cut="0.0000000000000000e+00" cType="1" res="-1.1913593858480453e-02" rms="1.2779587507247925e-01" purity="1.6744913533329964e-02" nType="-99"/>
          <Node pos="r" depth="2" NCoef="0" IVar="-1" Cut="0.0000000000000000e+00" cType="1" res="-3.4829050302505493e-02" rms="4.6357646584510803e-02" purity="2.1607312373816967e-03" nType="-99"/>
        </Node>
      </Node>
    </BinaryTree>
    <BinaryTree type="DecisionTree" boostWeight="1.0000000000000000e+00" itree="52">
      <Node pos="s" depth="0" NCoef="0" IVar="0" Cut="4.5130031585693359e+01" cType="1" res="-8.4239905700087547e-03" rms="1.2990233302116394e-01" purity="1.7859635874629021e-02" nType="0">
        <Node pos="l" depth="1" NCoef="0" IVar="-1" Cut="0.0000000000000000e+00" cType="1" res="-1.5509226359426975e-03" rms="1.6513490676879883e-01" purity="2.9334591701626778e-02" nType="-99"/>
        <Node pos="r" depth="1" NCoef="0" IVar="3" Cut="3.2873851776123047e+01" cType="1" res="-1.3869746588170528e-02" rms="9.4782799482345581e-02" purity="9.2251850292086601e-03" nType="0">
          <Node pos="l" depth="2" NCoef="0" IVar="-1" Cut="0.0000000000000000e+00" cType="1" res="-1.6353286802768707e-02" rms="1.8092842400074005e-01" purity="3.4049291163682938e-02" nType="-99"/>
          <Node pos="r" depth="2" NCoef="0" IVar="-1" Cut="0.0000000000000000e+00" cType="1" res="-2.9067767783999443e-02" rms="6.5714359283447266e-02" purity="4.3697701767086983e-03" nType="-99"/>
        </Node>
      </Node>
    </BinaryTree>
    <BinaryTree type="DecisionTree" boostWeight="1.0000000000000000e+00" itree="53">
      <Node pos="s" depth="0" NCoef="0" IVar="3" Cut="3.1535976409912109e+01" cType="1" res="-6.9542652927339077e-03" rms="1.3261188566684723e-01" purity="1.8651422113180161e-02" nType="0">
        <Node pos="l" depth="1" NCoef="0" IVar="-1" Cut="0.0000000000000000e+00" cType="1" res="6.5175332129001617e-03" rms="2.5408583879470825e-01" purity="7.0153661072254181e-02" nType="-99"/>
        <Node pos="r" depth="1" NCoef="0" IVar="3" Cut="6.1569747924804688e+01" cType="1" res="-1.0559213347733021e-02" rms="8.5395403206348419e-02" purity="7.4452613480389118e-03" nType="0">
          <Node pos="l" depth="2" NCoef="0" IVar="-1" Cut="0.0000000000000000e+00" cType="1" res="-8.0930246040225029e-03" rms="1.3702593743801117e-01" purity="1.9289612770080566e-02" nType="-99"/>
          <Node pos="r" depth="2" NCoef="0" IVar="-1" Cut="0.0000000000000000e+00" cType="1" res="-3.3833879977464676e-02" rms="4.7324731945991516e-02" purity="2.2523675579577684e-03" nType="-99"/>
        </Node>
      </Node>
    </BinaryTree>
    <BinaryTree type="DecisionTree" boostWeight="1.0000000000000000e+00" itree="54">
      <Node pos="s" depth="0" NCoef="0" IVar="5" Cut="-3.7574340820312500e+01" cType="0" res="-7.3343496769666672e-03" rms="1.2935543060302734e-01" purity="1.7707625404000282e-02" nType="0">
        <Node pos="l" depth="1" NCoef="0" IVar="-1" Cut="0.0000000000000000e+00" cType="1" res="-4.2306637624278665e-06" rms="1.7470218241214752e-01" purity="3.2665096223354340e-02" nType="-99"/>
        <Node pos="r" depth="1" NCoef="0" IVar="4" Cut="1.4962259531021118e+00" cType="0" res="-1.2899382039904594e-02" rms="7.8704379498958588e-02" purity="6.3532036729156971e-03" nType="0">
          <Node pos="l" depth="2" NCoef="0" IVar="-1" Cut="0.0000000000000000e+00" cType="1" res="-2.1760260686278343e-02" rms="8.9808411896228790e-02" purity="8.3705894649028778e-03" nType="-99"/>
          <Node pos="r" depth="2" NCoef="0" IVar="-1" Cut="0.0000000000000000e+00" cType="1" res="-3.0060010030865669e-02" rms="6.5247744321823120e-02" purity="4.2840112000703812e-03" nType="-99"/>
        </Node>
      </Node>
    </BinaryTree>
    <BinaryTree type="DecisionTree" boostWeight="1.0000000000000000e+00" itree="55">
      <Node pos="s" depth="0" NCoef="0" IVar="5" Cut="-3.2205688476562500e+01" cType="0" res="-6.7694913595914841e-03" rms="1.2900561094284058e-01" purity="1.7646187916398048e-02" nType="0">
        <Node pos="l" depth="1" NCoef="0" IVar="-1" Cut="0.0000000000000000e+00" cType="1" res="9.6989248413592577e-04" rms="1.7652645707130432e-01" purity="3.3405032008886337e-02" nType="-99"/>
        <Node pos="r" depth="1" NCoef="0" IVar="1" Cut="3.9588012695312500e+01" cType="0" res="-1.1640976183116436e-02" rms="8.4880828857421875e-02" purity="7.4683083221316338e-03" nType="0">
          <Node pos="l" depth="2" NCoef="0" IVar="-1" Cut="0.0000000000000000e+00" cType="1" res="-1.1771271005272865e-02" rms="1.2056707590818405e-01" purity="1.5449942089617252e-02" nType="-99"/>
          <Node pos="r" depth="2" NCoef="0" IVar="-1" Cut="0.0000000000000000e+00" cType="1" res="-2.9637068510055542e-02" rms="5.9246417135000229e-02" purity="3.4747796598821878e-03" nType="-99"/>
        </Node>
      </Node>
    </BinaryTree>
    <BinaryTree type="DecisionTree" boostWeight="1.0000000000000000e+00" itree="56">
      <Node pos="s" depth="0" NCoef="0" IVar="2" Cut="5.5292690277099609e+01" cType="1" res="-5.6708985939621925e-03" rms="1.3156330585479736e-01" purity="1.8340466544032097e-02" nType="0">
        <Node pos="l" depth="1" NCoef="0" IVar="-1" Cut="0.0000000000000000e+00" cType="1" res="1.3042581267654896e-03" rms="1.6455250978469849e-01" purity="2.8919782489538193e-02" nType="-99"/>
        <Node pos="r" depth="1" NCoef="0" IVar="4" Cut="2.2440254688262939e+00" cType="1" res="-1.2667524628341198e-02" rms="8.3110183477401733e-02" purity="7.1789156645536423e-03" nType="0">
          <Node pos="l" depth="2" NCoef="0" IVar="-1" Cut="0.0000000000000000e+00" cType="1" res="-2.3474978283047676e-02" rms="9.2935316264629364e-02" purity="9.0296631678938866e-03" nType="-99"/>
          <Node pos="r" depth="2" NCoef="0" IVar="-1" Cut="0.0000000000000000e+00" cType="1" res="-3.4255232661962509e-02" rms="6.3882790505886078e-02" purity="4.1686962358653545e-03" nType="-99"/>
        </Node>
      </Node>
    </BinaryTree>
    <BinaryTree type="DecisionTree" boostWeight="1.0000000000000000e+00" itree="57">
      <Node pos="s" depth="0" NCoef="0" IVar="4" Cut="1.3464361429214478e+00" cType="0" res="-5.4189423099160194e-03" rms="1.3076092302799225e-01" purity="1.8141878768801689e-02" nType="0">
        <Node pos="l" depth="1" NCoef="0" IVar="-1" Cut="0.0000000000000000e+00" cType="1" res="-1.5301166567951441e-03" rms="1.4740523695945740e-01" purity="2.3242997005581856e-02" nType="-99"/>
        <Node pos="r" depth="1" NCoef="0" IVar="1" Cut="4.7868801116943359e+01" cType="0" res="-1.4513207599520683e-02" rms="8.7216414511203766e-02" purity="7.8202430158853531e-03" nType="0">
          <Node pos="l" depth="2" NCoef="0" IVar="-1" Cut="0.0000000000000000e+00" cType="1" res="-1.1794816702604294e-02" rms="1.3162672519683838e-01" purity="1.8327394500374794e-02" nType="-99"/>
          <Node pos="r" depth="2" NCoef="0" IVar="-1" Cut="0.0000000000000000e+00" cType="1" res="-2.8256598860025406e-02" rms="7.5792677700519562e-02" purity="5.8232620358467102e-03" nType="-99"/>
        </Node>
      </Node>
    </BinaryTree>
    <BinaryTree type="DecisionTree" boostWeight="1.0000000000000000e+00" itree="58">
      <Node pos="s" depth="0" NCoef="0" IVar="0" Cut="4.5129016876220703e+01" cType="1" res="-5.7679256424307823e-03" rms="1.2824670970439911e-01" purity="1.7416791990399361e-02" nType="0">
        <Node pos="l" depth="1" NCoef="0" IVar="-1" Cut="0.0000000000000000e+00" cType="1" res="5.4167519556358457e-04" rms="1.6137690842151642e-01" purity="2.8028225526213646e-02" nType="-99"/>
        <Node pos="r" depth="1" NCoef="0" IVar="3" Cut="3.4614665985107422e+01" cType="1" res="-1.0376074351370335e-02" rms="9.5928438007831573e-02" purity="9.4593940302729607e-03" nType="0">
          <Node pos="l" depth="2" NCoef="0" IVar="-1" Cut="0.0000000000000000e+00" cType="1" res="-1.3915617950260639e-02" rms="1.8003155291080475e-01" purity="3.3726789057254791e-02" nType="-99"/>
          <Node pos="r" depth="2" NCoef="0" IVar="-1" Cut="0.0000000000000000e+00" cType="1" res="-2.6302041485905647e-02" rms="6.5990887582302094e-02" purity="4.4049541465938091e-03" nType="-99"/>
        </Node>
      </Node>
    </BinaryTree>
    <BinaryTree type="DecisionTree" boostWeight="1.0000000000000000e+00" itree="59">
      <Node pos="s" depth="0" NCoef="0" IVar="2" Cut="4.2070228576660156e+01" cType="1" res="-4.3818368576467037e-03" rms="1.3120761513710022e-01" purity="1.8259430304169655e-02" nType="0">
        <Node pos="l" depth="1" NCoef="0" IVar="-1" Cut="0.0000000000000000e+00" cType="1" res="7.3599414899945259e-03" rms="1.7996436357498169e-01" purity="3.4717600792646408e-02" nType="-99"/>
        <Node pos="r" depth="1" NCoef="0" IVar="4" Cut="2.2440254688262939e+00" cType="1" res="-9.6210250630974770e-03" rms="9.5957376062870026e-02" purity="9.6595929935574532e-03" nType="0">
          <Node pos="l" depth="2" NCoef="0" IVar="-1" Cut="0.0000000000000000e+00" cType="1" res="-1.5902739018201828e-02" rms="1.0589878261089325e-01" purity="1.1832286603748798e-02" nType="-99"/>
          <Node pos="r" depth="2" NCoef="0" IVar="-1" Cut="0.0000000000000000e+00" cType="1" res="-2.8632070869207382e-02" rms="7.6790601015090942e-02" purity="6.0983630828559399e-03" nType="-99"/>
        </Node>
      </Node>
    </BinaryTree>
    <BinaryTree type="DecisionTree" boostWeight="1.0000000000000000e+00" itree="60">
      <Node pos="s" depth="0" NCoef="0" IVar="3" Cut="3.4614665985107422e+01" cType="1" res="-4.0553733706474304e-03" rms="1.3119658827781677e-01" purity="1.8330177292227745e-02" nType="0">
        <Node pos="l" depth="1" NCoef="0" IVar="-1" Cut="0.0000000000000000e+00" cType="1" res="9.3432404100894928e-03" rms="2.4930216372013092e-01" purity="6.7673660814762115e-02" nType="-99"/>
        <Node pos="r" depth="1" NCoef="0" IVar="5" Cut="-3.9383964538574219e+01" cType="0" res="-8.1503530964255333e-03" rms="7.7599585056304932e-02" purity="6.1354339122772217e-03" nType="0">
          <Node pos="l" depth="2" NCoef="0" IVar="-1" Cut="0.0000000000000000e+00" cType="1" res="-1.1570115573704243e-02" rms="1.0744021832942963e-01" purity="1.1837000958621502e-02" nType="-99"/>
          <Node pos="r" depth="2" NCoef="0" IVar="-1" Cut="0.0000000000000000e+00" cType="1" res="-2.9928468167781830e-02" rms="5.2652556449174881e-02" purity="2.7901220601052046e-03" nType="-99"/>
        </Node>
      </Node>
    </BinaryTree>
    <BinaryTree type="DecisionTree" boostWeight="1.0000000000000000e+00" itree="61">
      <Node pos="s" depth="0" NCoef="0" IVar="1" Cut="3.9588012695312500e+01" cType="0" res="-4.3815639801323414e-03" rms="1.2937794625759125e-01" purity="1.7799878492951393e-02" nType="0">
        <Node pos="l" depth="1" NCoef="0" IVar="-1" Cut="0.0000000000000000e+00" cType="1" res="8.5127539932727814e-03" rms="1.5876096487045288e-01" purity="2.7351204305887222e-02" nType="-99"/>
        <Node pos="r" depth="1" NCoef="0" IVar="4" Cut="1.4962806701660156e+00" cType="0" res="-8.4627466276288033e-03" rms="1.1295858025550842e-01" purity="1.3370275497436523e-02" nType="0">
          <Node pos="l" depth="2" NCoef="0" IVar="-1" Cut="0.0000000000000000e+00" cType="1" res="-7.8001972287893295e-03" rms="1.3109850883483887e-01" purity="1.8192693591117859e-02" nType="-99"/>
          <Node pos="r" depth="2" NCoef="0" IVar="-1" Cut="0.0000000000000000e+00" cType="1" res="-2.6197146624326706e-02" rms="7.8696548938751221e-02" purity="6.2729623168706894e-03" nType="-99"/>
        </Node>
      </Node>
    </BinaryTree>
    <BinaryTree type="DecisionTree" boostWeight="1.0000000000000000e+00" itree="62">
      <Node pos="s" depth="0" NCoef="0" IVar="3" Cut="3.4614665985107422e+01" cType="1" res="-3.5874759778380394e-03" rms="1.3095994293689728e-01" purity="1.8233230337500572e-02" nType="0">
        <Node pos="l" depth="1" NCoef="0" IVar="-1" Cut="0.0000000000000000e+00" cType="1" res="6.4001255668699741e-03" rms="2.4270251393318176e-01" purity="6.3964366912841797e-02" nType="-99"/>
        <Node pos="r" depth="1" NCoef="0" IVar="2" Cut="3.0058332443237305e+01" cType="1" res="-6.6375881433486938e-03" rms="8.1931032240390778e-02" purity="6.8523325026035309e-03" nType="0">
          <Node pos="l" depth="2" NCoef="0" IVar="-1" Cut="0.0000000000000000e+00" cType="1" res="1.4603015733882785e-03" rms="1.3456791639328003e-01" purity="1.8668813630938530e-02" nType="-99"/>
          <Node pos="r" depth="2" NCoef="0" IVar="-1" Cut="0.0000000000000000e+00" cType="1" res="-2.4918450042605400e-02" rms="6.8028293550014496e-02" purity="4.7026206739246845e-03" nType="-99"/>
        </Node>
      </Node>
    </BinaryTree>
    <BinaryTree type="DecisionTree" boostWeight="1.0000000000000000e+00" itree="63">
      <Node pos="s" depth="0" NCoef="0" IVar="3" Cut="3.1535484313964844e+01" cType="1" res="-2.9266057536005974e-03" rms="1.3184644281864166e-01" purity="1.8525464460253716e-02" nType="0">
        <Node pos="l" depth="1" NCoef="0" IVar="-1" Cut="0.0000000000000000e+00" cType="1" res="8.9460965245962143e-03" rms="2.5351151823997498e-01" purity="7.0198856294155121e-02" nType="-99"/>
        <Node pos="r" depth="1" NCoef="0" IVar="3" Cut="6.1572643280029297e+01" cType="1" res="-6.2681515701115131e-03" rms="8.4935322403907776e-02" purity="7.3866751044988632e-03" nType="0">
          <Node pos="l" depth="2" NCoef="0" IVar="-1" Cut="0.0000000000000000e+00" cType="1" res="-1.3663980644196272e-03" rms="1.3721488416194916e-01" purity="1.9410030916333199e-02" nType="-99"/>
          <Node pos="r" depth="2" NCoef="0" IVar="-1" Cut="0.0000000000000000e+00" cType="1" res="-3.1529318541288376e-02" rms="4.6515893191099167e-02" purity="2.1781236864626408e-03" nType="-99"/>
        </Node>
      </Node>
    </BinaryTree>
    <BinaryTree type="DecisionTree" boostWeight="1.0000000000000000e+00" itree="64">
      <Node pos="s" depth="0" NCoef="0" IVar="5" Cut="-4.0605297088623047e+01" cType="0" res="-3.2522680703550577e-03" rms="1.3030210137367249e-01" purity="1.8054654821753502e-02" nType="0">
        <Node pos="l" depth="1" NCoef="0" IVar="-1" Cut="0.0000000000000000e+00" cType="1" res="4.0988661348819733e-03" rms="1.7462863028049469e-01" purity="3.2713282853364944e-02" nType="-99"/>
        <Node pos="r" depth="1" NCoef="0" IVar="1" Cut="5.9175846099853516e+01" cType="0" res="-8.4408009424805641e-03" rms="7.5695022940635681e-02" purity="5.9197149239480495e-03" nType="0">
          <Node pos="l" depth="2" NCoef="0" IVar="-1" Cut="0.0000000000000000e+00" cType="1" res="1.1497694067656994e-03" rms="1.3423934578895569e-01" purity="1.9333746284246445e-02" nType="-99"/>
          <Node pos="r" depth="2" NCoef="0" IVar="-1" Cut="0.0000000000000000e+00" cType="1" res="-2.6802819222211838e-02" rms="6.2077332288026810e-02" purity="3.8871432188898325e-03" nType="-99"/>
        </Node>
      </Node>
    </BinaryTree>
    <BinaryTree type="DecisionTree" boostWeight="1.0000000000000000e+00" itree="65">
      <Node pos="s" depth="0" NCoef="0" IVar="0" Cut="4.5130031585693359e+01" cType="1" res="-3.2704235054552555e-03" rms="1.2955753505229950e-01" purity="1.7865862697362900e-02" nType="0">
        <Node pos="l" depth="1" NCoef="0" IVar="-1" Cut="0.0000000000000000e+00" cType="1" res="5.9171365574002266e-03" rms="1.6539622843265533e-01" purity="2.9671534895896912e-02" nType="-99"/>
        <Node pos="r" depth="1" NCoef="0" IVar="3" Cut="3.0487407684326172e+01" cType="1" res="-8.6284829303622246e-03" rms="9.3508698046207428e-02" purity="8.9597357437014580e-03" nType="0">
          <Node pos="l" depth="2" NCoef="0" IVar="-1" Cut="0.0000000000000000e+00" cType="1" res="-1.5443254262208939e-02" rms="1.7705118656158447e-01" purity="3.2590031623840332e-02" nType="-99"/>
          <Node pos="r" depth="2" NCoef="0" IVar="-1" Cut="0.0000000000000000e+00" cType="1" res="-2.2814821451902390e-02" rms="6.8852283060550690e-02" purity="4.8032747581601143e-03" nType="-99"/>
        </Node>
      </Node>
    </BinaryTree>
    <BinaryTree type="DecisionTree" boostWeight="1.0000000000000000e+00" itree="66">
      <Node pos="s" depth="0" NCoef="0" IVar="3" Cut="3.2757297515869141e+01" cType="1" res="-2.5132473092526197e-03" rms="1.3108851015567780e-01" purity="1.8335109576582909e-02" nType="0">
        <Node pos="l" depth="1" NCoef="0" IVar="-1" Cut="0.0000000000000000e+00" cType="1" res="6.8660583347082138e-03" rms="2.4873724579811096e-01" purity="6.7501522600650787e-02" nType="-99"/>
        <Node pos="r" depth="1" NCoef="0" IVar="2" Cut="4.9143245697021484e+01" cType="1" res="-5.2831084467470646e-03" rms="8.3258971571922302e-02" purity="7.1004321798682213e-03" nType="0">
          <Node pos="l" depth="2" NCoef="0" IVar="-1" Cut="0.0000000000000000e+00" cType="1" res="-3.2292974647134542e-03" rms="1.1537261307239532e-01" purity="1.3709225691854954e-02" nType="-99"/>
          <Node pos="r" depth="2" NCoef="0" IVar="-1" Cut="0.0000000000000000e+00" cType="1" res="-3.0736023560166359e-02" rms="5.2039861679077148e-02" purity="2.7419014368206263e-03" nType="-99"/>
        </Node>
      </Node>
    </BinaryTree>
    <BinaryTree type="DecisionTree" boostWeight="1.0000000000000000e+00" itree="67">
      <Node pos="s" depth="0" NCoef="0" IVar="1" Cut="3.9588817596435547e+01" cType="0" res="-3.4544328227639198e-03" rms="1.2693607807159424e-01" purity="1.7145916819572449e-02" nType="0">
        <Node pos="l" depth="1" NCoef="0" IVar="-1" Cut="0.0000000000000000e+00" cType="1" res="8.0819260329008102e-03" rms="1.5496309101581573e-01" purity="2.6025829836726189e-02" nType="-99"/>
        <Node pos="r" depth="1" NCoef="0" IVar="5" Cut="-2.4207202911376953e+01" cType="0" res="-6.9057485088706017e-03" rms="1.1148173362016678e-01" purity="1.3047098182141781e-02" nType="0">
          <Node pos="l" depth="2" NCoef="0" IVar="-1" Cut="0.0000000000000000e+00" cType="1" res="-1.5318462392315269e-03" rms="1.6347935795783997e-01" purity="2.8479002416133881e-02" nType="-99"/>
          <Node pos="r" depth="2" NCoef="0" IVar="-1" Cut="0.0000000000000000e+00" cType="1" res="-2.5084139779210091e-02" rms="6.7680984735488892e-02" purity="4.6071470715105534e-03" nType="-99"/>
        </Node>
      </Node>
    </BinaryTree>
    <BinaryTree type="DecisionTree" boostWeight="1.0000000000000000e+00" itree="68">
      <Node pos="s" depth="0" NCoef="0" IVar="1" Cut="3.6840396881103516e+01" cType="0" res="-2.4056010879576206e-03" rms="1.2986914813518524e-01" purity="1.7983630299568176e-02" nType="0">
        <Node pos="l" depth="1" NCoef="0" IVar="-1" Cut="0.0000000000000000e+00" cType="1" res="9.1833984479308128e-03" rms="1.5705442428588867e-01" purity="2.6777099817991257e-02" nType="-99"/>
        <Node pos="r" depth="1" NCoef="0" IVar="1" Cut="2.5613517761230469e+01" cType="0" res="-6.5353247337043285e-03" rms="1.1069114506244659e-01" purity="1.2834682129323483e-02" nType="0">
          <Node pos="l" depth="2" NCoef="0" IVar="-1" Cut="0.0000000000000000e+00" cType="1" res="-6.4680082723498344e-03" rms="1.2292302399873734e-01" purity="1.5933327376842499e-02" nType="-99"/>
          <Node pos="r" depth="2" NCoef="0" IVar="-1" Cut="0.0000000000000000e+00" cType="1" res="-2.0199816673994064e-02" rms="9.3189723789691925e-02" purity="8.9975800365209579e-03" nType="-99"/>
        </Node>
      </Node>
    </BinaryTree>
    <BinaryTree type="DecisionTree" boostWeight="1.0000000000000000e+00" itree="69">
      <Node pos="s" depth="0" NCoef="0" IVar="3" Cut="3.4614665985107422e+01" cType="1" res="-1.9717558752745390e-03" rms="1.3090156018733978e-01" purity="1.8314147368073463e-02" nType="0">
        <Node pos="l" depth="1" NCoef="0" IVar="-1" Cut="0.0000000000000000e+00" cType="1" res="6.6183605231344700e-03" rms="2.4467907845973969e-01" purity="6.5382756292819977e-02" nType="-99"/>
        <Node pos="r" depth="1" NCoef="0" IVar="5" Cut="-4.7703666687011719e+01" cType="0" res="-4.6884762123227119e-03" rms="8.1031985580921173e-02" purity="6.7138150334358215e-03" nType="0">
          <Node pos="l" depth="2" NCoef="0" IVar="-1" Cut="0.0000000000000000e+00" cType="1" res="-3.0214884318411350e-03" rms="1.1173147708177567e-01" purity="1.2834052555263042e-02" nType="-99"/>
          <Node pos="r" depth="2" NCoef="0" IVar="-1" Cut="0.0000000000000000e+00" cType="1" res="-2.9381657019257545e-02" rms="4.7173131257295609e-02" purity="2.2414328996092081e-03" nType="-99"/>
        </Node>
      </Node>
    </BinaryTree>
    <BinaryTree type="DecisionTree" boostWeight="1.0000000000000000e+00" itree="70">
      <Node pos="s" depth="0" NCoef="0" IVar="2" Cut="5.5292690277099609e+01" cType="1" res="-1.8626520177349448e-03" rms="1.3072361052036285e-01" purity="1.8238259479403496e-02" nType="0">
        <Node pos="l" depth="1" NCoef="0" IVar="-1" Cut="0.0000000000000000e+00" cType="1" res="6.0324328951537609e-03" rms="1.6372455656528473e-01" purity="2.8854763135313988e-02" nType="-99"/>
        <Node pos="r" depth="1" NCoef="0" IVar="4" Cut="2.3936340808868408e+00" cType="1" res="-7.8919250518083572e-03" rms="8.2745477557182312e-02" purity="7.1260677650570869e-03" nType="0">
          <Node pos="l" depth="2" NCoef="0" IVar="-1" Cut="0.0000000000000000e+00" cType="1" res="-1.7196223139762878e-02" rms="9.3073718249797821e-02" purity="9.0923737734556198e-03" nType="-99"/>
          <Node pos="r" depth="2" NCoef="0" IVar="-1" Cut="0.0000000000000000e+00" cType="1" res="-3.4457892179489136e-02" rms="5.4634708911180496e-02" purity="2.9690987430512905e-03" nType="-99"/>
        </Node>
      </Node>
    </BinaryTree>
    <BinaryTree type="DecisionTree" boostWeight="1.0000000000000000e+00" itree="71">
      <Node pos="s" depth="0" NCoef="0" IVar="0" Cut="4.5130031585693359e+01" cType="1" res="-2.0842836238443851e-03" rms="1.2933422625064850e-01" purity="1.7891170457005501e-02" nType="0">
        <Node pos="l" depth="1" NCoef="0" IVar="-1" Cut="0.0000000000000000e+00" cType="1" res="6.7793726921081543e-03" rms="1.6374906897544861e-01" purity="2.9233274981379509e-02" nType="-99"/>
        <Node pos="r" depth="1" NCoef="0" IVar="3" Cut="3.4614665985107422e+01" cType="1" res="-6.8515832535922527e-03" rms="9.5166854560375214e-02" purity="9.3250181525945663e-03" nType="0">
          <Node pos="l" depth="2" NCoef="0" IVar="-1" Cut="0.0000000000000000e+00" cType="1" res="-1.2833499349653721e-02" rms="1.8030737340450287e-01" purity="3.3942405134439468e-02" nType="-99"/>
          <Node pos="r" depth="2" NCoef="0" IVar="-1" Cut="0.0000000000000000e+00" cType="1" res="-2.1178303286433220e-02" rms="6.4619258046150208e-02" purity="4.2226463556289673e-03" nType="-99"/>
        </Node>
      </Node>
    </BinaryTree>
    <BinaryTree type="DecisionTree" boostWeight="1.0000000000000000e+00" itree="72">
      <Node pos="s" depth="0" NCoef="0" IVar="2" Cut="4.3833347320556641e+01" cType="1" res="-1.7969405744224787e-03" rms="1.3004702329635620e-01" purity="1.8064592033624649e-02" nType="0">
        <Node pos="l" depth="1" NCoef="0" IVar="-1" Cut="0.0000000000000000e+00" cType="1" res="8.4400214254856110e-03" rms="1.7573590576648712e-01" purity="3.3399041742086411e-02" nType="-99"/>
        <Node pos="r" depth="1" NCoef="0" IVar="2" Cut="8.2880897521972656e+01" cType="1" res="-6.3515412621200085e-03" rms="9.3340843915939331e-02" purity="9.1264098882675171e-03" nType="0">
          <Node pos="l" depth="2" NCoef="0" IVar="-1" Cut="0.0000000000000000e+00" cType="1" res="-1.1233254335820675e-02" rms="1.0479647666215897e-01" purity="1.1590025387704372e-02" nType="-99"/>
          <Node pos="r" depth="2" NCoef="0" IVar="-1" Cut="0.0000000000000000e+00" cType="1" res="-3.0669992789626122e-02" rms="6.7953057587146759e-02" purity="4.6995421871542931e-03" nType="-99"/>
        </Node>
      </Node>
    </BinaryTree>
    <BinaryTree type="DecisionTree" boostWeight="1.0000000000000000e+00" itree="73">
      <Node pos="s" depth="0" NCoef="0" IVar="4" Cut="1.1968548297882080e+00" cType="0" res="-1.9071920542046428e-03" rms="1.2885196506977081e-01" purity="1.7770083621144295e-02" nType="0">
        <Node pos="l" depth="1" NCoef="0" IVar="-1" Cut="0.0000000000000000e+00" cType="1" res="2.3556135129183531e-03" rms="1.4203825592994690e-01" purity="2.1761812269687653e-02" nType="-99"/>
        <Node pos="r" depth="1" NCoef="0" IVar="3" Cut="3.8690876007080078e+01" cType="1" res="-9.7136106342077255e-03" rms="8.7155722081661224e-02" purity="7.8005148097872734e-03" nType="0">
          <Node pos="l" depth="2" NCoef="0" IVar="-1" Cut="0.0000000000000000e+00" cType="1" res="-1.5704149380326271e-02" rms="1.6488039493560791e-01" purity="2.8148444369435310e-02" nType="-99"/>
          <Node pos="r" depth="2" NCoef="0" IVar="-1" Cut="0.0000000000000000e+00" cType="1" res="-3.1002469360828400e-02" rms="4.0326051414012909e-02" purity="1.6223470447584987e-03" nType="-99"/>
        </Node>
      </Node>
    </BinaryTree>
    <BinaryTree type="DecisionTree" boostWeight="1.0000000000000000e+00" itree="74">
      <Node pos="s" depth="0" NCoef="0" IVar="3" Cut="6.5747207641601562e+01" cType="1" res="-7.9536327393725514e-04" rms="1.3234041631221771e-01" purity="1.8790027126669884e-02" nType="0">
        <Node pos="l" depth="1" NCoef="0" IVar="-1" Cut="0.0000000000000000e+00" cType="1" res="6.7896074615418911e-03" rms="1.8743099272251129e-01" purity="3.7880957126617432e-02" nType="-99"/>
        <Node pos="r" depth="1" NCoef="0" IVar="5" Cut="-1.1561062812805176e+01" cType="0" res="-6.5179537050426006e-03" rms="3.8182228803634644e-02" purity="1.4645801857113838e-03" nType="0">
          <Node pos="l" depth="2" NCoef="0" IVar="-1" Cut="0.0000000000000000e+00" cType="1" res="-3.3811990171670914e-02" rms="4.3244041502475739e-02" purity="1.8818582175299525e-03" nType="-99"/>
          <Node pos="r" depth="2" NCoef="0" IVar="-1" Cut="0.0000000000000000e+00" cType="1" res="-3.1821001321077347e-02" rms="3.6570027470588684e-02" purity="1.3436689041554928e-03" nType="-99"/>
        </Node>
      </Node>
    </BinaryTree>
    <BinaryTree type="DecisionTree" boostWeight="1.0000000000000000e+00" itree="75">
      <Node pos="s" depth="0" NCoef="0" IVar="3" Cut="3.4615333557128906e+01" cType="1" res="-8.8335084728896618e-04" rms="1.3156397640705109e-01" purity="1.8582217395305634e-02" nType="0">
        <Node pos="l" depth="1" NCoef="0" IVar="-1" Cut="0.0000000000000000e+00" cType="1" res="7.2410623542964458e-03" rms="2.4640052020549774e-01" purity="6.6644497215747833e-02" nType="-99"/>
        <Node pos="r" depth="1" NCoef="0" IVar="2" Cut="3.0099599838256836e+01" cType="1" res="-3.5707543138414621e-03" rms="8.0719724297523499e-02" purity="6.6707222722470760e-03" nType="0">
          <Node pos="l" depth="2" NCoef="0" IVar="-1" Cut="0.0000000000000000e+00" cType="1" res="6.7617362365126610e-03" rms="1.3432575762271881e-01" purity="1.8631394952535629e-02" nType="-99"/>
          <Node pos="r" depth="2" NCoef="0" IVar="-1" Cut="0.0000000000000000e+00" cType="1" res="-2.0343391224741936e-02" rms="6.6208668053150177e-02" purity="4.4681285507977009e-03" nType="-99"/>
        </Node>
      </Node>
    </BinaryTree>
    <BinaryTree type="DecisionTree" boostWeight="1.0000000000000000e+00" itree="76">
      <Node pos="s" depth="0" NCoef="0" IVar="0" Cut="4.1151401519775391e+01" cType="1" res="-1.1657127179205418e-03" rms="1.3062785565853119e-01" purity="1.8258720636367798e-02" nType="0">
        <Node pos="l" depth="1" NCoef="0" IVar="-1" Cut="0.0000000000000000e+00" cType="1" res="8.8955694809556007e-03" rms="1.6838137805461884e-01" purity="3.1043462455272675e-02" nType="-99"/>
        <Node pos="r" depth="1" NCoef="0" IVar="3" Cut="3.2873851776123047e+01" cType="1" res="-5.0240075215697289e-03" rms="1.0289529711008072e-01" purity="1.0970664210617542e-02" nType="0">
          <Node pos="l" depth="2" NCoef="0" IVar="-1" Cut="0.0000000000000000e+00" cType="1" res="-1.0908812284469604e-02" rms="1.9062018394470215e-01" purity="3.8256108760833740e-02" nType="-99"/>
          <Node pos="r" depth="2" NCoef="0" IVar="-1" Cut="0.0000000000000000e+00" cType="1" res="-1.4263642951846123e-02" rms="7.4245490133762360e-02" purity="5.6128213182091713e-03" nType="-99"/>
        </Node>
      </Node>
    </BinaryTree>
    <BinaryTree type="DecisionTree" boostWeight="1.0000000000000000e+00" itree="77">
      <Node pos="s" depth="0" NCoef="0" IVar="5" Cut="-2.5289321899414062e+01" cType="0" res="-4.6283562551252544e-04" rms="1.3233573734760284e-01" purity="1.8825087696313858e-02" nType="0">
        <Node pos="l" depth="1" NCoef="0" IVar="-1" Cut="0.0000000000000000e+00" cType="1" res="1.0396555997431278e-02" rms="1.8206284940242767e-01" purity="3.6095928400754929e-02" nType="-99"/>
        <Node pos="r" depth="1" NCoef="0" IVar="1" Cut="5.9177127838134766e+01" cType="0" res="-4.6665174886584282e-03" rms="9.5230177044868469e-02" purity="9.5530264079570770e-03" nType="0">
          <Node pos="l" depth="2" NCoef="0" IVar="-1" Cut="0.0000000000000000e+00" cType="1" res="1.0004891082644463e-02" rms="1.4612081646919250e-01" purity="2.3552905768156052e-02" nType="-99"/>
          <Node pos="r" depth="2" NCoef="0" IVar="-1" Cut="0.0000000000000000e+00" cType="1" res="-1.6835456714034081e-02" rms="8.5105076432228088e-02" purity="7.4868253432214260e-03" nType="-99"/>
        </Node>
      </Node>
    </BinaryTree>
    <BinaryTree type="DecisionTree" boostWeight="1.0000000000000000e+00" itree="78">
      <Node pos="s" depth="0" NCoef="0" IVar="4" Cut="1.3464325666427612e+00" cType="0" res="-1.0177302174270153e-03" rms="1.3067525625228882e-01" purity="1.8305318430066109e-02" nType="0">
        <Node pos="l" depth="1" NCoef="0" IVar="-1" Cut="0.0000000000000000e+00" cType="1" res="4.7651892527937889e-03" rms="1.4548091590404510e-01" purity="2.2908184677362442e-02" nType="-99"/>
        <Node pos="r" depth="1" NCoef="0" IVar="1" Cut="8.5942146301269531e+01" cType="0" res="-8.0628609284758568e-03" rms="9.3159444630146027e-02" purity="8.9352484792470932e-03" nType="0">
          <Node pos="l" depth="2" NCoef="0" IVar="-1" Cut="0.0000000000000000e+00" cType="1" res="6.0170594602823257e-02" rms="2.1543933451175690e-01" purity="5.1421713083982468e-02" nType="-99"/>
          <Node pos="r" depth="2" NCoef="0" IVar="-1" Cut="0.0000000000000000e+00" cType="1" res="-2.0946616306900978e-02" rms="8.8568598031997681e-02" purity="8.0265840515494347e-03" nType="-99"/>
        </Node>
      </Node>
    </BinaryTree>
    <BinaryTree type="DecisionTree" boostWeight="1.0000000000000000e+00" itree="79">
      <Node pos="s" depth="0" NCoef="0" IVar="0" Cut="6.1483146667480469e+01" cType="1" res="-5.4883491247892380e-04" rms="1.3204982876777649e-01" purity="1.8737038597464561e-02" nType="0">
        <Node pos="l" depth="1" NCoef="0" IVar="-1" Cut="0.0000000000000000e+00" cType="1" res="5.6875362060964108e-03" rms="1.5261788666248322e-01" purity="2.5292137637734413e-02" nType="-99"/>
        <Node pos="r" depth="1" NCoef="0" IVar="3" Cut="3.4655273437500000e+01" cType="1" res="-7.4926582165062428e-03" rms="8.0075010657310486e-02" purity="6.4765526913106441e-03" nType="0">
          <Node pos="l" depth="2" NCoef="0" IVar="-1" Cut="0.0000000000000000e+00" cType="1" res="-1.9873142242431641e-02" rms="1.5227957069873810e-01" purity="2.3729071021080017e-02" nType="-99"/>
          <Node pos="r" depth="2" NCoef="0" IVar="-1" Cut="0.0000000000000000e+00" cType="1" res="-2.3537253960967064e-02" rms="5.5720172822475433e-02" purity="3.1299598049372435e-03" nType="-99"/>
        </Node>
      </Node>
    </BinaryTree>
    <BinaryTree type="DecisionTree" boostWeight="1.0000000000000000e+00" itree="80">
      <Node pos="s" depth="0" NCoef="0" IVar="2" Cut="5.5552307128906250e+01" cType="1" res="-3.0113762477412820e-04" rms="1.3244871795177460e-01" purity="1.8877925351262093e-02" nType="0">
        <Node pos="l" depth="1" NCoef="0" IVar="-1" Cut="0.0000000000000000e+00" cType="1" res="7.5761559419333935e-03" rms="1.6487911343574524e-01" purity="2.9531169682741165e-02" nType="-99"/>
        <Node pos="r" depth="1" NCoef="0" IVar="4" Cut="2.0944335460662842e+00" cType="1" res="-5.7624410837888718e-03" rms="8.5218332707881927e-02" purity="7.5837983749806881e-03" nType="0">
          <Node pos="l" depth="2" NCoef="0" IVar="-1" Cut="0.0000000000000000e+00" cType="1" res="-1.1986273340880871e-02" rms="9.5967210829257965e-02" purity="9.6793128177523613e-03" nType="-99"/>
          <Node pos="r" depth="2" NCoef="0" IVar="-1" Cut="0.0000000000000000e+00" cType="1" res="-2.7122331783175468e-02" rms="6.8863339722156525e-02" purity="4.8851943574845791e-03" nType="-99"/>
        </Node>
      </Node>
    </BinaryTree>
    <BinaryTree type="DecisionTree" boostWeight="1.0000000000000000e+00" itree="81">
      <Node pos="s" depth="0" NCoef="0" IVar="4" Cut="1.3464325666427612e+00" cType="0" res="-9.8533520940691233e-04" rms="1.2964442372322083e-01" purity="1.8127052113413811e-02" nType="0">
        <Node pos="l" depth="1" NCoef="0" IVar="-1" Cut="0.0000000000000000e+00" cType="1" res="4.9522784538567066e-03" rms="1.4542473852634430e-01" purity="2.3035602644085884e-02" nType="-99"/>
        <Node pos="r" depth="1" NCoef="0" IVar="3" Cut="3.9440921783447266e+01" cType="1" res="-8.1127267330884933e-03" rms="8.9120499789714813e-02" purity="8.1878565251827240e-03" nType="0">
          <Node pos="l" depth="2" NCoef="0" IVar="-1" Cut="0.0000000000000000e+00" cType="1" res="-1.5550579875707626e-02" rms="1.6120064258575439e-01" purity="2.7063358575105667e-02" nType="-99"/>
          <Node pos="r" depth="2" NCoef="0" IVar="-1" Cut="0.0000000000000000e+00" cType="1" res="-2.6886438950896263e-02" rms="4.6703532338142395e-02" purity="2.1906588226556778e-03" nType="-99"/>
        </Node>
      </Node>
    </BinaryTree>
    <BinaryTree type="DecisionTree" boostWeight="1.0000000000000000e+00" itree="82">
      <Node pos="s" depth="0" NCoef="0" IVar="2" Cut="4.7065990447998047e+01" cType="1" res="-1.6104060923680663e-03" rms="1.2714476883411407e-01" purity="1.7353422939777374e-02" nType="0">
        <Node pos="l" depth="1" NCoef="0" IVar="-1" Cut="0.0000000000000000e+00" cType="1" res="5.0829118117690086e-03" rms="1.6679510474205017e-01" purity="3.0161475762724876e-02" nType="-99"/>
        <Node pos="r" depth="1" NCoef="0" IVar="5" Cut="3.4156707763671875e+01" cType="1" res="-5.1300744526088238e-03" rms="9.0100802481174469e-02" purity="8.5428794845938683e-03" nType="0">
          <Node pos="l" depth="2" NCoef="0" IVar="-1" Cut="0.0000000000000000e+00" cType="1" res="-1.3047909364104271e-02" rms="9.2612966895103455e-02" purity="9.0673640370368958e-03" nType="-99"/>
          <Node pos="r" depth="2" NCoef="0" IVar="-1" Cut="0.0000000000000000e+00" cType="1" res="-2.9109416529536247e-02" rms="7.2565726935863495e-02" purity="5.3332783281803131e-03" nType="-99"/>
        </Node>
      </Node>
    </BinaryTree>
    <BinaryTree type="DecisionTree" boostWeight="1.0000000000000000e+00" itree="83">
      <Node pos="s" depth="0" NCoef="0" IVar="4" Cut="1.3464744091033936e+00" cType="0" res="-6.4724776893854141e-04" rms="1.2973488867282867e-01" purity="1.8120510503649712e-02" nType="0">
        <Node pos="l" depth="1" NCoef="0" IVar="-1" Cut="0.0000000000000000e+00" cType="1" res="5.2793538197875023e-03" rms="1.4592245221138000e-01" purity="2.3136842995882034e-02" nType="-99"/>
        <Node pos="r" depth="1" NCoef="0" IVar="2" Cut="5.5731956481933594e+01" cType="0" res="-7.4113267473876476e-03" rms="8.7965570390224457e-02" purity="7.9749934375286102e-03" nType="0">
          <Node pos="l" depth="2" NCoef="0" IVar="-1" Cut="0.0000000000000000e+00" cType="1" res="-1.2264857068657875e-02" rms="8.7617136538028717e-02" purity="8.0204606056213379e-03" nType="-99"/>
          <Node pos="r" depth="2" NCoef="0" IVar="-1" Cut="0.0000000000000000e+00" cType="1" res="-2.2608336061239243e-02" rms="8.8102549314498901e-02" purity="7.9359142109751701e-03" nType="-99"/>
        </Node>
      </Node>
    </BinaryTree>
    <BinaryTree type="DecisionTree" boostWeight="1.0000000000000000e+00" itree="84">
      <Node pos="s" depth="0" NCoef="0" IVar="1" Cut="3.6840457916259766e+01" cType="0" res="-1.0168384760618210e-03" rms="1.2939913570880890e-01" purity="1.7981437966227531e-02" nType="0">
        <Node pos="l" depth="1" NCoef="0" IVar="-1" Cut="0.0000000000000000e+00" cType="1" res="9.8554622381925583e-03" rms="1.5269814431667328e-01" purity="2.5531750172376633e-02" nType="-99"/>
        <Node pos="r" depth="1" NCoef="0" IVar="1" Cut="2.7217386245727539e+01" cType="0" res="-4.3023079633712769e-03" rms="1.1369571089744568e-01" purity="1.3630061410367489e-02" nType="0">
          <Node pos="l" depth="2" NCoef="0" IVar="-1" Cut="0.0000000000000000e+00" cType="1" res="-7.8493307228200138e-05" rms="1.2929785251617432e-01" purity="1.7839053645730019e-02" nType="-99"/>
          <Node pos="r" depth="2" NCoef="0" IVar="-1" Cut="0.0000000000000000e+00" cType="1" res="-1.6166506335139275e-02" rms="9.8921351134777069e-02" purity="1.0172838345170021e-02" nType="-99"/>
        </Node>
      </Node>
    </BinaryTree>
    <BinaryTree type="DecisionTree" boostWeight="1.0000000000000000e+00" itree="85">
      <Node pos="s" depth="0" NCoef="0" IVar="3" Cut="3.1541500091552734e+01" cType="1" res="-3.2393232686445117e-05" rms="1.3192811608314514e-01" purity="1.8796158954501152e-02" nType="0">
        <Node pos="l" depth="1" NCoef="0" IVar="-1" Cut="0.0000000000000000e+00" cType="1" res="9.0631991624832153e-03" rms="2.5342044234275818e-01" purity="7.1211308240890503e-02" nType="-99"/>
        <Node pos="r" depth="1" NCoef="0" IVar="3" Cut="6.1578559875488281e+01" cType="1" res="-2.8048714157193899e-03" rms="8.5135973989963531e-02" purity="7.4731698259711266e-03" nType="0">
          <Node pos="l" depth="2" NCoef="0" IVar="-1" Cut="0.0000000000000000e+00" cType="1" res="3.1226328574120998e-03" rms="1.3451069593429565e-01" purity="1.8788469955325127e-02" nType="-99"/>
          <Node pos="r" depth="2" NCoef="0" IVar="-1" Cut="0.0000000000000000e+00" cType="1" res="-2.5930503383278847e-02" rms="4.8842910677194595e-02" purity="2.4119084700942039e-03" nType="-99"/>
        </Node>
      </Node>
    </BinaryTree>
    <BinaryTree type="DecisionTree" boostWeight="1.0000000000000000e+00" itree="86">
      <Node pos="s" depth="0" NCoef="0" IVar="3" Cut="3.4615158081054688e+01" cType="1" res="-7.4159637733828276e-05" rms="1.3148008286952972e-01" purity="1.8724447116255760e-02" nType="0">
        <Node pos="l" depth="1" NCoef="0" IVar="-1" Cut="0.0000000000000000e+00" cType="1" res="7.8499633818864822e-03" rms="2.4824692308902740e-01" purity="6.8374067544937134e-02" nType="-99"/>
