<?xml version="1.0"?>
<MethodSetup Method="BDT::BDTG">
  <GeneralInfo>
    <Info name="TMVA Release" value="4.1.2 [262402]"/>
    <Info name="ROOT Release" value="5.32/04 [335876]"/>
    <Info name="Creator" value="adinda"/>
    <Info name="Date" value="Wed Apr 30 11:47:27 2014"/>
    <Info name="Host" value="Darwin Adindas-MacBook-Air.local 12.4.1 Darwin Kernel Version 12.4.1: Tue May 21 17:04:50 PDT 2013; root:xnu-2050.40.51~1/RELEASE_X86_64 x86_64"/>
    <Info name="Dir" value="/Users/adinda/Documents/Imperial/PhD/Year/2014/04Apr/28040405/SingleBDT"/>
    <Info name="Training events" value="717323"/>
    <Info name="TrainingTime" value="4.73331774e+02"/>
    <Info name="AnalysisType" value="Classification"/>
  </GeneralInfo>
  <Options>
    <Option name="V" modified="Yes">False</Option>
    <Option name="VerbosityLevel" modified="No">Default</Option>
    <Option name="VarTransform" modified="No">None</Option>
    <Option name="H" modified="Yes">False</Option>
    <Option name="CreateMVAPdfs" modified="No">False</Option>
    <Option name="IgnoreNegWeightsInTraining" modified="No">False</Option>
    <Option name="NTrees" modified="Yes">1000</Option>
    <Option name="RenormByClass" modified="No">False</Option>
    <Option name="BoostType" modified="Yes">Grad</Option>
    <Option name="AdaBoostR2Loss" modified="No">quadratic</Option>
    <Option name="UseBaggedGrad" modified="Yes">True</Option>
    <Option name="GradBaggingFraction" modified="Yes">5.000000e-01</Option>
    <Option name="Shrinkage" modified="Yes">1.000000e-01</Option>
    <Option name="AdaBoostBeta" modified="No">1.000000e+00</Option>
    <Option name="UseRandomisedTrees" modified="No">False</Option>
    <Option name="UseNvars" modified="No">3</Option>
    <Option name="UsePoissonNvars" modified="No">True</Option>
    <Option name="UseNTrainEvents" modified="No">717323</Option>
    <Option name="UseWeightedTrees" modified="No">True</Option>
    <Option name="UseYesNoLeaf" modified="No">True</Option>
    <Option name="NodePurityLimit" modified="No">5.000000e-01</Option>
    <Option name="SeparationType" modified="No">giniindex</Option>
    <Option name="nEventsMin" modified="No">1463</Option>
    <Option name="nCuts" modified="Yes">20</Option>
    <Option name="UseFisherCuts" modified="No">False</Option>
    <Option name="MinLinCorrForFisher" modified="No">8.000000e-01</Option>
    <Option name="UseExclusiveVars" modified="No">False</Option>
    <Option name="PruneStrength" modified="No">0.000000e+00</Option>
    <Option name="PruneMethod" modified="No">nopruning</Option>
    <Option name="PruneBeforeBoost" modified="No">False</Option>
    <Option name="PruningValFraction" modified="No">5.000000e-01</Option>
    <Option name="NNodesMax" modified="Yes">5</Option>
    <Option name="MaxDepth" modified="No">3</Option>
    <Option name="DoBoostMonitor" modified="No">False</Option>
    <Option name="NegWeightTreatment" modified="No">ignorenegweights</Option>
  </Options>
  <Variables NVar="7">
    <Variable VarIndex="0" Expression="pt_1" Label="pt_1" Title="pt_1" Unit="units" Internal="pt_1" Type="F" Min="1.00002680e+01" Max="9.63971558e+02"/>
    <Variable VarIndex="1" Expression="met" Label="met" Title="met" Unit="" Internal="met" Type="F" Min="6.89853579e-02" Max="8.27286987e+02"/>
    <Variable VarIndex="2" Expression="mt_ll" Label="mt_ll" Title="mt_ll" Unit="" Internal="mt_ll" Type="F" Min="3.88299013e-05" Max="8.44397461e+02"/>
    <Variable VarIndex="3" Expression="pzetamiss" Label="pzetamiss" Title="pzetamiss" Unit="" Internal="pzetamiss" Type="F" Min="-3.42875092e+02" Max="6.60638550e+02"/>
    <Variable VarIndex="4" Expression="pt_2" Label="pt_2" Title="pt_2" Unit="" Internal="pt_2" Type="F" Min="1.00000267e+01" Max="7.96043823e+02"/>
    <Variable VarIndex="5" Expression="emu_dphi" Label="emu_dphi" Title="emu_dphi" Unit="" Internal="emu_dphi" Type="F" Min="1.23977661e-05" Max="3.14157963e+00"/>
    <Variable VarIndex="6" Expression="pzeta" Label="pzeta" Title="pzeta" Unit="" Internal="pzeta" Type="F" Min="-7.00146606e+02" Max="5.87925964e+02"/>
  </Variables>
  <Spectators NSpec="0"/>
  <Classes NClass="2">
    <Class Name="Signal" Index="0"/>
    <Class Name="Background" Index="1"/>
  </Classes>
  <Transformations NTransformations="0"/>
  <MVAPdfs/>
  <Weights NTrees="1000" AnalysisType="1">
    <BinaryTree type="DecisionTree" boostWeight="1.0000000000000000e+00" itree="0">
      <Node pos="s" depth="0" NCoef="0" IVar="2" Cut="4.0209461212158203e+01" cType="1" res="-4.9992570281028748e-01" rms="8.6199371144175529e-03" purity="7.4308845796622336e-05" nType="0">
        <Node pos="l" depth="1" NCoef="0" IVar="-1" Cut="0.0000000000000000e+00" cType="1" res="-8.6406551301479340e-02" rms="1.5631897374987602e-02" purity="2.4441594723612070e-04" nType="-99"/>
        <Node pos="r" depth="1" NCoef="0" IVar="2" Cut="7.8504318237304688e+01" cType="1" res="-4.9996724724769592e-01" rms="5.7216975837945938e-03" purity="3.2738895242800936e-05" nType="0">
          <Node pos="l" depth="2" NCoef="0" IVar="-1" Cut="0.0000000000000000e+00" cType="1" res="-8.6144760251045227e-02" rms="7.3326593264937401e-03" purity="5.3770785598317161e-05" nType="-99"/>
          <Node pos="r" depth="2" NCoef="0" IVar="-1" Cut="0.0000000000000000e+00" cType="1" res="-8.7281502783298492e-02" rms="4.9622459337115288e-03" purity="2.4624494471936487e-05" nType="-99"/>
        </Node>
      </Node>
    </BinaryTree>
    <BinaryTree type="DecisionTree" boostWeight="1.0000000000000000e+00" itree="1">
      <Node pos="s" depth="0" NCoef="0" IVar="2" Cut="8.0418838500976562e+01" cType="1" res="-4.5660722255706787e-01" rms="8.6176618933677673e-03" purity="7.4230243626516312e-05" nType="0">
        <Node pos="l" depth="1" NCoef="0" IVar="-1" Cut="0.0000000000000000e+00" cType="1" res="-7.9413697123527527e-02" rms="1.1850950308144093e-02" purity="1.4044497220311314e-04" nType="-99"/>
        <Node pos="r" depth="1" NCoef="0" IVar="0" Cut="1.4628376770019531e+02" cType="0" res="-4.5644593238830566e-01" rms="4.8785358667373657e-03" purity="2.3800677809049375e-05" nType="0">
          <Node pos="l" depth="2" NCoef="0" IVar="-1" Cut="0.0000000000000000e+00" cType="1" res="-9.1697506606578827e-02" rms="7.6714637689292431e-03" purity="5.8854810049524531e-05" nType="-99"/>
          <Node pos="r" depth="2" NCoef="0" IVar="-1" Cut="0.0000000000000000e+00" cType="1" res="-7.9965129494667053e-02" rms="4.7610485926270485e-03" purity="2.2668096789857373e-05" nType="-99"/>
        </Node>
      </Node>
    </BinaryTree>
    <BinaryTree type="DecisionTree" boostWeight="1.0000000000000000e+00" itree="2">
      <Node pos="s" depth="0" NCoef="0" IVar="0" Cut="1.5239682006835938e+02" cType="1" res="-4.1729414463043213e-01" rms="8.6166858673095703e-03" purity="7.3506460466887802e-05" nType="0">
        <Node pos="l" depth="1" NCoef="0" IVar="-1" Cut="0.0000000000000000e+00" cType="1" res="-7.4315764009952545e-02" rms="8.5947522893548012e-03" purity="7.3666335083544254e-05" nType="-99"/>
        <Node pos="r" depth="1" NCoef="0" IVar="2" Cut="8.0445182800292969e+01" cType="1" res="-4.1301366686820984e-01" rms="8.5806520655751228e-03" purity="6.5847256337292492e-05" nType="0">
          <Node pos="l" depth="2" NCoef="0" IVar="-1" Cut="0.0000000000000000e+00" cType="1" res="-8.6670957505702972e-02" rms="9.0046385303139687e-03" purity="8.1076133938040584e-05" nType="-99"/>
          <Node pos="r" depth="2" NCoef="0" IVar="-1" Cut="0.0000000000000000e+00" cType="1" res="-8.5360780358314514e-02" rms="7.7913207933306694e-03" purity="6.0708363889716566e-05" nType="-99"/>
        </Node>
      </Node>
    </BinaryTree>
    <BinaryTree type="DecisionTree" boostWeight="1.0000000000000000e+00" itree="3">
      <Node pos="s" depth="0" NCoef="0" IVar="0" Cut="1.5239569091796875e+02" cType="1" res="-3.8154751062393188e-01" rms="8.7547106668353081e-03" purity="7.4541225330904126e-05" nType="0">
        <Node pos="l" depth="1" NCoef="0" IVar="-1" Cut="0.0000000000000000e+00" cType="1" res="-7.0058278739452362e-02" rms="8.6563006043434143e-03" purity="7.4745832534972578e-05" nType="-99"/>
        <Node pos="r" depth="1" NCoef="0" IVar="2" Cut="7.7354492187500000e+01" cType="1" res="-3.7223252654075623e-01" rms="8.4089189767837524e-03" purity="6.4673389715608209e-05" nType="0">
          <Node pos="l" depth="2" NCoef="0" IVar="-1" Cut="0.0000000000000000e+00" cType="1" res="-8.0485157668590546e-02" rms="8.7341843172907829e-03" purity="7.6286232797428966e-05" nType="-99"/>
          <Node pos="r" depth="2" NCoef="0" IVar="-1" Cut="0.0000000000000000e+00" cType="1" res="-7.9907760024070740e-02" rms="7.8285429626703262e-03" purity="6.0801929066656157e-05" nType="-99"/>
        </Node>
      </Node>
    </BinaryTree>
    <BinaryTree type="DecisionTree" boostWeight="1.0000000000000000e+00" itree="4">
      <Node pos="s" depth="0" NCoef="0" IVar="0" Cut="1.4628355407714844e+02" cType="1" res="-3.4898012876510620e-01" rms="8.8121769949793816e-03" purity="7.3645867814775556e-05" nType="0">
        <Node pos="l" depth="1" NCoef="0" IVar="-1" Cut="0.0000000000000000e+00" cType="1" res="-6.6523835062980652e-02" rms="8.5978610441088676e-03" purity="7.3841016273945570e-05" nType="-99"/>
        <Node pos="r" depth="1" NCoef="0" IVar="2" Cut="8.0435523986816406e+01" cType="1" res="-3.3718851208686829e-01" rms="9.1767720878124237e-03" purity="6.5848791564349085e-05" nType="0">
          <Node pos="l" depth="2" NCoef="0" IVar="-1" Cut="0.0000000000000000e+00" cType="1" res="-7.5442373752593994e-02" rms="9.3008810654282570e-03" purity="7.0927075284998864e-05" nType="-99"/>
          <Node pos="r" depth="2" NCoef="0" IVar="-1" Cut="0.0000000000000000e+00" cType="1" res="-7.4901230633258820e-02" rms="8.6977416649460793e-03" purity="6.4068837673403323e-05" nType="-99"/>
        </Node>
      </Node>
    </BinaryTree>
    <BinaryTree type="DecisionTree" boostWeight="1.0000000000000000e+00" itree="5">
      <Node pos="s" depth="0" NCoef="0" IVar="0" Cut="1.5239569091796875e+02" cType="1" res="-3.1930035352706909e-01" rms="8.9308526366949081e-03" purity="7.3824026912916452e-05" nType="0">
        <Node pos="l" depth="1" NCoef="0" IVar="-1" Cut="0.0000000000000000e+00" cType="1" res="-6.3653461635112762e-02" rms="8.6196726188063622e-03" purity="7.3979972512461245e-05" nType="-99"/>
        <Node pos="r" depth="1" NCoef="0" IVar="2" Cut="8.0445182800292969e+01" cType="0" res="-3.0299323797225952e-01" rms="8.3871595561504364e-03" purity="6.6341177443973720e-05" nType="0">
          <Node pos="l" depth="2" NCoef="0" IVar="-1" Cut="0.0000000000000000e+00" cType="1" res="-7.2154849767684937e-02" rms="8.1463297829031944e-03" purity="6.6355372837278992e-05" nType="-99"/>
          <Node pos="r" depth="2" NCoef="0" IVar="-1" Cut="0.0000000000000000e+00" cType="1" res="-7.2844497859477997e-02" rms="8.1425979733467102e-03" purity="6.6299253376200795e-05" nType="-99"/>
        </Node>
      </Node>
    </BinaryTree>
    <BinaryTree type="DecisionTree" boostWeight="1.0000000000000000e+00" itree="6">
      <Node pos="s" depth="0" NCoef="0" IVar="0" Cut="1.5239569091796875e+02" cType="1" res="-2.9221549630165100e-01" rms="8.9950580149888992e-03" purity="7.3144932684954256e-05" nType="0">
        <Node pos="l" depth="1" NCoef="0" IVar="-1" Cut="0.0000000000000000e+00" cType="1" res="-6.1211854219436646e-02" rms="8.5745612159371376e-03" purity="7.3242612415924668e-05" nType="-99"/>
        <Node pos="r" depth="1" NCoef="0" IVar="2" Cut="7.7354301452636719e+01" cType="1" res="-2.7333787083625793e-01" rms="8.4577882662415504e-03" purity="6.8458495661616325e-05" nType="0">
          <Node pos="l" depth="2" NCoef="0" IVar="-1" Cut="0.0000000000000000e+00" cType="1" res="-6.9669798016548157e-02" rms="9.5367133617401123e-03" purity="9.0951711172237992e-05" nType="-99"/>
          <Node pos="r" depth="2" NCoef="0" IVar="-1" Cut="0.0000000000000000e+00" cType="1" res="-6.9627627730369568e-02" rms="7.8439582139253616e-03" purity="6.1263628595042974e-05" nType="-99"/>
        </Node>
      </Node>
    </BinaryTree>
    <BinaryTree type="DecisionTree" boostWeight="1.0000000000000000e+00" itree="7">
      <Node pos="s" depth="0" NCoef="0" IVar="0" Cut="1.4628187561035156e+02" cType="1" res="-2.6748475432395935e-01" rms="9.1144302859902382e-03" purity="7.3621646151877940e-05" nType="0">
        <Node pos="l" depth="1" NCoef="0" IVar="-1" Cut="0.0000000000000000e+00" cType="1" res="-5.9171762317419052e-02" rms="8.5962340235710144e-03" purity="7.3839393735397607e-05" nType="-99"/>
        <Node pos="r" depth="1" NCoef="0" IVar="2" Cut="8.0504920959472656e+01" cType="1" res="-2.4899938702583313e-01" rms="9.8948534578084946e-03" purity="6.4958505390677601e-05" nType="0">
          <Node pos="l" depth="2" NCoef="0" IVar="-1" Cut="0.0000000000000000e+00" cType="1" res="-6.5820135176181793e-02" rms="1.0883887298405170e-02" purity="8.2995560660492629e-05" nType="-99"/>
          <Node pos="r" depth="2" NCoef="0" IVar="-1" Cut="0.0000000000000000e+00" cType="1" res="-6.5557062625885010e-02" rms="9.2464676126837730e-03" purity="5.8440193242859095e-05" nType="-99"/>
        </Node>
      </Node>
    </BinaryTree>
    <BinaryTree type="DecisionTree" boostWeight="1.0000000000000000e+00" itree="8">
      <Node pos="s" depth="0" NCoef="0" IVar="0" Cut="1.4893467712402344e+02" cType="1" res="-2.4488860368728638e-01" rms="9.1185793280601501e-03" purity="7.2792725404724479e-05" nType="0">
        <Node pos="l" depth="1" NCoef="0" IVar="-1" Cut="0.0000000000000000e+00" cType="1" res="-5.7382602244615555e-02" rms="8.5521601140499115e-03" purity="7.2944189014378935e-05" nType="-99"/>
        <Node pos="r" depth="1" NCoef="0" IVar="2" Cut="8.0445182800292969e+01" cType="1" res="-2.2427952289581299e-01" rms="9.1758314520120621e-03" purity="6.6201871959492564e-05" nType="0">
          <Node pos="l" depth="2" NCoef="0" IVar="-1" Cut="0.0000000000000000e+00" cType="1" res="-6.4766392111778259e-02" rms="9.7689554095268250e-03" purity="7.8101751569192857e-05" nType="-99"/>
          <Node pos="r" depth="2" NCoef="0" IVar="-1" Cut="0.0000000000000000e+00" cType="1" res="-6.4577333629131317e-02" rms="8.7760146707296371e-03" purity="6.1973114497959614e-05" nType="-99"/>
        </Node>
      </Node>
    </BinaryTree>
    <BinaryTree type="DecisionTree" boostWeight="1.0000000000000000e+00" itree="9">
      <Node pos="s" depth="0" NCoef="0" IVar="0" Cut="1.4628308105468750e+02" cType="1" res="-2.2423484921455383e-01" rms="9.2482669278979301e-03" purity="7.4269009928684682e-05" nType="0">
        <Node pos="l" depth="1" NCoef="0" IVar="-1" Cut="0.0000000000000000e+00" cType="1" res="-5.5852942168712616e-02" rms="8.6296871304512024e-03" purity="7.4432377004995942e-05" nType="-99"/>
        <Node pos="r" depth="1" NCoef="0" IVar="0" Cut="1.8523202514648438e+02" cType="0" res="-2.0372456312179565e-01" rms="9.8529998213052750e-03" purity="6.7728986323345453e-05" nType="0">
          <Node pos="l" depth="2" NCoef="0" IVar="-1" Cut="0.0000000000000000e+00" cType="1" res="-6.5836578607559204e-02" rms="9.1010890901088715e-03" purity="8.1099271483253688e-05" nType="-99"/>
          <Node pos="r" depth="2" NCoef="0" IVar="-1" Cut="0.0000000000000000e+00" cType="1" res="-6.1038639396429062e-02" rms="9.9938595667481422e-03" purity="6.0935617511859164e-05" nType="-99"/>
        </Node>
      </Node>
    </BinaryTree>
    <BinaryTree type="DecisionTree" boostWeight="1.0000000000000000e+00" itree="10">
      <Node pos="s" depth="0" NCoef="0" IVar="0" Cut="1.5239569091796875e+02" cType="1" res="-2.0534998178482056e-01" rms="9.2748459428548813e-03" purity="7.4054769356735051e-05" nType="0">
        <Node pos="l" depth="1" NCoef="0" IVar="-1" Cut="0.0000000000000000e+00" cType="1" res="-5.4519567638635635e-02" rms="8.6447605863213539e-03" purity="7.4254225182812661e-05" nType="-99"/>
        <Node pos="r" depth="1" NCoef="0" IVar="2" Cut="7.0451736450195312e+01" cType="1" res="-1.8190416693687439e-01" rms="8.1636914983391762e-03" purity="6.4484112954232842e-05" nType="0">
          <Node pos="l" depth="2" NCoef="0" IVar="-1" Cut="0.0000000000000000e+00" cType="1" res="-6.1910752207040787e-02" rms="9.1202361509203911e-03" purity="8.2694103184621781e-05" nType="-99"/>
          <Node pos="r" depth="2" NCoef="0" IVar="-1" Cut="0.0000000000000000e+00" cType="1" res="-6.1341375112533569e-02" rms="7.7674468047916889e-03" purity="5.9436562878545374e-05" nType="-99"/>
        </Node>
      </Node>
    </BinaryTree>
    <BinaryTree type="DecisionTree" boostWeight="1.0000000000000000e+00" itree="11">
      <Node pos="s" depth="0" NCoef="0" IVar="0" Cut="1.4628318786621094e+02" cType="1" res="-1.8809443712234497e-01" rms="9.2641217634081841e-03" purity="7.3856230301316828e-05" nType="0">
        <Node pos="l" depth="1" NCoef="0" IVar="-1" Cut="0.0000000000000000e+00" cType="1" res="-5.3323771804571152e-02" rms="8.6104907095432281e-03" purity="7.4114410381298512e-05" nType="-99"/>
        <Node pos="r" depth="1" NCoef="0" IVar="0" Cut="1.8523068237304688e+02" cType="0" res="-1.6673949360847473e-01" rms="9.7419898957014084e-03" purity="6.3331368437502533e-05" nType="0">
          <Node pos="l" depth="2" NCoef="0" IVar="-1" Cut="0.0000000000000000e+00" cType="1" res="-6.3235729932785034e-02" rms="9.6416268497705460e-03" purity="9.1816786152776331e-05" nType="-99"/>
          <Node pos="r" depth="2" NCoef="0" IVar="-1" Cut="0.0000000000000000e+00" cType="1" res="-5.8495834469795227e-02" rms="9.3783019110560417e-03" purity="4.9372316425433382e-05" nType="-99"/>
        </Node>
      </Node>
    </BinaryTree>
    <BinaryTree type="DecisionTree" boostWeight="1.0000000000000000e+00" itree="12">
      <Node pos="s" depth="0" NCoef="0" IVar="0" Cut="1.4628187561035156e+02" cType="1" res="-1.7228952050209045e-01" rms="9.3062603846192360e-03" purity="7.4208168371114880e-05" nType="0">
        <Node pos="l" depth="1" NCoef="0" IVar="-1" Cut="0.0000000000000000e+00" cType="1" res="-5.2294380962848663e-02" rms="8.6271930485963821e-03" purity="7.4407958891242743e-05" nType="-99"/>
        <Node pos="r" depth="1" NCoef="0" IVar="0" Cut="1.8522259521484375e+02" cType="0" res="-1.5074937045574188e-01" rms="9.8089799284934998e-03" purity="6.6247761424165219e-05" nType="0">
          <Node pos="l" depth="2" NCoef="0" IVar="-1" Cut="0.0000000000000000e+00" cType="1" res="-6.1931435018777847e-02" rms="9.6382563933730125e-03" purity="9.1971181973349303e-05" nType="-99"/>
          <Node pos="r" depth="2" NCoef="0" IVar="-1" Cut="0.0000000000000000e+00" cType="1" res="-5.7052738964557648e-02" rms="9.3179736286401749e-03" purity="5.3607356676366180e-05" nType="-99"/>
        </Node>
      </Node>
    </BinaryTree>
    <BinaryTree type="DecisionTree" boostWeight="1.0000000000000000e+00" itree="13">
      <Node pos="s" depth="0" NCoef="0" IVar="0" Cut="1.4893571472167969e+02" cType="1" res="-1.5784351527690887e-01" rms="9.3238027766346931e-03" purity="7.4664661951828748e-05" nType="0">
        <Node pos="l" depth="1" NCoef="0" IVar="-1" Cut="0.0000000000000000e+00" cType="1" res="-5.1435340195894241e-02" rms="8.6661875247955322e-03" purity="7.4892952397931367e-05" nType="-99"/>
        <Node pos="r" depth="1" NCoef="0" IVar="0" Cut="1.7705424499511719e+02" cType="0" res="-1.3521392643451691e-01" rms="8.9879073202610016e-03" purity="6.4675783505663276e-05" nType="0">
          <Node pos="l" depth="2" NCoef="0" IVar="-1" Cut="0.0000000000000000e+00" cType="1" res="-5.9999581426382065e-02" rms="9.0557560324668884e-03" purity="7.9384561104234308e-05" nType="-99"/>
          <Node pos="r" depth="2" NCoef="0" IVar="-1" Cut="0.0000000000000000e+00" cType="1" res="-5.6541334837675095e-02" rms="8.3716958761215210e-03" purity="5.2388353651622310e-05" nType="-99"/>
        </Node>
      </Node>
    </BinaryTree>
    <BinaryTree type="DecisionTree" boostWeight="1.0000000000000000e+00" itree="14">
      <Node pos="s" depth="0" NCoef="0" IVar="0" Cut="1.4410231018066406e+02" cType="1" res="-1.4460100233554840e-01" rms="9.2638572677969933e-03" purity="7.3614581197034568e-05" nType="0">
        <Node pos="l" depth="1" NCoef="0" IVar="-1" Cut="0.0000000000000000e+00" cType="1" res="-5.0622522830963135e-02" rms="8.5943257436156273e-03" purity="7.3851027991622686e-05" nType="-99"/>
        <Node pos="r" depth="1" NCoef="0" IVar="0" Cut="1.7124645996093750e+02" cType="0" res="-1.2456945329904556e-01" rms="1.0855031199753284e-02" purity="6.4832347561605275e-05" nType="0">
          <Node pos="l" depth="2" NCoef="0" IVar="-1" Cut="0.0000000000000000e+00" cType="1" res="-5.8703701943159103e-02" rms="9.0583134442567825e-03" purity="7.8767901868559420e-05" nType="-99"/>
          <Node pos="r" depth="2" NCoef="0" IVar="-1" Cut="0.0000000000000000e+00" cType="1" res="-5.5099491029977798e-02" rms="1.0711451061069965e-02" purity="5.3102412493899465e-05" nType="-99"/>
        </Node>
      </Node>
    </BinaryTree>
    <BinaryTree type="DecisionTree" boostWeight="1.0000000000000000e+00" itree="15">
      <Node pos="s" depth="0" NCoef="0" IVar="0" Cut="1.4893467712402344e+02" cType="1" res="-1.3249070942401886e-01" rms="9.2402491718530655e-03" purity="7.3690433055162430e-05" nType="0">
        <Node pos="l" depth="1" NCoef="0" IVar="-1" Cut="0.0000000000000000e+00" cType="1" res="-4.9894679337739944e-02" rms="8.5996789857745171e-03" purity="7.3770410381257534e-05" nType="-99"/>
        <Node pos="r" depth="1" NCoef="0" IVar="0" Cut="1.7705241394042969e+02" cType="0" res="-1.1052352190017700e-01" rms="9.2261144891381264e-03" purity="7.0236776082310826e-05" nType="0">
          <Node pos="l" depth="2" NCoef="0" IVar="-1" Cut="0.0000000000000000e+00" cType="1" res="-5.8154515922069550e-02" rms="9.0945335105061531e-03" purity="8.0884630733635277e-05" nType="-99"/>
          <Node pos="r" depth="2" NCoef="0" IVar="-1" Cut="0.0000000000000000e+00" cType="1" res="-5.5125989019870758e-02" rms="8.6574126034975052e-03" purity="6.1561935581266880e-05" nType="-99"/>
        </Node>
      </Node>
    </BinaryTree>
    <BinaryTree type="DecisionTree" boostWeight="1.0000000000000000e+00" itree="16">
      <Node pos="s" depth="0" NCoef="0" IVar="0" Cut="1.4628308105468750e+02" cType="1" res="-1.2141161412000656e-01" rms="9.1943759471178055e-03" purity="7.3491217335686088e-05" nType="0">
        <Node pos="l" depth="1" NCoef="0" IVar="-1" Cut="0.0000000000000000e+00" cType="1" res="-4.9261361360549927e-02" rms="8.5870586335659027e-03" purity="7.3731200245674700e-05" nType="-99"/>
        <Node pos="r" depth="1" NCoef="0" IVar="0" Cut="1.8523231506347656e+02" cType="0" res="-1.0088917613029480e-01" rms="9.4301877543330193e-03" purity="6.3802675867918879e-05" nType="0">
          <Node pos="l" depth="2" NCoef="0" IVar="-1" Cut="0.0000000000000000e+00" cType="1" res="-5.8452647179365158e-02" rms="8.7564485147595406e-03" purity="7.6213626016397029e-05" nType="-99"/>
          <Node pos="r" depth="2" NCoef="0" IVar="-1" Cut="0.0000000000000000e+00" cType="1" res="-5.4009892046451569e-02" rms="8.9638754725456238e-03" purity="5.7558016123948619e-05" nType="-99"/>
        </Node>
      </Node>
    </BinaryTree>
    <BinaryTree type="DecisionTree" boostWeight="1.0000000000000000e+00" itree="17">
      <Node pos="s" depth="0" NCoef="0" IVar="0" Cut="1.4628187561035156e+02" cType="1" res="-1.1125394701957703e-01" rms="9.1750854626297951e-03" purity="7.3638482717797160e-05" nType="0">
        <Node pos="l" depth="1" NCoef="0" IVar="-1" Cut="0.0000000000000000e+00" cType="1" res="-4.8774123191833496e-02" rms="8.5926363244652748e-03" purity="7.3829847679007798e-05" nType="-99"/>
        <Node pos="r" depth="1" NCoef="0" IVar="0" Cut="1.8523590087890625e+02" cType="0" res="-9.1250672936439514e-02" rms="9.4240624457597733e-03" purity="6.5969354182016104e-05" nType="0">
          <Node pos="l" depth="2" NCoef="0" IVar="-1" Cut="0.0000000000000000e+00" cType="1" res="-5.7716682553291321e-02" rms="8.9409509673714638e-03" purity="7.9562683822587132e-05" nType="-99"/>
          <Node pos="r" depth="2" NCoef="0" IVar="-1" Cut="0.0000000000000000e+00" cType="1" res="-5.3629990667104721e-02" rms="8.8296523317694664e-03" purity="5.9161779063288122e-05" nType="-99"/>
        </Node>
      </Node>
    </BinaryTree>
    <BinaryTree type="DecisionTree" boostWeight="1.0000000000000000e+00" itree="18">
      <Node pos="s" depth="0" NCoef="0" IVar="0" Cut="1.4628308105468750e+02" cType="1" res="-1.0194205492734909e-01" rms="9.1334320604801178e-03" purity="7.3529612564016134e-05" nType="0">
        <Node pos="l" depth="1" NCoef="0" IVar="-1" Cut="0.0000000000000000e+00" cType="1" res="-4.8221312463283539e-02" rms="8.5866106674075127e-03" purity="7.3728457209654152e-05" nType="-99"/>
        <Node pos="r" depth="1" NCoef="0" IVar="0" Cut="1.8522259521484375e+02" cType="0" res="-8.2572959363460541e-02" rms="9.3227270990610123e-03" purity="6.5566637204028666e-05" nType="0">
          <Node pos="l" depth="2" NCoef="0" IVar="-1" Cut="0.0000000000000000e+00" cType="1" res="-5.6946881115436554e-02" rms="9.0725971385836601e-03" purity="8.2014317740686238e-05" nType="-99"/>
          <Node pos="r" depth="2" NCoef="0" IVar="-1" Cut="0.0000000000000000e+00" cType="1" res="-5.2978567779064178e-02" rms="8.5676880553364754e-03" purity="5.7270019169664010e-05" nType="-99"/>
        </Node>
      </Node>
    </BinaryTree>
    <BinaryTree type="DecisionTree" boostWeight="1.0000000000000000e+00" itree="19">
      <Node pos="s" depth="0" NCoef="0" IVar="0" Cut="1.5239765930175781e+02" cType="1" res="-9.3418307602405548e-02" rms="9.1184480115771294e-03" purity="7.3908719059545547e-05" nType="0">
        <Node pos="l" depth="1" NCoef="0" IVar="-1" Cut="0.0000000000000000e+00" cType="1" res="-4.7730445861816406e-02" rms="8.6384033784270287e-03" purity="7.4166695412714034e-05" nType="-99"/>
        <Node pos="r" depth="1" NCoef="0" IVar="0" Cut="1.8121717834472656e+02" cType="0" res="-7.3087424039840698e-02" rms="8.2139205187559128e-03" purity="6.1611252021975815e-05" nType="0">
          <Node pos="l" depth="2" NCoef="0" IVar="-1" Cut="0.0000000000000000e+00" cType="1" res="-5.5980123579502106e-02" rms="8.9155603200197220e-03" purity="7.8050798038020730e-05" nType="-99"/>
          <Node pos="r" depth="2" NCoef="0" IVar="-1" Cut="0.0000000000000000e+00" cType="1" res="-5.2576411515474319e-02" rms="7.0222187787294388e-03" purity="4.8811765736900270e-05" nType="-99"/>
        </Node>
      </Node>
    </BinaryTree>
    <BinaryTree type="DecisionTree" boostWeight="1.0000000000000000e+00" itree="20">
      <Node pos="s" depth="0" NCoef="0" IVar="0" Cut="1.4628376770019531e+02" cType="1" res="-8.5624322295188904e-02" rms="9.1180540621280670e-03" purity="7.4740266427397728e-05" nType="0">
        <Node pos="l" depth="1" NCoef="0" IVar="-1" Cut="0.0000000000000000e+00" cType="1" res="-4.7371692955493927e-02" rms="8.6585376411676407e-03" purity="7.4973075243178755e-05" nType="-99"/>
        <Node pos="r" depth="1" NCoef="0" IVar="0" Cut="1.8523432922363281e+02" cType="0" res="-6.7757904529571533e-02" rms="9.2065390199422836e-03" purity="6.5370390075258911e-05" nType="0">
          <Node pos="l" depth="2" NCoef="0" IVar="-1" Cut="0.0000000000000000e+00" cType="1" res="-5.6045908480882645e-02" rms="9.4193359836935997e-03" purity="8.8528671767562628e-05" nType="-99"/>
          <Node pos="r" depth="2" NCoef="0" IVar="-1" Cut="0.0000000000000000e+00" cType="1" res="-5.2681397646665573e-02" rms="8.2187429070472717e-03" purity="5.3932941227685660e-05" nType="-99"/>
        </Node>
      </Node>
    </BinaryTree>
    <BinaryTree type="DecisionTree" boostWeight="1.0000000000000000e+00" itree="21">
      <Node pos="s" depth="0" NCoef="0" IVar="0" Cut="1.4628187561035156e+02" cType="1" res="-7.8463792800903320e-02" rms="9.0626776218414307e-03" purity="7.4261253757867962e-05" nType="0">
        <Node pos="l" depth="1" NCoef="0" IVar="-1" Cut="0.0000000000000000e+00" cType="1" res="-4.6959836035966873e-02" rms="8.6307628080248833e-03" purity="7.4494055297691375e-05" nType="-99"/>
        <Node pos="r" depth="1" NCoef="0" IVar="0" Cut="1.8522259521484375e+02" cType="0" res="-6.1201743781566620e-02" rms="9.0251034125685692e-03" purity="6.4977000874932855e-05" nType="0">
          <Node pos="l" depth="2" NCoef="0" IVar="-1" Cut="0.0000000000000000e+00" cType="1" res="-5.5720947682857513e-02" rms="8.9133949950337410e-03" purity="7.9279307101387531e-05" nType="-99"/>
          <Node pos="r" depth="2" NCoef="0" IVar="-1" Cut="0.0000000000000000e+00" cType="1" res="-5.2346739917993546e-02" rms="8.2916077226400375e-03" purity="5.7878944062395021e-05" nType="-99"/>
        </Node>
      </Node>
    </BinaryTree>
    <BinaryTree type="DecisionTree" boostWeight="1.0000000000000000e+00" itree="22">
      <Node pos="s" depth="0" NCoef="0" IVar="0" Cut="1.5239569091796875e+02" cType="1" res="-7.1912162005901337e-02" rms="9.0746702626347542e-03" purity="7.5093390478286892e-05" nType="0">
        <Node pos="l" depth="1" NCoef="0" IVar="-1" Cut="0.0000000000000000e+00" cType="1" res="-4.6646926552057266e-02" rms="8.7038679048418999e-03" purity="7.5369338446762413e-05" nType="-99"/>
        <Node pos="r" depth="1" NCoef="0" IVar="0" Cut="1.8121536254882812e+02" cType="0" res="-5.3973212838172913e-02" rms="8.2048317417502403e-03" purity="6.1969141825102270e-05" nType="0">
          <Node pos="l" depth="2" NCoef="0" IVar="-1" Cut="0.0000000000000000e+00" cType="1" res="-5.5042549967765808e-02" rms="8.8456543162465096e-03" purity="7.7021584729664028e-05" nType="-99"/>
          <Node pos="r" depth="2" NCoef="0" IVar="-1" Cut="0.0000000000000000e+00" cType="1" res="-5.1192633807659149e-02" rms="7.0935026742517948e-03" purity="5.0019029004033655e-05" nType="-99"/>
        </Node>
      </Node>
    </BinaryTree>
    <BinaryTree type="DecisionTree" boostWeight="1.0000000000000000e+00" itree="23">
      <Node pos="s" depth="0" NCoef="0" IVar="0" Cut="1.4628318786621094e+02" cType="1" res="-6.5921604633331299e-02" rms="8.9139137417078018e-03" purity="7.3006594902835786e-05" nType="0">
        <Node pos="l" depth="1" NCoef="0" IVar="-1" Cut="0.0000000000000000e+00" cType="1" res="-4.6282727271318436e-02" rms="8.5513750091195107e-03" purity="7.3131486715283245e-05" nType="-99"/>
        <Node pos="r" depth="1" NCoef="0" IVar="0" Cut="1.8523068237304688e+02" cType="0" res="-5.0213154405355453e-02" rms="9.0794302523136139e-03" purity="6.7960478190798312e-05" nType="0">
          <Node pos="l" depth="2" NCoef="0" IVar="-1" Cut="0.0000000000000000e+00" cType="1" res="-5.5221095681190491e-02" rms="9.4053028151392937e-03" purity="8.8357475760858506e-05" nType="-99"/>
          <Node pos="r" depth="2" NCoef="0" IVar="-1" Cut="0.0000000000000000e+00" cType="1" res="-5.1327437162399292e-02" rms="8.1824576482176781e-03" purity="5.7911169278668240e-05" nType="-99"/>
        </Node>
      </Node>
    </BinaryTree>
    <BinaryTree type="DecisionTree" boostWeight="1.0000000000000000e+00" itree="24">
      <Node pos="s" depth="0" NCoef="0" IVar="0" Cut="1.4893467712402344e+02" cType="1" res="-6.0419190675020218e-02" rms="8.9305713772773743e-03" purity="7.3768460424616933e-05" nType="0">
        <Node pos="l" depth="1" NCoef="0" IVar="-1" Cut="0.0000000000000000e+00" cType="1" res="-4.6019315719604492e-02" rms="8.6086792871356010e-03" purity="7.3996205173898488e-05" nType="-99"/>
        <Node pos="r" depth="1" NCoef="0" IVar="0" Cut="1.7705241394042969e+02" cType="0" res="-4.4785846024751663e-02" rms="8.5229333490133286e-03" purity="6.3967410824261606e-05" nType="0">
          <Node pos="l" depth="2" NCoef="0" IVar="-1" Cut="0.0000000000000000e+00" cType="1" res="-5.4272241890430450e-02" rms="8.9491633698344231e-03" purity="7.7998200140427798e-05" nType="-99"/>
          <Node pos="r" depth="2" NCoef="0" IVar="-1" Cut="0.0000000000000000e+00" cType="1" res="-5.0645235925912857e-02" rms="7.4967965483665466e-03" purity="5.2347604651004076e-05" nType="-99"/>
        </Node>
      </Node>
    </BinaryTree>
    <BinaryTree type="DecisionTree" boostWeight="1.0000000000000000e+00" itree="25">
      <Node pos="s" depth="0" NCoef="0" IVar="0" Cut="1.4628187561035156e+02" cType="1" res="-5.5389817804098129e-02" rms="8.9153181761503220e-03" purity="7.4160736403428018e-05" nType="0">
        <Node pos="l" depth="1" NCoef="0" IVar="-1" Cut="0.0000000000000000e+00" cType="1" res="-4.5817285776138306e-02" rms="8.6158765479922295e-03" purity="7.4240371759515256e-05" nType="-99"/>
        <Node pos="r" depth="1" NCoef="0" IVar="0" Cut="1.8523068237304688e+02" cType="0" res="-4.1152920573949814e-02" rms="9.1108707711100578e-03" purity="7.0955946284811944e-05" nType="0">
          <Node pos="l" depth="2" NCoef="0" IVar="-1" Cut="0.0000000000000000e+00" cType="1" res="-5.4893203079700470e-02" rms="9.6223503351211548e-03" purity="9.2528658569790423e-05" nType="-99"/>
          <Node pos="r" depth="2" NCoef="0" IVar="-1" Cut="0.0000000000000000e+00" cType="1" res="-5.0687622278928757e-02" rms="8.2084229215979576e-03" purity="6.0216414567548782e-05" nType="-99"/>
        </Node>
      </Node>
    </BinaryTree>
    <BinaryTree type="DecisionTree" boostWeight="1.0000000000000000e+00" itree="26">
      <Node pos="s" depth="0" NCoef="0" IVar="0" Cut="1.5239692687988281e+02" cType="1" res="-5.0767358392477036e-02" rms="8.8808257132768631e-03" purity="7.4037066951859742e-05" nType="0">
        <Node pos="l" depth="1" NCoef="0" IVar="-1" Cut="0.0000000000000000e+00" cType="1" res="-4.5587051659822464e-02" rms="8.6301136761903763e-03" purity="7.4225601565558463e-05" nType="-99"/>
        <Node pos="r" depth="1" NCoef="0" IVar="0" Cut="1.8121536254882812e+02" cType="0" res="-3.6117415875196457e-02" rms="8.3289137110114098e-03" purity="6.5035237639676780e-05" nType="0">
          <Node pos="l" depth="2" NCoef="0" IVar="-1" Cut="0.0000000000000000e+00" cType="1" res="-5.4142627865076065e-02" rms="9.4209872186183929e-03" purity="8.7950880697462708e-05" nType="-99"/>
          <Node pos="r" depth="2" NCoef="0" IVar="-1" Cut="0.0000000000000000e+00" cType="1" res="-5.0664588809013367e-02" rms="6.8953167647123337e-03" purity="4.7362973418785259e-05" nType="-99"/>
        </Node>
      </Node>
    </BinaryTree>
    <BinaryTree type="DecisionTree" boostWeight="1.0000000000000000e+00" itree="27">
      <Node pos="s" depth="0" NCoef="0" IVar="0" Cut="1.5239682006835938e+02" cType="1" res="-4.6528391540050507e-02" rms="8.9014479890465736e-03" purity="7.4816409323830158e-05" nType="0">
        <Node pos="l" depth="1" NCoef="0" IVar="-1" Cut="0.0000000000000000e+00" cType="1" res="-4.5392904430627823e-02" rms="8.6752697825431824e-03" purity="7.5047588325105608e-05" nType="-99"/>
        <Node pos="r" depth="1" NCoef="0" IVar="0" Cut="1.8121821594238281e+02" cType="0" res="-3.2620865851640701e-02" rms="8.2423221319913864e-03" purity="6.3986015447881073e-05" nType="0">
          <Node pos="l" depth="2" NCoef="0" IVar="-1" Cut="0.0000000000000000e+00" cType="1" res="-5.3760338574647903e-02" rms="8.8250041007995605e-03" purity="7.7225660788826644e-05" nType="-99"/>
          <Node pos="r" depth="2" NCoef="0" IVar="-1" Cut="0.0000000000000000e+00" cType="1" res="-4.9855023622512817e-02" rms="7.3147616349160671e-03" purity="5.3360941819846630e-05" nType="-99"/>
        </Node>
      </Node>
    </BinaryTree>
    <BinaryTree type="DecisionTree" boostWeight="1.0000000000000000e+00" itree="28">
      <Node pos="s" depth="0" NCoef="0" IVar="0" Cut="1.4628308105468750e+02" cType="1" res="-4.2658027261495590e-02" rms="8.8760247454047203e-03" purity="7.4958792538382113e-05" nType="0">
        <Node pos="l" depth="1" NCoef="0" IVar="-1" Cut="0.0000000000000000e+00" cType="1" res="-4.5155283063650131e-02" rms="8.6632976308465004e-03" purity="7.5060874223709106e-05" nType="-99"/>
        <Node pos="r" depth="1" NCoef="0" IVar="0" Cut="1.8522259521484375e+02" cType="0" res="-3.0566442757844925e-02" rms="8.9297248050570488e-03" purity="7.0833812060300261e-05" nType="0">
          <Node pos="l" depth="2" NCoef="0" IVar="-1" Cut="0.0000000000000000e+00" cType="1" res="-5.3766425698995590e-02" rms="9.0478612110018730e-03" purity="8.1829566624946892e-05" nType="-99"/>
          <Node pos="r" depth="2" NCoef="0" IVar="-1" Cut="0.0000000000000000e+00" cType="1" res="-5.0363756716251373e-02" rms="8.3902757614850998e-03" purity="6.5350322984158993e-05" nType="-99"/>
        </Node>
      </Node>
    </BinaryTree>
    <BinaryTree type="DecisionTree" boostWeight="1.0000000000000000e+00" itree="29">
      <Node pos="s" depth="0" NCoef="0" IVar="0" Cut="1.5239569091796875e+02" cType="1" res="-3.9100326597690582e-02" rms="8.8095990940928459e-03" purity="7.4140982178505510e-05" nType="0">
        <Node pos="l" depth="1" NCoef="0" IVar="-1" Cut="0.0000000000000000e+00" cType="1" res="-4.4986858963966370e-02" rms="8.6313514038920403e-03" purity="7.4324911111034453e-05" nType="-99"/>
        <Node pos="r" depth="1" NCoef="0" IVar="0" Cut="1.8121417236328125e+02" cType="0" res="-2.6727516204118729e-02" rms="8.2890549674630165e-03" purity="6.5419422753620893e-05" nType="0">
          <Node pos="l" depth="2" NCoef="0" IVar="-1" Cut="0.0000000000000000e+00" cType="1" res="-5.3764387965202332e-02" rms="8.9848162606358528e-03" purity="8.0225385318044573e-05" nType="-99"/>
          <Node pos="r" depth="2" NCoef="0" IVar="-1" Cut="0.0000000000000000e+00" cType="1" res="-5.0135824829339981e-02" rms="7.3583195917308331e-03" purity="5.4046162404119968e-05" nType="-99"/>
        </Node>
      </Node>
    </BinaryTree>
    <BinaryTree type="DecisionTree" boostWeight="1.0000000000000000e+00" itree="30">
      <Node pos="s" depth="0" NCoef="0" IVar="0" Cut="1.4893467712402344e+02" cType="1" res="-3.5844504833221436e-02" rms="8.8249100372195244e-03" purity="7.4791409133467823e-05" nType="0">
        <Node pos="l" depth="1" NCoef="0" IVar="-1" Cut="0.0000000000000000e+00" cType="1" res="-4.4839102774858475e-02" rms="8.6629232391715050e-03" purity="7.4996460170950741e-05" nType="-99"/>
        <Node pos="r" depth="1" NCoef="0" IVar="0" Cut="1.7705241394042969e+02" cType="0" res="-2.4594407528638840e-02" rms="8.4225572645664215e-03" purity="6.5920306951738894e-05" nType="0">
          <Node pos="l" depth="2" NCoef="0" IVar="-1" Cut="0.0000000000000000e+00" cType="1" res="-5.3136974573135376e-02" rms="9.0351635590195656e-03" purity="8.0543832154944539e-05" nType="-99"/>
          <Node pos="r" depth="2" NCoef="0" IVar="-1" Cut="0.0000000000000000e+00" cType="1" res="-4.9639470875263214e-02" rms="7.4642891995608807e-03" purity="5.3751169616589323e-05" nType="-99"/>
        </Node>
      </Node>
    </BinaryTree>
    <BinaryTree type="DecisionTree" boostWeight="1.0000000000000000e+00" itree="31">
      <Node pos="s" depth="0" NCoef="0" IVar="0" Cut="1.4628318786621094e+02" cType="1" res="-3.2861042767763138e-02" rms="8.6721871048212051e-03" purity="7.2470538725610822e-05" nType="0">
        <Node pos="l" depth="1" NCoef="0" IVar="-1" Cut="0.0000000000000000e+00" cType="1" res="-4.4680070132017136e-02" rms="8.5268132388591766e-03" purity="7.2714312409516424e-05" nType="-99"/>
        <Node pos="r" depth="1" NCoef="0" IVar="0" Cut="1.8523068237304688e+02" cType="0" res="-2.2761162370443344e-02" rms="8.3367545157670975e-03" purity="6.2829625676386058e-05" nType="0">
          <Node pos="l" depth="2" NCoef="0" IVar="-1" Cut="0.0000000000000000e+00" cType="1" res="-5.2835695445537567e-02" rms="9.2174541205167770e-03" purity="8.4948645962867886e-05" nType="-99"/>
          <Node pos="r" depth="2" NCoef="0" IVar="-1" Cut="0.0000000000000000e+00" cType="1" res="-4.9421440809965134e-02" rms="7.4673048220574856e-03" purity="5.1948536565760151e-05" nType="-99"/>
        </Node>
      </Node>
    </BinaryTree>
    <BinaryTree type="DecisionTree" boostWeight="1.0000000000000000e+00" itree="32">
      <Node pos="s" depth="0" NCoef="0" IVar="0" Cut="1.4628355407714844e+02" cType="1" res="-3.0125118792057037e-02" rms="8.6810933426022530e-03" purity="7.2937851655296981e-05" nType="0">
        <Node pos="l" depth="1" NCoef="0" IVar="-1" Cut="0.0000000000000000e+00" cType="1" res="-4.4548269361257553e-02" rms="8.5537182167172432e-03" purity="7.3173920100089163e-05" nType="-99"/>
        <Node pos="r" depth="1" NCoef="0" IVar="0" Cut="1.8523068237304688e+02" cType="0" res="-2.0577667281031609e-02" rms="8.3195194602012634e-03" purity="6.3549821788910776e-05" nType="0">
          <Node pos="l" depth="2" NCoef="0" IVar="-1" Cut="0.0000000000000000e+00" cType="1" res="-5.2487973123788834e-02" rms="9.1981124132871628e-03" purity="8.4594081272371113e-05" nType="-99"/>
          <Node pos="r" depth="2" NCoef="0" IVar="-1" Cut="0.0000000000000000e+00" cType="1" res="-4.9607455730438232e-02" rms="7.4776769615709782e-03" purity="5.2842755394522101e-05" nType="-99"/>
        </Node>
      </Node>
    </BinaryTree>
    <BinaryTree type="DecisionTree" boostWeight="1.0000000000000000e+00" itree="33">
      <Node pos="s" depth="0" NCoef="0" IVar="0" Cut="1.4893467712402344e+02" cType="1" res="-2.7617756277322769e-02" rms="8.7265428155660629e-03" purity="7.4026764195878059e-05" nType="0">
        <Node pos="l" depth="1" NCoef="0" IVar="-1" Cut="0.0000000000000000e+00" cType="1" res="-4.4430498033761978e-02" rms="8.6169708520174026e-03" purity="7.4220122769474983e-05" nType="-99"/>
        <Node pos="r" depth="1" NCoef="0" IVar="0" Cut="1.7705424499511719e+02" cType="0" res="-1.8248006701469421e-02" rms="8.3026774227619171e-03" purity="6.5623062255326658e-05" nType="0">
          <Node pos="l" depth="2" NCoef="0" IVar="-1" Cut="0.0000000000000000e+00" cType="1" res="-5.2443649619817734e-02" rms="8.7580746039748192e-03" purity="7.5933596235699952e-05" nType="-99"/>
          <Node pos="r" depth="2" NCoef="0" IVar="-1" Cut="0.0000000000000000e+00" cType="1" res="-4.9208533018827438e-02" rms="7.6167276129126549e-03" purity="5.6886852689785883e-05" nType="-99"/>
        </Node>
      </Node>
    </BinaryTree>
    <BinaryTree type="DecisionTree" boostWeight="1.0000000000000000e+00" itree="34">
      <Node pos="s" depth="0" NCoef="0" IVar="0" Cut="1.4628187561035156e+02" cType="1" res="-2.5320881977677345e-02" rms="8.7347617372870445e-03" purity="7.4447583756409585e-05" nType="0">
        <Node pos="l" depth="1" NCoef="0" IVar="-1" Cut="0.0000000000000000e+00" cType="1" res="-4.4306326657533646e-02" rms="8.6400257423520088e-03" purity="7.4658135417848825e-05" nType="-99"/>
        <Node pos="r" depth="1" NCoef="0" IVar="0" Cut="1.8523068237304688e+02" cType="0" res="-1.6878236085176468e-02" rms="8.3756409585475922e-03" purity="6.5892141719814390e-05" nType="0">
          <Node pos="l" depth="2" NCoef="0" IVar="-1" Cut="0.0000000000000000e+00" cType="1" res="-5.3213391453027725e-02" rms="9.3004889786243439e-03" purity="8.6495827417820692e-05" nType="-99"/>
          <Node pos="r" depth="2" NCoef="0" IVar="-1" Cut="0.0000000000000000e+00" cType="1" res="-4.9230124801397324e-02" rms="7.5986748561263084e-03" purity="5.5456632253481075e-05" nType="-99"/>
        </Node>
      </Node>
    </BinaryTree>
    <BinaryTree type="DecisionTree" boostWeight="1.0000000000000000e+00" itree="35">
      <Node pos="s" depth="0" NCoef="0" IVar="0" Cut="1.4893467712402344e+02" cType="1" res="-2.3211618885397911e-02" rms="8.7112551555037498e-03" purity="7.4242605478502810e-05" nType="0">
        <Node pos="l" depth="1" NCoef="0" IVar="-1" Cut="0.0000000000000000e+00" cType="1" res="-4.4167786836624146e-02" rms="8.6299749091267586e-03" purity="7.4453142588026822e-05" nType="-99"/>
        <Node pos="r" depth="1" NCoef="0" IVar="0" Cut="1.7705241394042969e+02" cType="0" res="-1.4955082908272743e-02" rms="8.2219718024134636e-03" purity="6.5064079535659403e-05" nType="0">
          <Node pos="l" depth="2" NCoef="0" IVar="-1" Cut="0.0000000000000000e+00" cType="1" res="-5.2416943013668060e-02" rms="8.7557230144739151e-03" purity="7.6095566328149289e-05" nType="-99"/>
          <Node pos="r" depth="2" NCoef="0" IVar="-1" Cut="0.0000000000000000e+00" cType="1" res="-4.9158517271280289e-02" rms="7.5247874483466148e-03" purity="5.5848526244517416e-05" nType="-99"/>
        </Node>
      </Node>
    </BinaryTree>
    <BinaryTree type="DecisionTree" boostWeight="1.0000000000000000e+00" itree="36">
      <Node pos="s" depth="0" NCoef="0" IVar="0" Cut="1.4628308105468750e+02" cType="1" res="-2.1277485415339470e-02" rms="8.7157133966684341e-03" purity="7.4492709245532751e-05" nType="0">
        <Node pos="l" depth="1" NCoef="0" IVar="-1" Cut="0.0000000000000000e+00" cType="1" res="-4.4089391827583313e-02" rms="8.6463261395692825e-03" purity="7.4766867328435183e-05" nType="-99"/>
        <Node pos="r" depth="1" NCoef="0" IVar="0" Cut="1.8523231506347656e+02" cType="0" res="-1.3850693590939045e-02" rms="8.1812031567096710e-03" purity="6.3677915022708476e-05" nType="0">
          <Node pos="l" depth="2" NCoef="0" IVar="-1" Cut="0.0000000000000000e+00" cType="1" res="-5.2341036498546600e-02" rms="9.1003878042101860e-03" purity="8.2817241491284221e-05" nType="-99"/>
          <Node pos="r" depth="2" NCoef="0" IVar="-1" Cut="0.0000000000000000e+00" cType="1" res="-4.9189656972885132e-02" rms="7.4659227393567562e-03" purity="5.4028969316277653e-05" nType="-99"/>
        </Node>
      </Node>
    </BinaryTree>
    <BinaryTree type="DecisionTree" boostWeight="1.0000000000000000e+00" itree="37">
      <Node pos="s" depth="0" NCoef="0" IVar="0" Cut="1.4628187561035156e+02" cType="1" res="-1.9510002806782722e-02" rms="8.6624342948198318e-03" purity="7.3764793341979384e-05" nType="0">
        <Node pos="l" depth="1" NCoef="0" IVar="-1" Cut="0.0000000000000000e+00" cType="1" res="-4.4009298086166382e-02" rms="8.5964566096663475e-03" purity="7.3906718171201646e-05" nType="-99"/>
        <Node pos="r" depth="1" NCoef="0" IVar="0" Cut="1.8522259521484375e+02" cType="0" res="-1.2552370317280293e-02" rms="8.4163723513484001e-03" purity="6.8103829107712954e-05" nType="0">
          <Node pos="l" depth="2" NCoef="0" IVar="-1" Cut="0.0000000000000000e+00" cType="1" res="-5.2901353687047958e-02" rms="9.5622902736067772e-03" purity="9.1441041149664670e-05" nType="-99"/>
          <Node pos="r" depth="2" NCoef="0" IVar="-1" Cut="0.0000000000000000e+00" cType="1" res="-4.9021217972040176e-02" rms="7.6241823844611645e-03" purity="5.6755929108476266e-05" nType="-99"/>
        </Node>
      </Node>
    </BinaryTree>
    <BinaryTree type="DecisionTree" boostWeight="1.0000000000000000e+00" itree="38">
      <Node pos="s" depth="0" NCoef="0" IVar="0" Cut="1.4628187561035156e+02" cType="1" res="-1.7887042835354805e-02" rms="8.6413323879241943e-03" purity="7.3560288001317531e-05" nType="0">
        <Node pos="l" depth="1" NCoef="0" IVar="-1" Cut="0.0000000000000000e+00" cType="1" res="-4.3949339538812637e-02" rms="8.5921762511134148e-03" purity="7.3833019996527582e-05" nType="-99"/>
        <Node pos="r" depth="1" NCoef="0" IVar="0" Cut="1.8523202514648438e+02" cType="0" res="-1.1369012296199799e-02" rms="8.0643743276596069e-03" purity="6.2643630371894687e-05" nType="0">
          <Node pos="l" depth="2" NCoef="0" IVar="-1" Cut="0.0000000000000000e+00" cType="1" res="-5.2599687129259109e-02" rms="9.1601489111781120e-03" purity="8.3910403191111982e-05" nType="-99"/>
          <Node pos="r" depth="2" NCoef="0" IVar="-1" Cut="0.0000000000000000e+00" cType="1" res="-4.9011331051588058e-02" rms="7.2956667281687260e-03" purity="5.2066527132410556e-05" nType="-99"/>
        </Node>
      </Node>
    </BinaryTree>
    <BinaryTree type="DecisionTree" boostWeight="1.0000000000000000e+00" itree="39">
      <Node pos="s" depth="0" NCoef="0" IVar="0" Cut="1.4628187561035156e+02" cType="1" res="-1.6398489475250244e-02" rms="8.7080020457506180e-03" purity="7.4868621595669538e-05" nType="0">
        <Node pos="l" depth="1" NCoef="0" IVar="-1" Cut="0.0000000000000000e+00" cType="1" res="-4.3845970183610916e-02" rms="8.6670396849513054e-03" purity="7.5125230068806559e-05" nType="-99"/>
        <Node pos="r" depth="1" NCoef="0" IVar="0" Cut="1.8522259521484375e+02" cType="0" res="-1.0285652242600918e-02" rms="8.1522352993488312e-03" purity="6.4442712755408138e-05" nType="0">
          <Node pos="l" depth="2" NCoef="0" IVar="-1" Cut="0.0000000000000000e+00" cType="1" res="-5.2104838192462921e-02" rms="9.1045806184411049e-03" purity="8.2896927779074758e-05" nType="-99"/>
          <Node pos="r" depth="2" NCoef="0" IVar="-1" Cut="0.0000000000000000e+00" cType="1" res="-4.8992507159709930e-02" rms="7.5011784210801125e-03" purity="5.5322143452940509e-05" nType="-99"/>
        </Node>
      </Node>
    </BinaryTree>
    <BinaryTree type="DecisionTree" boostWeight="1.0000000000000000e+00" itree="40">
      <Node pos="s" depth="0" NCoef="0" IVar="0" Cut="1.4628308105468750e+02" cType="1" res="-1.5033571049571037e-02" rms="8.6097046732902527e-03" purity="7.3275121394544840e-05" nType="0">
        <Node pos="l" depth="1" NCoef="0" IVar="-1" Cut="0.0000000000000000e+00" cType="1" res="-4.3777551501989365e-02" rms="8.5681639611721039e-03" purity="7.3420655098743737e-05" nType="-99"/>
        <Node pos="r" depth="1" NCoef="0" IVar="0" Cut="1.8523068237304688e+02" cType="0" res="-9.3056913465261459e-03" rms="8.3164451643824577e-03" purity="6.7429617047309875e-05" nType="0">
          <Node pos="l" depth="2" NCoef="0" IVar="-1" Cut="0.0000000000000000e+00" cType="1" res="-5.2062101662158966e-02" rms="9.4383945688605309e-03" purity="8.9089066023007035e-05" nType="-99"/>
          <Node pos="r" depth="2" NCoef="0" IVar="-1" Cut="0.0000000000000000e+00" cType="1" res="-4.8880800604820251e-02" rms="7.5739207677543163e-03" purity="5.6577566283522174e-05" nType="-99"/>
        </Node>
      </Node>
    </BinaryTree>
    <BinaryTree type="DecisionTree" boostWeight="1.0000000000000000e+00" itree="41">
      <Node pos="s" depth="0" NCoef="0" IVar="0" Cut="1.4628187561035156e+02" cType="1" res="-1.3781675137579441e-02" rms="8.6517306044697762e-03" purity="7.4110626883339137e-05" nType="0">
        <Node pos="l" depth="1" NCoef="0" IVar="-1" Cut="0.0000000000000000e+00" cType="1" res="-4.3662227690219879e-02" rms="8.6202928796410561e-03" purity="7.4316711106803268e-05" nType="-99"/>
        <Node pos="r" depth="1" NCoef="0" IVar="0" Cut="1.8523231506347656e+02" cType="0" res="-8.4174033254384995e-03" rms="8.2003911957144737e-03" purity="6.5805164922494441e-05" nType="0">
          <Node pos="l" depth="2" NCoef="0" IVar="-1" Cut="0.0000000000000000e+00" cType="1" res="-5.2081014961004257e-02" rms="9.3563571572303772e-03" purity="8.7546970462426543e-05" nType="-99"/>
          <Node pos="r" depth="2" NCoef="0" IVar="-1" Cut="0.0000000000000000e+00" cType="1" res="-4.8789139837026596e-02" rms="7.4506821110844612e-03" purity="5.4894630011403933e-05" nType="-99"/>
        </Node>
      </Node>
    </BinaryTree>
    <BinaryTree type="DecisionTree" boostWeight="1.0000000000000000e+00" itree="42">
      <Node pos="s" depth="0" NCoef="0" IVar="0" Cut="1.5239682006835938e+02" cType="1" res="-1.2636121362447739e-02" rms="8.6593199521303177e-03" purity="7.4341573053970933e-05" nType="0">
        <Node pos="l" depth="1" NCoef="0" IVar="-1" Cut="0.0000000000000000e+00" cType="1" res="-4.3621707707643509e-02" rms="8.6318235844373703e-03" purity="7.4473857239354402e-05" nType="-99"/>
        <Node pos="r" depth="1" NCoef="0" IVar="0" Cut="1.8121536254882812e+02" cType="0" res="-7.2702364996075630e-03" rms="8.2819815725088120e-03" purity="6.7943525209557265e-05" nType="0">
          <Node pos="l" depth="2" NCoef="0" IVar="-1" Cut="0.0000000000000000e+00" cType="1" res="-5.1827050745487213e-02" rms="9.1940155252814293e-03" purity="8.4428575064521283e-05" nType="-99"/>
          <Node pos="r" depth="2" NCoef="0" IVar="-1" Cut="0.0000000000000000e+00" cType="1" res="-4.8478338867425919e-02" rms="7.4126189574599266e-03" purity="5.4935237130848691e-05" nType="-99"/>
        </Node>
      </Node>
    </BinaryTree>
    <BinaryTree type="DecisionTree" boostWeight="1.0000000000000000e+00" itree="43">
      <Node pos="s" depth="0" NCoef="0" IVar="0" Cut="1.4628318786621094e+02" cType="1" res="-1.1584770865738392e-02" rms="8.6122509092092514e-03" purity="7.3609495302662253e-05" nType="0">
        <Node pos="l" depth="1" NCoef="0" IVar="-1" Cut="0.0000000000000000e+00" cType="1" res="-4.3572377413511276e-02" rms="8.5891820490360260e-03" purity="7.3781040555331856e-05" nType="-99"/>
        <Node pos="r" depth="1" NCoef="0" IVar="0" Cut="1.8523068237304688e+02" cType="0" res="-6.9275293499231339e-03" rms="8.2371244207024574e-03" purity="6.6731154220178723e-05" nType="0">
          <Node pos="l" depth="2" NCoef="0" IVar="-1" Cut="0.0000000000000000e+00" cType="1" res="-5.2084900438785553e-02" rms="9.1956108808517456e-03" purity="8.4565072029363364e-05" nType="-99"/>
          <Node pos="r" depth="2" NCoef="0" IVar="-1" Cut="0.0000000000000000e+00" cType="1" res="-4.8657603561878204e-02" rms="7.6402309350669384e-03" purity="5.7876924984157085e-05" nType="-99"/>
        </Node>
      </Node>
    </BinaryTree>
    <BinaryTree type="DecisionTree" boostWeight="1.0000000000000000e+00" itree="44">
      <Node pos="s" depth="0" NCoef="0" IVar="0" Cut="1.4628308105468750e+02" cType="1" res="-1.0617358610033989e-02" rms="8.6670834571123123e-03" purity="7.4621173553168774e-05" nType="0">
        <Node pos="l" depth="1" NCoef="0" IVar="-1" Cut="0.0000000000000000e+00" cType="1" res="-4.3483451008796692e-02" rms="8.6576202884316444e-03" purity="7.4961484642699361e-05" nType="-99"/>
        <Node pos="r" depth="1" NCoef="0" IVar="0" Cut="1.8523202514648438e+02" cType="0" res="-6.2621040269732475e-03" rms="7.8828120604157448e-03" purity="6.1192557041067630e-05" nType="0">
          <Node pos="l" depth="2" NCoef="0" IVar="-1" Cut="0.0000000000000000e+00" cType="1" res="-5.1721815019845963e-02" rms="8.9904582127928734e-03" purity="8.0834608525037766e-05" nType="-99"/>
          <Node pos="r" depth="2" NCoef="0" IVar="-1" Cut="0.0000000000000000e+00" cType="1" res="-4.8509087413549423e-02" rms="7.1877478621900082e-03" purity="5.1258513849461451e-05" nType="-99"/>
        </Node>
      </Node>
    </BinaryTree>
    <BinaryTree type="DecisionTree" boostWeight="1.0000000000000000e+00" itree="45">
      <Node pos="s" depth="0" NCoef="0" IVar="0" Cut="1.4628308105468750e+02" cType="1" res="-9.7369477152824402e-03" rms="8.6077023297548294e-03" purity="7.3669289122335613e-05" nType="0">
        <Node pos="l" depth="1" NCoef="0" IVar="-1" Cut="0.0000000000000000e+00" cType="1" res="-4.3356418609619141e-02" rms="8.5966577753424644e-03" purity="7.3909344791900367e-05" nType="-99"/>
        <Node pos="r" depth="1" NCoef="0" IVar="0" Cut="1.8522259521484375e+02" cType="0" res="-5.6732455268502235e-03" rms="8.0508105456829071e-03" purity="6.4008672779891640e-05" nType="0">
          <Node pos="l" depth="2" NCoef="0" IVar="-1" Cut="0.0000000000000000e+00" cType="1" res="-5.1796946674585342e-02" rms="9.2646656557917595e-03" purity="8.5840663814451545e-05" nType="-99"/>
          <Node pos="r" depth="2" NCoef="0" IVar="-1" Cut="0.0000000000000000e+00" cType="1" res="-4.8562578856945038e-02" rms="7.3018353432416916e-03" purity="5.2986222726758569e-05" nType="-99"/>
        </Node>
      </Node>
    </BinaryTree>
    <BinaryTree type="DecisionTree" boostWeight="1.0000000000000000e+00" itree="46">
      <Node pos="s" depth="0" NCoef="0" IVar="0" Cut="1.4628308105468750e+02" cType="1" res="-8.9278323575854301e-03" rms="8.5948258638381958e-03" purity="7.3502233135513961e-05" nType="0">
        <Node pos="l" depth="1" NCoef="0" IVar="-1" Cut="0.0000000000000000e+00" cType="1" res="-4.3359201401472092e-02" rms="8.5845794528722763e-03" purity="7.3701667133718729e-05" nType="-99"/>
        <Node pos="r" depth="1" NCoef="0" IVar="0" Cut="1.8523068237304688e+02" cType="0" res="-5.1357075572013855e-03" rms="8.1360526382923126e-03" purity="6.5499356423970312e-05" nType="0">
          <Node pos="l" depth="2" NCoef="0" IVar="-1" Cut="0.0000000000000000e+00" cType="1" res="-5.1599510014057159e-02" rms="9.5871780067682266e-03" purity="9.1922134743072093e-05" nType="-99"/>
          <Node pos="r" depth="2" NCoef="0" IVar="-1" Cut="0.0000000000000000e+00" cType="1" res="-4.8439901322126389e-02" rms="7.2422688826918602e-03" purity="5.2171850256854668e-05" nType="-99"/>
        </Node>
      </Node>
    </BinaryTree>
    <BinaryTree type="DecisionTree" boostWeight="1.0000000000000000e+00" itree="47">
      <Node pos="s" depth="0" NCoef="0" IVar="0" Cut="1.4410108947753906e+02" cType="1" res="-8.1834550946950912e-03" rms="8.6720949038863182e-03" purity="7.4885821959469467e-05" nType="0">
        <Node pos="l" depth="1" NCoef="0" IVar="-1" Cut="0.0000000000000000e+00" cType="1" res="-4.3242104351520538e-02" rms="8.6686303839087486e-03" purity="7.5152005592826754e-05" nType="-99"/>
        <Node pos="r" depth="1" NCoef="0" IVar="0" Cut="1.7124105834960938e+02" cType="0" res="-4.8744091764092445e-03" rms="8.1371879205107689e-03" purity="6.4911488152574748e-05" nType="0">
          <Node pos="l" depth="2" NCoef="0" IVar="-1" Cut="0.0000000000000000e+00" cType="1" res="-5.0493497401475906e-02" rms="9.0054515749216080e-03" purity="8.0884376075118780e-05" nType="-99"/>
          <Node pos="r" depth="2" NCoef="0" IVar="-1" Cut="0.0000000000000000e+00" cType="1" res="-4.7984410077333450e-02" rms="7.2447787970304489e-03" purity="5.1363746024435386e-05" nType="-99"/>
        </Node>
      </Node>
    </BinaryTree>
    <BinaryTree type="DecisionTree" boostWeight="1.0000000000000000e+00" itree="48">
      <Node pos="s" depth="0" NCoef="0" IVar="0" Cut="1.4628355407714844e+02" cType="1" res="-7.5048590078949928e-03" rms="8.5914190858602524e-03" purity="7.3537863499950618e-05" nType="0">
        <Node pos="l" depth="1" NCoef="0" IVar="-1" Cut="0.0000000000000000e+00" cType="1" res="-4.3184049427509308e-02" rms="8.5861980915069580e-03" purity="7.3729301220737398e-05" nType="-99"/>
        <Node pos="r" depth="1" NCoef="0" IVar="0" Cut="1.8523068237304688e+02" cType="0" res="-4.2168330401182175e-03" rms="8.1446934491395950e-03" purity="6.5844535129144788e-05" nType="0">
          <Node pos="l" depth="2" NCoef="0" IVar="-1" Cut="0.0000000000000000e+00" cType="1" res="-5.1314745098352432e-02" rms="8.8076964020729065e-03" purity="7.7580960351042449e-05" nType="-99"/>
          <Node pos="r" depth="2" NCoef="0" IVar="-1" Cut="0.0000000000000000e+00" cType="1" res="-4.8008579760789871e-02" rms="7.7571575529873371e-03" purity="5.9977122873533517e-05" nType="-99"/>
        </Node>
      </Node>
    </BinaryTree>
    <BinaryTree type="DecisionTree" boostWeight="1.0000000000000000e+00" itree="49">
      <Node pos="s" depth="0" NCoef="0" IVar="0" Cut="1.4893354797363281e+02" cType="1" res="-6.8816896528005600e-03" rms="8.5898796096444130e-03" purity="7.3551615059841424e-05" nType="0">
        <Node pos="l" depth="1" NCoef="0" IVar="-1" Cut="0.0000000000000000e+00" cType="1" res="-4.3124984949827194e-02" rms="8.5884463042020798e-03" purity="7.3760915256571025e-05" nType="-99"/>
        <Node pos="r" depth="1" NCoef="0" IVar="0" Cut="1.7705117797851562e+02" cType="0" res="-3.7216108758002520e-03" rms="8.0409189686179161e-03" purity="6.4342493715230376e-05" nType="0">
          <Node pos="l" depth="2" NCoef="0" IVar="-1" Cut="0.0000000000000000e+00" cType="1" res="-5.1057811826467514e-02" rms="8.6486786603927612e-03" purity="7.4714233051054180e-05" nType="-99"/>
          <Node pos="r" depth="2" NCoef="0" IVar="-1" Cut="0.0000000000000000e+00" cType="1" res="-4.8226997256278992e-02" rms="7.4840006418526173e-03" purity="5.5946802604012191e-05" nType="-99"/>
        </Node>
      </Node>
    </BinaryTree>
    <BinaryTree type="DecisionTree" boostWeight="1.0000000000000000e+00" itree="50">
      <Node pos="s" depth="0" NCoef="0" IVar="0" Cut="1.5239692687988281e+02" cType="1" res="-6.3069113530218601e-03" rms="8.5884863510727882e-03" purity="7.3550821980461478e-05" nType="0">
        <Node pos="l" depth="1" NCoef="0" IVar="-1" Cut="0.0000000000000000e+00" cType="1" res="-4.3079417198896408e-02" rms="8.5907857865095139e-03" purity="7.3792813054751605e-05" nType="-99"/>
        <Node pos="r" depth="1" NCoef="0" IVar="0" Cut="1.8121717834472656e+02" cType="0" res="-3.2631044741719961e-03" rms="7.9028578475117683e-03" purity="6.2255327065940946e-05" nType="0">
          <Node pos="l" depth="2" NCoef="0" IVar="-1" Cut="0.0000000000000000e+00" cType="1" res="-5.1216274499893188e-02" rms="8.7904445827007294e-03" purity="7.7246062573976815e-05" nType="-99"/>
          <Node pos="r" depth="2" NCoef="0" IVar="-1" Cut="0.0000000000000000e+00" cType="1" res="-4.8154987394809723e-02" rms="7.0614805445075035e-03" purity="4.9861890147440135e-05" nType="-99"/>
        </Node>
      </Node>
    </BinaryTree>
    <BinaryTree type="DecisionTree" boostWeight="1.0000000000000000e+00" itree="51">
      <Node pos="s" depth="0" NCoef="0" IVar="0" Cut="1.4628355407714844e+02" cType="1" res="-5.7844901457428932e-03" rms="8.5943341255187988e-03" purity="7.3687420808710158e-05" nType="0">
        <Node pos="l" depth="1" NCoef="0" IVar="-1" Cut="0.0000000000000000e+00" cType="1" res="-4.2997471988201141e-02" rms="8.5971038788557053e-03" purity="7.3916526162065566e-05" nType="-99"/>
        <Node pos="r" depth="1" NCoef="0" IVar="0" Cut="1.8523231506347656e+02" cType="0" res="-3.1422490719705820e-03" rms="8.0494573339819908e-03" purity="6.4480067521799356e-05" nType="0">
          <Node pos="l" depth="2" NCoef="0" IVar="-1" Cut="0.0000000000000000e+00" cType="1" res="-5.1079891622066498e-02" rms="8.7963175028562546e-03" purity="7.7381140727084130e-05" nType="-99"/>
          <Node pos="r" depth="2" NCoef="0" IVar="-1" Cut="0.0000000000000000e+00" cType="1" res="-4.7689117491245270e-02" rms="7.6336311176419258e-03" purity="5.8145134971709922e-05" nType="-99"/>
        </Node>
      </Node>
    </BinaryTree>
    <BinaryTree type="DecisionTree" boostWeight="1.0000000000000000e+00" itree="52">
      <Node pos="s" depth="0" NCoef="0" IVar="0" Cut="1.5239692687988281e+02" cType="1" res="-5.3013488650321960e-03" rms="8.6777266114950180e-03" purity="7.5151176133658737e-05" nType="0">
        <Node pos="l" depth="1" NCoef="0" IVar="-1" Cut="0.0000000000000000e+00" cType="1" res="-4.2942438274621964e-02" rms="8.6870174854993820e-03" purity="7.5459684012457728e-05" nType="-99"/>
        <Node pos="r" depth="1" NCoef="0" IVar="0" Cut="1.8121717834472656e+02" cType="0" res="-2.6828360278159380e-03" rms="7.7865733765065670e-03" purity="6.0482409026008099e-05" nType="0">
          <Node pos="l" depth="2" NCoef="0" IVar="-1" Cut="0.0000000000000000e+00" cType="1" res="-5.0702672451734543e-02" rms="8.7841032072901726e-03" purity="7.7140532084740698e-05" nType="-99"/>
          <Node pos="r" depth="2" NCoef="0" IVar="-1" Cut="0.0000000000000000e+00" cType="1" res="-4.8071306198835373e-02" rms="6.8825962953269482e-03" purity="4.7369412641273811e-05" nType="-99"/>
        </Node>
      </Node>
    </BinaryTree>
    <BinaryTree type="DecisionTree" boostWeight="1.0000000000000000e+00" itree="53">
      <Node pos="s" depth="0" NCoef="0" IVar="0" Cut="1.3644927978515625e+02" cType="1" res="-4.8626144416630268e-03" rms="8.6381956934928894e-03" purity="7.4490919359959662e-05" nType="0">
        <Node pos="l" depth="1" NCoef="0" IVar="-1" Cut="0.0000000000000000e+00" cType="1" res="-4.2856950312852859e-02" rms="8.6554838344454765e-03" purity="7.4923773354385048e-05" nType="-99"/>
        <Node pos="r" depth="1" NCoef="0" IVar="0" Cut="1.6204444885253906e+02" cType="0" res="-3.1827732454985380e-03" rms="7.9197101294994354e-03" purity="6.1488288338296115e-05" nType="0">
          <Node pos="l" depth="2" NCoef="0" IVar="-1" Cut="0.0000000000000000e+00" cType="1" res="-4.9120698124170303e-02" rms="8.7459329515695572e-03" purity="7.6377604273147881e-05" nType="-99"/>
          <Node pos="r" depth="2" NCoef="0" IVar="-1" Cut="0.0000000000000000e+00" cType="1" res="-4.7325722873210907e-02" rms="7.0345662534236908e-03" purity="4.8533369408687577e-05" nType="-99"/>
        </Node>
      </Node>
    </BinaryTree>
    <BinaryTree type="DecisionTree" boostWeight="1.0000000000000000e+00" itree="54">
      <Node pos="s" depth="0" NCoef="0" IVar="0" Cut="1.4628308105468750e+02" cType="1" res="-4.4577419757843018e-03" rms="8.5880011320114136e-03" purity="7.3642462666612118e-05" nType="0">
        <Node pos="l" depth="1" NCoef="0" IVar="-1" Cut="0.0000000000000000e+00" cType="1" res="-4.2785257101058960e-02" rms="8.5944281890988350e-03" purity="7.3870338383130729e-05" nType="-99"/>
        <Node pos="r" depth="1" NCoef="0" IVar="0" Cut="1.8522259521484375e+02" cType="0" res="-2.3413004819303751e-03" rms="8.0470917746424675e-03" purity="6.4550105889793485e-05" nType="0">
          <Node pos="l" depth="2" NCoef="0" IVar="-1" Cut="0.0000000000000000e+00" cType="1" res="-4.9825742840766907e-02" rms="9.4367815181612968e-03" purity="8.9060871687252074e-05" nType="-99"/>
          <Node pos="r" depth="2" NCoef="0" IVar="-1" Cut="0.0000000000000000e+00" cType="1" res="-4.7347113490104675e-02" rms="7.2538787499070168e-03" purity="5.2533141570165753e-05" nType="-99"/>
        </Node>
      </Node>
    </BinaryTree>
    <BinaryTree type="DecisionTree" boostWeight="1.0000000000000000e+00" itree="55">
      <Node pos="s" depth="0" NCoef="0" IVar="0" Cut="1.4628308105468750e+02" cType="1" res="-4.0849391371011734e-03" rms="8.6908172816038132e-03" purity="7.5435025792103261e-05" nType="0">
        <Node pos="l" depth="1" NCoef="0" IVar="-1" Cut="0.0000000000000000e+00" cType="1" res="-4.2654760181903839e-02" rms="8.7065687403082848e-03" purity="7.5810734415426850e-05" nType="-99"/>
        <Node pos="r" depth="1" NCoef="0" IVar="0" Cut="1.8522259521484375e+02" cType="0" res="-2.1182189229875803e-03" rms="7.7896621078252792e-03" purity="6.0510108596645296e-05" nType="0">
          <Node pos="l" depth="2" NCoef="0" IVar="-1" Cut="0.0000000000000000e+00" cType="1" res="-5.0164677202701569e-02" rms="9.0058594942092896e-03" purity="8.1112040788866580e-05" nType="-99"/>
          <Node pos="r" depth="2" NCoef="0" IVar="-1" Cut="0.0000000000000000e+00" cType="1" res="-4.7869790345430374e-02" rms="7.0952996611595154e-03" purity="5.0274218665435910e-05" nType="-99"/>
        </Node>
      </Node>
    </BinaryTree>
    <BinaryTree type="DecisionTree" boostWeight="1.0000000000000000e+00" itree="56">
      <Node pos="s" depth="0" NCoef="0" IVar="0" Cut="1.4410108947753906e+02" cType="1" res="-3.7472192198038101e-03" rms="8.6225504055619240e-03" purity="7.4267452873755246e-05" nType="0">
        <Node pos="l" depth="1" NCoef="0" IVar="-1" Cut="0.0000000000000000e+00" cType="1" res="-4.2636215686798096e-02" rms="8.6353961378335953e-03" purity="7.4576215411070734e-05" nType="-99"/>
        <Node pos="r" depth="1" NCoef="0" IVar="0" Cut="1.7124105834960938e+02" cType="0" res="-2.0298718009144068e-03" rms="7.9363901168107986e-03" purity="6.2658880779054016e-05" nType="0">
          <Node pos="l" depth="2" NCoef="0" IVar="-1" Cut="0.0000000000000000e+00" cType="1" res="-4.9037877470254898e-02" rms="9.0610049664974213e-03" purity="8.2056270912289619e-05" nType="-99"/>
          <Node pos="r" depth="2" NCoef="0" IVar="-1" Cut="0.0000000000000000e+00" cType="1" res="-4.7425895929336548e-02" rms="6.8335584364831448e-03" purity="4.6418379497481510e-05" nType="-99"/>
        </Node>
      </Node>
    </BinaryTree>
    <BinaryTree type="DecisionTree" boostWeight="1.0000000000000000e+00" itree="57">
      <Node pos="s" depth="0" NCoef="0" IVar="0" Cut="1.5239569091796875e+02" cType="1" res="-3.4346657339483500e-03" rms="8.6656063795089722e-03" purity="7.5023628596682101e-05" nType="0">
        <Node pos="l" depth="1" NCoef="0" IVar="-1" Cut="0.0000000000000000e+00" cType="1" res="-4.2540375143289566e-02" rms="8.6689125746488571e-03" purity="7.5150681368540972e-05" nType="-99"/>
        <Node pos="r" depth="1" NCoef="0" IVar="0" Cut="1.8121417236328125e+02" cType="0" res="-1.6180586535483599e-03" rms="8.3043621852993965e-03" purity="6.8901725171599537e-05" nType="0">
          <Node pos="l" depth="2" NCoef="0" IVar="-1" Cut="0.0000000000000000e+00" cType="1" res="-4.9323912709951401e-02" rms="8.9505836367607117e-03" purity="8.0110454291570932e-05" nType="-99"/>
          <Node pos="r" depth="2" NCoef="0" IVar="-1" Cut="0.0000000000000000e+00" cType="1" res="-4.6955239027738571e-02" rms="7.7403211034834385e-03" purity="5.9914786106674001e-05" nType="-99"/>
        </Node>
      </Node>
    </BinaryTree>
    <BinaryTree type="DecisionTree" boostWeight="1.0000000000000000e+00" itree="58">
      <Node pos="s" depth="0" NCoef="0" IVar="0" Cut="1.5239569091796875e+02" cType="1" res="-3.1508237589150667e-03" rms="8.5583496838808060e-03" purity="7.3186405643355101e-05" nType="0">
        <Node pos="l" depth="1" NCoef="0" IVar="-1" Cut="0.0000000000000000e+00" cType="1" res="-4.2478695511817932e-02" rms="8.5613429546356201e-03" purity="7.3297669587191194e-05" nType="-99"/>
        <Node pos="r" depth="1" NCoef="0" IVar="0" Cut="1.8121417236328125e+02" cType="0" res="-1.4652973040938377e-03" rms="8.2386462017893791e-03" purity="6.7823166318703443e-05" nType="0">
          <Node pos="l" depth="2" NCoef="0" IVar="-1" Cut="0.0000000000000000e+00" cType="1" res="-4.9506492912769318e-02" rms="9.0061863884329796e-03" purity="8.1109545135404915e-05" nType="-99"/>
          <Node pos="r" depth="2" NCoef="0" IVar="-1" Cut="0.0000000000000000e+00" cType="1" res="-4.7298058867454529e-02" rms="7.5602671131491661e-03" purity="5.7160013966495171e-05" nType="-99"/>
        </Node>
      </Node>
    </BinaryTree>
    <BinaryTree type="DecisionTree" boostWeight="1.0000000000000000e+00" itree="59">
      <Node pos="s" depth="0" NCoef="0" IVar="0" Cut="1.5239765930175781e+02" cType="1" res="-2.8876070864498615e-03" rms="8.6123961955308914e-03" purity="7.4123585363849998e-05" nType="0">
        <Node pos="l" depth="1" NCoef="0" IVar="-1" Cut="0.0000000000000000e+00" cType="1" res="-4.2361155152320862e-02" rms="8.6186714470386505e-03" purity="7.4283503636252135e-05" nType="-99"/>
        <Node pos="r" depth="1" NCoef="0" IVar="0" Cut="1.8121717834472656e+02" cType="0" res="-1.3256694655865431e-03" rms="8.1543149426579475e-03" purity="6.6448701545596123e-05" nType="0">
          <Node pos="l" depth="2" NCoef="0" IVar="-1" Cut="0.0000000000000000e+00" cType="1" res="-4.8619024455547333e-02" rms="8.9239878579974174e-03" purity="7.9637466114945710e-05" nType="-99"/>
          <Node pos="r" depth="2" NCoef="0" IVar="-1" Cut="0.0000000000000000e+00" cType="1" res="-4.7291848808526993e-02" rms="7.4704322032630444e-03" purity="5.5809516197768971e-05" nType="-99"/>
        </Node>
      </Node>
    </BinaryTree>
    <BinaryTree type="DecisionTree" boostWeight="1.0000000000000000e+00" itree="60">
      <Node pos="s" depth="0" NCoef="0" IVar="0" Cut="1.4628308105468750e+02" cType="1" res="-2.6468490250408649e-03" rms="8.6459815502166748e-03" purity="7.4710995249915868e-05" nType="0">
        <Node pos="l" depth="1" NCoef="0" IVar="-1" Cut="0.0000000000000000e+00" cType="1" res="-4.2224269360303879e-02" rms="8.6499666795134544e-03" purity="7.4827948992606252e-05" nType="-99"/>
        <Node pos="r" depth="1" NCoef="0" IVar="0" Cut="1.8522259521484375e+02" cType="0" res="-1.2891675578430295e-03" rms="8.3727203309535980e-03" purity="7.0025809691287577e-05" nType="0">
          <Node pos="l" depth="2" NCoef="0" IVar="-1" Cut="0.0000000000000000e+00" cType="1" res="-4.7585967928171158e-02" rms="9.4876782968640327e-03" purity="9.0024179371539503e-05" nType="-99"/>
          <Node pos="r" depth="2" NCoef="0" IVar="-1" Cut="0.0000000000000000e+00" cType="1" res="-4.6442244201898575e-02" rms="7.7461805194616318e-03" purity="5.9972171584377065e-05" nType="-99"/>
        </Node>
      </Node>
    </BinaryTree>
    <BinaryTree type="DecisionTree" boostWeight="1.0000000000000000e+00" itree="61">
      <Node pos="s" depth="0" NCoef="0" IVar="0" Cut="1.4628187561035156e+02" cType="1" res="-2.4286280386149883e-03" rms="8.5647618398070335e-03" purity="7.3320697993040085e-05" nType="0">
        <Node pos="l" depth="1" NCoef="0" IVar="-1" Cut="0.0000000000000000e+00" cType="1" res="-4.2155683040618896e-02" rms="8.5787856951355934e-03" purity="7.3601375333964825e-05" nType="-99"/>
        <Node pos="r" depth="1" NCoef="0" IVar="0" Cut="1.8523068237304688e+02" cType="0" res="-1.1739507317543030e-03" rms="7.8697055578231812e-03" purity="6.1867875047028065e-05" nType="0">
          <Node pos="l" depth="2" NCoef="0" IVar="-1" Cut="0.0000000000000000e+00" cType="1" res="-4.8309180885553360e-02" rms="8.7690986692905426e-03" purity="7.6903095759917051e-05" nType="-99"/>
          <Node pos="r" depth="2" NCoef="0" IVar="-1" Cut="0.0000000000000000e+00" cType="1" res="-4.6561617404222488e-02" rms="7.3623955249786377e-03" purity="5.4177551646716893e-05" nType="-99"/>
        </Node>
      </Node>
    </BinaryTree>
    <BinaryTree type="DecisionTree" boostWeight="1.0000000000000000e+00" itree="62">
      <Node pos="s" depth="0" NCoef="0" IVar="0" Cut="1.4628308105468750e+02" cType="1" res="-2.2249340545386076e-03" rms="8.6257169023156166e-03" purity="7.4373696406837553e-05" nType="0">
        <Node pos="l" depth="1" NCoef="0" IVar="-1" Cut="0.0000000000000000e+00" cType="1" res="-4.1978564113378525e-02" rms="8.6386045441031456e-03" purity="7.4631439929362386e-05" nType="-99"/>
        <Node pos="r" depth="1" NCoef="0" IVar="0" Cut="1.8522259521484375e+02" cType="0" res="-1.0623246198520064e-03" rms="8.0076791346073151e-03" purity="6.4070030930452049e-05" nType="0">
          <Node pos="l" depth="2" NCoef="0" IVar="-1" Cut="0.0000000000000000e+00" cType="1" res="-4.7862853854894638e-02" rms="8.9636435732245445e-03" purity="8.0353427620138973e-05" nType="-99"/>
          <Node pos="r" depth="2" NCoef="0" IVar="-1" Cut="0.0000000000000000e+00" cType="1" res="-4.6578906476497650e-02" rms="7.4673169292509556e-03" purity="5.5740747484378517e-05" nType="-99"/>
        </Node>
      </Node>
    </BinaryTree>
    <BinaryTree type="DecisionTree" boostWeight="1.0000000000000000e+00" itree="63">
      <Node pos="s" depth="0" NCoef="0" IVar="0" Cut="1.4628308105468750e+02" cType="1" res="-2.0397710613906384e-03" rms="8.6362846195697784e-03" purity="7.4560994107741863e-05" nType="0">
        <Node pos="l" depth="1" NCoef="0" IVar="-1" Cut="0.0000000000000000e+00" cType="1" res="-4.1881658136844635e-02" rms="8.6480192840099335e-03" purity="7.4794181273318827e-05" nType="-99"/>
        <Node pos="r" depth="1" NCoef="0" IVar="0" Cut="1.8523068237304688e+02" cType="0" res="-9.5904606860131025e-04" rms="8.0781755968928337e-03" purity="6.5212683693971485e-05" nType="0">
          <Node pos="l" depth="2" NCoef="0" IVar="-1" Cut="0.0000000000000000e+00" cType="1" res="-4.6767354011535645e-02" rms="9.1053154319524765e-03" purity="8.2913669757544994e-05" nType="-99"/>
          <Node pos="r" depth="2" NCoef="0" IVar="-1" Cut="0.0000000000000000e+00" cType="1" res="-4.6426106244325638e-02" rms="7.4984999373555183e-03" purity="5.6210526963695884e-05" nType="-99"/>
        </Node>
      </Node>
    </BinaryTree>
    <BinaryTree type="DecisionTree" boostWeight="1.0000000000000000e+00" itree="64">
      <Node pos="s" depth="0" NCoef="0" IVar="0" Cut="1.4628308105468750e+02" cType="1" res="-1.8710850272327662e-03" rms="8.5662733763456345e-03" purity="7.3360628448426723e-05" nType="0">
        <Node pos="l" depth="1" NCoef="0" IVar="-1" Cut="0.0000000000000000e+00" cType="1" res="-4.1732650250196457e-02" rms="8.5803531110286713e-03" purity="7.3628194513730705e-05" nType="-99"/>
        <Node pos="r" depth="1" NCoef="0" IVar="0" Cut="1.8522259521484375e+02" cType="0" res="-8.7076064664870501e-04" rms="7.9199848696589470e-03" purity="6.2688275647815317e-05" nType="0">
          <Node pos="l" depth="2" NCoef="0" IVar="-1" Cut="0.0000000000000000e+00" cType="1" res="-4.6037957072257996e-02" rms="9.2462049797177315e-03" purity="8.5499756096396595e-05" nType="-99"/>
          <Node pos="r" depth="2" NCoef="0" IVar="-1" Cut="0.0000000000000000e+00" cType="1" res="-4.6225726604461670e-02" rms="7.1575976908206940e-03" purity="5.1216764404671267e-05" nType="-99"/>
        </Node>
      </Node>
    </BinaryTree>
    <BinaryTree type="DecisionTree" boostWeight="1.0000000000000000e+00" itree="65">
      <Node pos="s" depth="0" NCoef="0" IVar="0" Cut="1.4410220336914062e+02" cType="1" res="-1.7154846573248506e-03" rms="8.6043905466794968e-03" purity="7.4019539169967175e-05" nType="0">
        <Node pos="l" depth="1" NCoef="0" IVar="-1" Cut="0.0000000000000000e+00" cType="1" res="-4.1568744927644730e-02" rms="8.6202975362539291e-03" purity="7.4315343226771802e-05" nType="-99"/>
        <Node pos="r" depth="1" NCoef="0" IVar="0" Cut="1.7124645996093750e+02" cType="0" res="-8.4746401989832520e-04" rms="7.9223522916436195e-03" purity="6.2684790464118123e-05" nType="0">
          <Node pos="l" depth="2" NCoef="0" IVar="-1" Cut="0.0000000000000000e+00" cType="1" res="-4.6571686863899231e-02" rms="8.9323204010725021e-03" purity="7.9781995736993849e-05" nType="-99"/>
          <Node pos="r" depth="2" NCoef="0" IVar="-1" Cut="0.0000000000000000e+00" cType="1" res="-4.5775704085826874e-02" rms="6.9716745056211948e-03" purity="4.8532474465901032e-05" nType="-99"/>
        </Node>
      </Node>
    </BinaryTree>
    <BinaryTree type="DecisionTree" boostWeight="1.0000000000000000e+00" itree="66">
      <Node pos="s" depth="0" NCoef="0" IVar="0" Cut="1.5239726257324219e+02" cType="1" res="-1.5722214011475444e-03" rms="8.6026145145297050e-03" purity="7.3991519457194954e-05" nType="0">
        <Node pos="l" depth="1" NCoef="0" IVar="-1" Cut="0.0000000000000000e+00" cType="1" res="-4.1421853005886078e-02" rms="8.6122760549187660e-03" purity="7.4175688496325165e-05" nType="-99"/>
        <Node pos="r" depth="1" NCoef="0" IVar="0" Cut="1.8121821594238281e+02" cType="0" res="-6.5803132019937038e-04" rms="8.0761434510350227e-03" purity="6.5212661866098642e-05" nType="0">
          <Node pos="l" depth="2" NCoef="0" IVar="-1" Cut="0.0000000000000000e+00" cType="1" res="-4.5312434434890747e-02" rms="9.0732295066118240e-03" purity="8.2328566350042820e-05" nType="-99"/>
          <Node pos="r" depth="2" NCoef="0" IVar="-1" Cut="0.0000000000000000e+00" cType="1" res="-4.5791912823915482e-02" rms="7.1631558239459991e-03" purity="5.1313487347215414e-05" nType="-99"/>
        </Node>
      </Node>
    </BinaryTree>
    <BinaryTree type="DecisionTree" boostWeight="1.0000000000000000e+00" itree="67">
      <Node pos="s" depth="0" NCoef="0" IVar="0" Cut="1.4628318786621094e+02" cType="1" res="-1.4419432263821363e-03" rms="8.5860295221209526e-03" purity="7.3709314165171236e-05" nType="0">
        <Node pos="l" depth="1" NCoef="0" IVar="-1" Cut="0.0000000000000000e+00" cType="1" res="-4.1259352117776871e-02" rms="8.5988231003284454e-03" purity="7.3945477197412401e-05" nType="-99"/>
        <Node pos="r" depth="1" NCoef="0" IVar="0" Cut="1.8523202514648438e+02" cType="0" res="-6.4428098266944289e-04" rms="8.0096367746591568e-03" purity="6.4134197600651532e-05" nType="0">
          <Node pos="l" depth="2" NCoef="0" IVar="-1" Cut="0.0000000000000000e+00" cType="1" res="-4.4228985905647278e-02" rms="9.0814689174294472e-03" purity="8.2479949924163520e-05" nType="-99"/>
          <Node pos="r" depth="2" NCoef="0" IVar="-1" Cut="0.0000000000000000e+00" cType="1" res="-4.5291606336832047e-02" rms="7.3893801309168339e-03" purity="5.4596919653704390e-05" nType="-99"/>
        </Node>
      </Node>
    </BinaryTree>
    <BinaryTree type="DecisionTree" boostWeight="1.0000000000000000e+00" itree="68">
      <Node pos="s" depth="0" NCoef="0" IVar="0" Cut="1.5239569091796875e+02" cType="1" res="-1.3211262412369251e-03" rms="8.6135948076844215e-03" purity="7.4185605626553297e-05" nType="0">
        <Node pos="l" depth="1" NCoef="0" IVar="-1" Cut="0.0000000000000000e+00" cType="1" res="-4.1082538664340973e-02" rms="8.6215035989880562e-03" purity="7.4335053795948625e-05" nType="-99"/>
        <Node pos="r" depth="1" NCoef="0" IVar="0" Cut="1.8121717834472656e+02" cType="0" res="-5.3753436077386141e-04" rms="8.1906132400035858e-03" purity="6.7079636210110039e-05" nType="0">
          <Node pos="l" depth="2" NCoef="0" IVar="-1" Cut="0.0000000000000000e+00" cType="1" res="-4.3782860040664673e-02" rms="9.0295663103461266e-03" purity="8.1538164522498846e-05" nType="-99"/>
          <Node pos="r" depth="2" NCoef="0" IVar="-1" Cut="0.0000000000000000e+00" cType="1" res="-4.4633284211158752e-02" rms="7.4564432725310326e-03" purity="5.5601558415219188e-05" nType="-99"/>
        </Node>
      </Node>
    </BinaryTree>
    <BinaryTree type="DecisionTree" boostWeight="1.0000000000000000e+00" itree="69">
      <Node pos="s" depth="0" NCoef="0" IVar="0" Cut="1.4628187561035156e+02" cType="1" res="-1.2109463568776846e-03" rms="8.6399344727396965e-03" purity="7.4642310210037977e-05" nType="0">
        <Node pos="l" depth="1" NCoef="0" IVar="-1" Cut="0.0000000000000000e+00" cType="1" res="-4.0856849402189255e-02" rms="8.6513794958591461e-03" purity="7.4852192483376712e-05" nType="-99"/>
        <Node pos="r" depth="1" NCoef="0" IVar="0" Cut="1.8523068237304688e+02" cType="0" res="-5.2925496129319072e-04" rms="8.1359930336475372e-03" purity="6.6181462898384780e-05" nType="0">
          <Node pos="l" depth="2" NCoef="0" IVar="-1" Cut="0.0000000000000000e+00" cType="1" res="-4.3000940233469009e-02" rms="9.0135317295789719e-03" purity="8.1250378570985049e-05" nType="-99"/>
          <Node pos="r" depth="2" NCoef="0" IVar="-1" Cut="0.0000000000000000e+00" cType="1" res="-4.4648841023445129e-02" rms="7.6511823572218418e-03" purity="5.8537130826152861e-05" nType="-99"/>
        </Node>
      </Node>
    </BinaryTree>
    <BinaryTree type="DecisionTree" boostWeight="1.0000000000000000e+00" itree="70">
      <Node pos="s" depth="0" NCoef="0" IVar="0" Cut="1.4628355407714844e+02" cType="1" res="-1.1119815753772855e-03" rms="8.5317166522145271e-03" purity="7.2785536758601665e-05" nType="0">
        <Node pos="l" depth="1" NCoef="0" IVar="-1" Cut="0.0000000000000000e+00" cType="1" res="-4.0683805942535400e-02" rms="8.5476813837885857e-03" purity="7.3068382334895432e-05" nType="-99"/>
        <Node pos="r" depth="1" NCoef="0" IVar="0" Cut="1.8523202514648438e+02" cType="0" res="-4.8348685959354043e-04" rms="7.8343832865357399e-03" purity="6.1366270529106259e-05" nType="0">
          <Node pos="l" depth="2" NCoef="0" IVar="-1" Cut="0.0000000000000000e+00" cType="1" res="-4.2202342301607132e-02" rms="8.7812794372439384e-03" purity="7.7116892498452216e-05" nType="-99"/>
          <Node pos="r" depth="2" NCoef="0" IVar="-1" Cut="0.0000000000000000e+00" cType="1" res="-4.4325008988380432e-02" rms="7.3050167411565781e-03" purity="5.3359621233539656e-05" nType="-99"/>
        </Node>
      </Node>
    </BinaryTree>
    <BinaryTree type="DecisionTree" boostWeight="1.0000000000000000e+00" itree="71">
      <Node pos="s" depth="0" NCoef="0" IVar="0" Cut="1.4628187561035156e+02" cType="1" res="-1.0189788881689310e-03" rms="8.5433302447199821e-03" purity="7.2984992584679276e-05" nType="0">
        <Node pos="l" depth="1" NCoef="0" IVar="-1" Cut="0.0000000000000000e+00" cType="1" res="-4.0497366338968277e-02" rms="8.5504762828350067e-03" purity="7.3116178100463003e-05" nType="-99"/>
        <Node pos="r" depth="1" NCoef="0" IVar="0" Cut="1.8522259521484375e+02" cType="0" res="-4.3131341226398945e-04" rms="8.2333786413073540e-03" purity="6.7781082179863006e-05" nType="0">
          <Node pos="l" depth="2" NCoef="0" IVar="-1" Cut="0.0000000000000000e+00" cType="1" res="-4.0164131671190262e-02" rms="9.3464385718107224e-03" purity="8.7363609054591507e-05" nType="-99"/>
          <Node pos="r" depth="2" NCoef="0" IVar="-1" Cut="0.0000000000000000e+00" cType="1" res="-4.3304514139890671e-02" rms="7.6234745793044567e-03" purity="5.8116525906370953e-05" nType="-99"/>
        </Node>
      </Node>
    </BinaryTree>
    <BinaryTree type="DecisionTree" boostWeight="1.0000000000000000e+00" itree="72">
      <Node pos="s" depth="0" NCoef="0" IVar="0" Cut="1.4893478393554688e+02" cType="1" res="-9.3319237930700183e-04" rms="8.6069712415337563e-03" purity="7.4078197940252721e-05" nType="0">
        <Node pos="l" depth="1" NCoef="0" IVar="-1" Cut="0.0000000000000000e+00" cType="1" res="-4.0207311511039734e-02" rms="8.6193811148405075e-03" purity="7.4299205152783543e-05" nType="-99"/>
        <Node pos="r" depth="1" NCoef="0" IVar="0" Cut="1.7706602478027344e+02" cType="0" res="-3.7844743928872049e-04" rms="8.0251544713973999e-03" purity="6.4400002884212881e-05" nType="0">
          <Node pos="l" depth="2" NCoef="0" IVar="-1" Cut="0.0000000000000000e+00" cType="1" res="-4.1454456746578217e-02" rms="8.5774902254343033e-03" purity="7.3576557042542845e-05" nType="-99"/>
          <Node pos="r" depth="2" NCoef="0" IVar="-1" Cut="0.0000000000000000e+00" cType="1" res="-4.3341018259525299e-02" rms="7.5342259369790554e-03" purity="5.6766486522974446e-05" nType="-99"/>
        </Node>
      </Node>
    </BinaryTree>
    <BinaryTree type="DecisionTree" boostWeight="1.0000000000000000e+00" itree="73">
      <Node pos="s" depth="0" NCoef="0" IVar="2" Cut="3.8965358734130859e+01" cType="1" res="-8.5595191922038794e-04" rms="8.5726864635944366e-03" purity="7.3490024078637362e-05" nType="0">
        <Node pos="l" depth="1" NCoef="0" IVar="-1" Cut="0.0000000000000000e+00" cType="1" res="-3.1945049762725830e-02" rms="1.5617175959050655e-02" purity="2.4395377840846777e-04" nType="-99"/>
        <Node pos="r" depth="1" NCoef="0" IVar="0" Cut="1.6290124511718750e+02" cType="0" res="-8.9441565796732903e-04" rms="5.7898792438209057e-03" purity="3.3515829272801057e-05" nType="0">
          <Node pos="l" depth="2" NCoef="0" IVar="-1" Cut="0.0000000000000000e+00" cType="1" res="-4.1370272636413574e-02" rms="8.3661153912544250e-03" purity="6.9992463977541775e-05" nType="-99"/>
          <Node pos="r" depth="2" NCoef="0" IVar="-1" Cut="0.0000000000000000e+00" cType="1" res="-4.1832093149423599e-02" rms="5.7365181855857372e-03" purity="3.2906631531659514e-05" nType="-99"/>
        </Node>
      </Node>
    </BinaryTree>
    <BinaryTree type="DecisionTree" boostWeight="1.0000000000000000e+00" itree="74">
      <Node pos="s" depth="0" NCoef="0" IVar="2" Cut="4.0209438323974609e+01" cType="1" res="-7.8332016710191965e-04" rms="8.6524328216910362e-03" purity="7.4865973147097975e-05" nType="0">
        <Node pos="l" depth="1" NCoef="0" IVar="-1" Cut="0.0000000000000000e+00" cType="1" res="-3.1205568462610245e-02" rms="1.5644535422325134e-02" purity="2.4481012951582670e-04" nType="-99"/>
        <Node pos="r" depth="1" NCoef="0" IVar="0" Cut="1.5239765930175781e+02" cType="0" res="-8.2019012188538909e-04" rms="5.7731764391064644e-03" purity="3.3323874959023669e-05" nType="0">
          <Node pos="l" depth="2" NCoef="0" IVar="-1" Cut="0.0000000000000000e+00" cType="1" res="-4.0879741311073303e-02" rms="7.9592531546950340e-03" purity="6.3349565607495606e-05" nType="-99"/>
          <Node pos="r" depth="2" NCoef="0" IVar="-1" Cut="0.0000000000000000e+00" cType="1" res="-4.1781008243560791e-02" rms="5.7132109068334103e-03" purity="3.2641357393004000e-05" nType="-99"/>
        </Node>
      </Node>
    </BinaryTree>
    <BinaryTree type="DecisionTree" boostWeight="1.0000000000000000e+00" itree="75">
      <Node pos="s" depth="0" NCoef="0" IVar="2" Cut="3.8965358734130859e+01" cType="1" res="-7.1896042209118605e-04" rms="8.5962330922484398e-03" purity="7.3898183472920209e-05" nType="0">
        <Node pos="l" depth="1" NCoef="0" IVar="-1" Cut="0.0000000000000000e+00" cType="1" res="-3.0444782227277756e-02" rms="1.5627710148692131e-02" purity="2.4428378674201667e-04" nType="-99"/>
        <Node pos="r" depth="1" NCoef="0" IVar="0" Cut="1.4628308105468750e+02" cType="0" res="-7.5130787445232272e-04" rms="5.8273407630622387e-03" purity="3.3953336242120713e-05" nType="0">
          <Node pos="l" depth="2" NCoef="0" IVar="-1" Cut="0.0000000000000000e+00" cType="1" res="-4.1514124721288681e-02" rms="7.6182000339031219e-03" purity="5.8033427194459364e-05" nType="-99"/>
          <Node pos="r" depth="2" NCoef="0" IVar="-1" Cut="0.0000000000000000e+00" cType="1" res="-4.1517741978168488e-02" rms="5.7702078483998775e-03" purity="3.3296455512754619e-05" nType="-99"/>
        </Node>
      </Node>
    </BinaryTree>
    <BinaryTree type="DecisionTree" boostWeight="1.0000000000000000e+00" itree="76">
      <Node pos="s" depth="0" NCoef="0" IVar="2" Cut="4.0209438323974609e+01" cType="1" res="-6.5787130733951926e-04" rms="8.6637781932950020e-03" purity="7.5065632699988782e-05" nType="0">
        <Node pos="l" depth="1" NCoef="0" IVar="-1" Cut="0.0000000000000000e+00" cType="1" res="-2.9579844325780869e-02" rms="1.5638722106814384e-02" purity="2.4462863802909851e-04" nType="-99"/>
        <Node pos="r" depth="1" NCoef="0" IVar="0" Cut="1.4628308105468750e+02" cType="0" res="-6.8903109058737755e-04" rms="5.7966304011642933e-03" purity="3.3597119909245521e-05" nType="0">
          <Node pos="l" depth="2" NCoef="0" IVar="-1" Cut="0.0000000000000000e+00" cType="1" res="-4.0442153811454773e-02" rms="7.6812389306724072e-03" purity="5.8998462918680161e-05" nType="-99"/>
          <Node pos="r" depth="2" NCoef="0" IVar="-1" Cut="0.0000000000000000e+00" cType="1" res="-4.1450008749961853e-02" rms="5.7363654486835003e-03" purity="3.2906998967519030e-05" nType="-99"/>
        </Node>
      </Node>
    </BinaryTree>
    <BinaryTree type="DecisionTree" boostWeight="1.0000000000000000e+00" itree="77">
      <Node pos="s" depth="0" NCoef="0" IVar="2" Cut="3.8664020538330078e+01" cType="1" res="-6.0375995235517621e-04" rms="8.6134877055883408e-03" purity="7.4197778303641826e-05" nType="0">
        <Node pos="l" depth="1" NCoef="0" IVar="-1" Cut="0.0000000000000000e+00" cType="1" res="-2.8690982609987259e-02" rms="1.5688512474298477e-02" purity="2.4618938914500177e-04" nType="-99"/>
        <Node pos="r" depth="1" NCoef="0" IVar="0" Cut="1.5239569091796875e+02" cType="0" res="-6.3122902065515518e-04" rms="5.8532906696200371e-03" purity="3.4258002415299416e-05" nType="0">
          <Node pos="l" depth="2" NCoef="0" IVar="-1" Cut="0.0000000000000000e+00" cType="1" res="-3.9141960442066193e-02" rms="7.8051923774182796e-03" purity="6.0921967815374956e-05" nType="-99"/>
          <Node pos="r" depth="2" NCoef="0" IVar="-1" Cut="0.0000000000000000e+00" cType="1" res="-4.1213590651750565e-02" rms="5.8004651218652725e-03" purity="3.3646247175056487e-05" nType="-99"/>
        </Node>
      </Node>
    </BinaryTree>
    <BinaryTree type="DecisionTree" boostWeight="1.0000000000000000e+00" itree="78">
      <Node pos="s" depth="0" NCoef="0" IVar="0" Cut="1.4628318786621094e+02" cType="1" res="-5.5352848721668124e-04" rms="8.6052957922220230e-03" purity="7.4057708843611181e-05" nType="0">
        <Node pos="l" depth="1" NCoef="0" IVar="-1" Cut="0.0000000000000000e+00" cType="1" res="-3.8274362683296204e-02" rms="8.6157377809286118e-03" purity="7.4240590038243681e-05" nType="-99"/>
        <Node pos="r" depth="1" NCoef="0" IVar="0" Cut="1.8523231506347656e+02" cType="0" res="-2.1793185442220420e-04" rms="8.1713544204831123e-03" purity="6.6771048295777291e-05" nType="0">
          <Node pos="l" depth="2" NCoef="0" IVar="-1" Cut="0.0000000000000000e+00" cType="1" res="-3.1110778450965881e-02" rms="9.3479026108980179e-03" purity="8.7391097622457892e-05" nType="-99"/>
          <Node pos="r" depth="2" NCoef="0" IVar="-1" Cut="0.0000000000000000e+00" cType="1" res="-3.9938990026712418e-02" rms="7.5244205072522163e-03" purity="5.6618704547872767e-05" nType="-99"/>
        </Node>
      </Node>
    </BinaryTree>
    <BinaryTree type="DecisionTree" boostWeight="1.0000000000000000e+00" itree="79">
      <Node pos="s" depth="0" NCoef="0" IVar="2" Cut="4.0209438323974609e+01" cType="1" res="-5.0760101294144988e-04" rms="8.5940277203917503e-03" purity="7.3864073783624917e-05" nType="0">
        <Node pos="l" depth="1" NCoef="0" IVar="-1" Cut="0.0000000000000000e+00" cType="1" res="-2.6920489966869354e-02" rms="1.5533594414591789e-02" purity="2.4135068815667182e-04" nType="-99"/>
        <Node pos="r" depth="1" NCoef="0" IVar="0" Cut="1.4628318786621094e+02" cType="0" res="-5.3459359332919121e-04" rms="5.7324105873703957e-03" purity="3.2858413760550320e-05" nType="0">
          <Node pos="l" depth="2" NCoef="0" IVar="-1" Cut="0.0000000000000000e+00" cType="1" res="-3.7605952471494675e-02" rms="7.9208575189113617e-03" purity="6.2739745771978050e-05" nType="-99"/>
          <Node pos="r" depth="2" NCoef="0" IVar="-1" Cut="0.0000000000000000e+00" cType="1" res="-4.0976032614707947e-02" rms="5.6604449637234211e-03" purity="3.2041683880379423e-05" nType="-99"/>
        </Node>
      </Node>
    </BinaryTree>
    <BinaryTree type="DecisionTree" boostWeight="1.0000000000000000e+00" itree="80">
      <Node pos="s" depth="0" NCoef="0" IVar="6" Cut="-1.9859043121337891e+01" cType="0" res="-4.6517269220203161e-04" rms="8.5856821388006210e-03" purity="7.3721530498005450e-05" nType="0">
        <Node pos="l" depth="1" NCoef="0" IVar="-1" Cut="0.0000000000000000e+00" cType="1" res="-2.9150262475013733e-02" rms="1.3901046477258205e-02" purity="1.9328386406414211e-04" nType="-99"/>
        <Node pos="r" depth="1" NCoef="0" IVar="0" Cut="1.5800880432128906e+02" cType="0" res="-4.9282738473266363e-04" rms="6.1310036107897758e-03" purity="3.7588855775538832e-05" nType="0">
          <Node pos="l" depth="2" NCoef="0" IVar="-1" Cut="0.0000000000000000e+00" cType="1" res="-3.4146431833505630e-02" rms="8.3880759775638580e-03" purity="7.0362912083510309e-05" nType="-99"/>
          <Node pos="r" depth="2" NCoef="0" IVar="-1" Cut="0.0000000000000000e+00" cType="1" res="-4.0125109255313873e-02" rms="6.0818600468337536e-03" purity="3.6990779335610569e-05" nType="-99"/>
        </Node>
      </Node>
    </BinaryTree>
    <BinaryTree type="DecisionTree" boostWeight="1.0000000000000000e+00" itree="81">
      <Node pos="s" depth="0" NCoef="0" IVar="2" Cut="4.0209461212158203e+01" cType="1" res="-4.2576793930493295e-04" rms="8.6248917505145073e-03" purity="7.4397132266312838e-05" nType="0">
        <Node pos="l" depth="1" NCoef="0" IVar="-1" Cut="0.0000000000000000e+00" cType="1" res="-2.4801624938845634e-02" rms="1.5533004887402058e-02" purity="2.4133360420819372e-04" nType="-99"/>
        <Node pos="r" depth="1" NCoef="0" IVar="0" Cut="1.5239682006835938e+02" cType="0" res="-4.5049629989080131e-04" rms="5.7788705453276634e-03" purity="3.3394284400856122e-05" nType="0">
          <Node pos="l" depth="2" NCoef="0" IVar="-1" Cut="0.0000000000000000e+00" cType="1" res="-3.6502111703157425e-02" rms="7.4868653900921345e-03" purity="5.6054774177027866e-05" nType="-99"/>
          <Node pos="r" depth="2" NCoef="0" IVar="-1" Cut="0.0000000000000000e+00" cType="1" res="-4.0475290268659592e-02" rms="5.7324552908539772e-03" purity="3.2862040825420991e-05" nType="-99"/>
        </Node>
      </Node>
    </BinaryTree>
    <BinaryTree type="DecisionTree" boostWeight="1.0000000000000000e+00" itree="82">
      <Node pos="s" depth="0" NCoef="0" IVar="6" Cut="-2.6598360061645508e+01" cType="0" res="-3.8974988274276257e-04" rms="8.6499098688364029e-03" purity="7.4830022640526295e-05" nType="0">
        <Node pos="l" depth="1" NCoef="0" IVar="-1" Cut="0.0000000000000000e+00" cType="1" res="-2.7283955365419388e-02" rms="1.3799689710140228e-02" purity="1.9047599926125258e-04" nType="-99"/>
        <Node pos="r" depth="1" NCoef="0" IVar="0" Cut="1.4410108947753906e+02" cType="0" res="-4.1822672937996686e-04" rms="5.7919817045331001e-03" purity="3.3546559279784560e-05" nType="0">
          <Node pos="l" depth="2" NCoef="0" IVar="-1" Cut="0.0000000000000000e+00" cType="1" res="-3.3940874040126801e-02" rms="8.3425668999552727e-03" purity="6.9597626861650497e-05" nType="-99"/>
          <Node pos="r" depth="2" NCoef="0" IVar="-1" Cut="0.0000000000000000e+00" cType="1" res="-3.9964046329259872e-02" rms="5.7045295834541321e-03" purity="3.2543146517127752e-05" nType="-99"/>
        </Node>
      </Node>
    </BinaryTree>
    <BinaryTree type="DecisionTree" boostWeight="1.0000000000000000e+00" itree="83">
      <Node pos="s" depth="0" NCoef="0" IVar="1" Cut="3.9460319519042969e+01" cType="1" res="-3.5859778290614486e-04" rms="8.5732750594615936e-03" purity="7.3510491347406060e-05" nType="0">
        <Node pos="l" depth="1" NCoef="0" IVar="-1" Cut="0.0000000000000000e+00" cType="1" res="-2.5969194248318672e-02" rms="1.3127735815942287e-02" purity="1.7237990687135607e-04" nType="-99"/>
        <Node pos="r" depth="1" NCoef="0" IVar="0" Cut="1.4410220336914062e+02" cType="0" res="-3.8531215977855027e-04" rms="6.4950091764330864e-03" purity="4.2187090002698824e-05" nType="0">
          <Node pos="l" depth="2" NCoef="0" IVar="-1" Cut="0.0000000000000000e+00" cType="1" res="-3.6535456776618958e-02" rms="7.4843447655439377e-03" purity="5.6013399444054812e-05" nType="-99"/>
          <Node pos="r" depth="2" NCoef="0" IVar="-1" Cut="0.0000000000000000e+00" cType="1" res="-3.9440251886844635e-02" rms="6.4658769406378269e-03" purity="4.1811101255007088e-05" nType="-99"/>
        </Node>
      </Node>
    </BinaryTree>
    <BinaryTree type="DecisionTree" boostWeight="1.0000000000000000e+00" itree="84">
      <Node pos="s" depth="0" NCoef="0" IVar="2" Cut="4.0209438323974609e+01" cType="1" res="-3.2866719993762672e-04" rms="8.5688605904579163e-03" purity="7.3435061494819820e-05" nType="0">
        <Node pos="l" depth="1" NCoef="0" IVar="-1" Cut="0.0000000000000000e+00" cType="1" res="-2.1277472376823425e-02" rms="1.5519457869231701e-02" purity="2.4091496015898883e-04" nType="-99"/>
        <Node pos="r" depth="1" NCoef="0" IVar="0" Cut="1.5239569091796875e+02" cType="0" res="-3.5202541039325297e-04" rms="5.6920317001640797e-03" purity="3.2399024348706007e-05" nType="0">
          <Node pos="l" depth="2" NCoef="0" IVar="-1" Cut="0.0000000000000000e+00" cType="1" res="-3.1689599156379700e-02" rms="7.8738015145063400e-03" purity="6.1999329773243517e-05" nType="-99"/>
          <Node pos="r" depth="2" NCoef="0" IVar="-1" Cut="0.0000000000000000e+00" cType="1" res="-3.9864026010036469e-02" rms="5.6317262351512909e-03" purity="3.1717478123027831e-05" nType="-99"/>
        </Node>
      </Node>
    </BinaryTree>
    <BinaryTree type="DecisionTree" boostWeight="1.0000000000000000e+00" itree="85">
      <Node pos="s" depth="0" NCoef="0" IVar="6" Cut="-2.5441926956176758e+01" cType="0" res="-2.9997809906490147e-04" rms="8.6353030055761337e-03" purity="7.4578871135599911e-05" nType="0">
        <Node pos="l" depth="1" NCoef="0" IVar="-1" Cut="0.0000000000000000e+00" cType="1" res="-2.3764699697494507e-02" rms="1.3840517029166222e-02" purity="1.9160688680130988e-04" nType="-99"/>
        <Node pos="r" depth="1" NCoef="0" IVar="0" Cut="1.4410266113281250e+02" cType="0" res="-3.2608385663479567e-04" rms="5.8252331800758839e-03" purity="3.3933705708477646e-05" nType="0">
          <Node pos="l" depth="2" NCoef="0" IVar="-1" Cut="0.0000000000000000e+00" cType="1" res="-3.1566251069307327e-02" rms="8.0945622175931931e-03" purity="6.5522646764293313e-05" nType="-99"/>
          <Node pos="r" depth="2" NCoef="0" IVar="-1" Cut="0.0000000000000000e+00" cType="1" res="-3.9113380014896393e-02" rms="5.7482589036226273e-03" purity="3.3044078008970246e-05" nType="-99"/>
        </Node>
      </Node>
    </BinaryTree>
    <BinaryTree type="DecisionTree" boostWeight="1.0000000000000000e+00" itree="86">
      <Node pos="s" depth="0" NCoef="0" IVar="2" Cut="3.8966003417968750e+01" cType="1" res="-2.7625018265098333e-04" rms="8.5632624104619026e-03" purity="7.3339979280717671e-05" nType="0">
